,0,1,2,3,4,5,6,7,8,9,10,11,12,13,14,15,16,17,18,19,20,21,22,23,24,25,26,27,28,29,30,31,32,33,34,35,36,37,38,39,40,41,42,43,44,45,46,47,48,49,50,51,52,53,54,55,56,57,58,59,60,61,62,63,64,65,66,67,68,69,70,71,72,73,74,75,76,77,78,79,80,81,82,83,84,85,86,87,88,89,90,91,92,93,94,95,96,97,98,99,100,101,102,103,104,105,106,107,108,109,110,111,112,113,114,115,116,117,118,119,120,121,122,123,124,125,126,127,128,129,130,131,132,133,134,135,136,137,138,139,140,141,142,143,144,145,146,147,148,149,150,151,152,153,154,155,156,157,158,159,160,161,162,163,164,165,166,167,168,169,170,171,172,173,174,175,176,177,178,179,180,181,182,183,184,185,186,187,188,189,190,191,192,193,194,195,196,197,198,199,200,201,202,203,204,205,206,207,208,209,210,211,212,213,214,215,216,217,218,219,220,221,222,223,224,225,226,227,228,229,230,231,232,233,234,235,236,237,238,239,240,241,242,243,244,245,246,247,248,249,250,251,252,253,254,255
Mountain,0.008892632,-0.08142201,0.15674967,-0.01594266,-0.004767584,0.17307805,-0.13331074,0.2065368,-0.0106756855,0.014253411,-0.06435629,-0.121071346,0.17403272,0.031305715,-0.0405209,-0.21637574,-0.031872373,0.03338796,0.02894186,-0.18504055,-0.07310576,-0.18852216,0.08890401,-0.054106534,0.118176885,-0.33883715,-0.091293,-0.046187382,-0.08303198,-0.05537332,0.07749456,0.16591404,0.17633854,-0.23718001,-0.016021052,-0.07159305,0.038301118,-0.03591207,0.066400506,-0.2824801,-0.07802664,0.012518051,-0.086801045,-0.01987119,0.063341506,0.08939052,-0.023479516,-0.0518873,0.0074759535,0.12317494,-0.022113176,-0.12407194,0.0966612,-0.0118961325,-0.001060633,0.13329585,-0.12581757,-0.08968854,-0.17659852,0.14743829,-0.00989918,0.068992,-0.10908643,-0.097900316,-0.043334883,-0.12999777,0.036839694,-0.12451848,-0.0735887,-0.019424848,-0.0674591,0.09307228,0.038650446,-0.014812867,0.100021906,-0.045661267,0.07384022,0.2288552,0.16593792,-0.0002527276,-0.064688474,0.22272544,0.16312325,-0.07555998,0.09435856,0.19827329,0.05374003,0.051314805,0.15356165,-0.032764953,0.14591782,0.10024769,-0.06715769,0.097948045,-0.2199744,0.090707876,-0.14881453,-0.056590673,0.14124252,0.03981558,0.06416915,-0.034432255,0.06496894,-0.027746787,0.061988555,-0.012060011,-0.2766071,0.13493535,0.045612596,-0.022803666,-0.08083939,-0.03998508,-0.11898024,-0.07963764,-0.00913682,0.08109962,0.0641428,0.11870835,0.13785762,-0.06419547,-0.020194711,-0.16814393,-0.15902697,-0.017687457,-0.12156721,0.07672609,-0.0108014075,0.0116395755,0.028823826,-0.19856757,0.07979307,-0.0875366,0.046950247,-0.10357168,0.059487067,-0.011030935,0.1907755,-0.04793021,-0.060442228,-0.00036398196,0.063037515,-0.070723556,-0.015366006,-0.0062099765,0.065697715,-0.10472296,0.11868615,0.13281852,0.1126947,-0.058995467,-0.1716736,-0.05336968,-0.07210414,-0.17583811,0.09548404,0.039550398,0.118163414,0.043597043,-0.003609112,-0.15818565,0.09427699,-0.030796854,0.16994537,0.010443332,-0.090935916,0.118586935,0.22421536,-0.06393953,0.026470186,-0.020132184,0.03404685,0.0077766087,-0.079922184,-0.054667957,0.050219826,0.0755077,0.14502347,0.077879384,0.029782234,-0.056489877,-0.24528462,0.09990352,-0.025859773,0.037801165,-0.00046247867,-0.084661946,-0.02512634,0.06350399,0.09573508,0.028029164,-0.07017537,-0.002882902,0.0138869705,0.16547786,-0.07268833,0.13415702,0.16329451,0.08587756,0.2103882,-0.07952808,0.06355683,-0.04395024,0.07174561,-0.002095712,0.039194074,-0.15783246,-0.1093561,-0.014425698,-0.09575119,0.09048612,-0.2004094,0.09811247,0.038323797,0.103310175,-0.22086263,-0.024951389,-0.012731979,0.047006298,-0.0152841415,-0.018394427,-0.060404383,-0.0037353758,-0.16159038,-0.09903523,0.08238129,-0.07622738,-0.006973615,0.15640278,0.108273685,-0.025565615,0.20567027,0.0024000022,-0.057789426,-0.026892314,-0.038536053,0.040428042,-0.096405074,0.0795427,-0.026221864,0.06473494,-0.10685767,-0.11762821,0.06783183,0.09436074,-0.014681606,0.019500082,-0.14862992,-0.059637982,-0.07169227,-0.051911402,-0.12026714,0.10408794,0.028516974,-0.008011126,-0.05512531,0.07524226
Plains,0.06276988,-0.007829528,0.2046868,0.030312866,0.006072482,0.037463907,-0.19106056,0.11445244,-0.04550433,-0.09675492,-0.2426899,-0.11360767,0.058230724,0.106614426,0.14779127,-0.17051156,-0.07181167,-0.21432775,0.21531177,-0.06857564,0.06753574,-0.1322259,-0.04642039,-0.0032177558,0.048670225,-0.013927978,-0.004716439,-0.098159574,-0.1483224,0.055655703,0.15510358,0.073131144,0.1491741,-0.066234864,0.12010977,-0.04929158,-0.1434324,0.0037589937,0.052544642,-0.20726787,-0.11768627,-0.10092785,-0.10621061,-0.06268488,0.019724356,0.028679535,-0.067316286,0.020371243,0.08657299,0.025679005,-0.12032769,0.09057333,0.08008216,-0.050595824,0.02289417,0.08893961,-0.0034912305,-0.013387646,-0.032529097,0.100350834,-0.024087816,-0.011156768,0.01280002,-0.16636987,-0.06324736,0.109329335,-0.16341504,-0.17948231,0.027631458,-0.009319239,-0.04181834,0.1079287,0.10779602,0.019263206,0.04996609,-0.05563674,0.0834829,0.054311644,-0.0912275,-0.079823144,-0.07223494,0.06618321,-0.045598373,-0.046860613,-0.03900408,-0.09250595,0.11659283,0.084315434,0.04313352,-0.047093887,-0.055579867,0.053833026,-0.21635647,0.06678469,-0.083854124,-0.06064299,-0.14602457,0.063055374,0.10961817,0.06835601,-0.12259507,-0.07701202,0.0969708,0.117793836,-0.11089739,-0.0015825813,-0.2516371,0.14362392,0.0072220955,-0.0986737,-0.19433342,-0.076786265,-0.0775338,-0.12338063,0.08353609,0.11445705,0.0047231014,0.10368755,0.06477531,0.035673406,-0.01641783,-0.15532526,-0.028996257,0.104835704,0.100687504,-0.024262851,0.07253699,0.03154604,0.04996405,-0.1629942,0.023027156,-0.057446923,-0.035132248,-0.033238355,0.06964573,0.14350753,0.05934708,-0.022984479,-0.05106211,0.06129656,-0.07766747,-0.013148123,0.12966861,-0.014885336,0.062024105,-0.16308554,-0.053938046,0.13830791,0.1673119,0.11187399,-0.041854326,-0.054490976,0.05067298,-0.025589807,-0.12760353,0.023042543,0.1377599,0.014924041,0.02126379,-0.024641821,0.14212847,0.044974536,0.013775486,-0.02983562,0.02028227,0.086799316,-0.018231943,0.02221219,0.0334266,-0.100586206,0.021406941,-0.09991426,0.12234393,-0.081616744,0.17887273,-0.15638986,0.17008577,0.1081054,0.16739458,0.04216191,-0.13452572,0.025651276,0.03836403,0.17153466,-0.15035354,0.03359443,0.035089936,-0.1169502,0.014334431,0.032177035,0.005157099,0.13269173,-0.02627793,0.134384,0.13076913,0.077693254,-0.093945906,-0.12104209,0.012695874,-0.11969497,0.13265267,-0.045143697,0.06445358,0.1902141,-0.055763777,0.07619724,0.063613206,-0.11879353,-0.09070827,0.052594256,0.012606192,-0.14323837,0.046029925,0.09115585,-0.019756911,-0.0063283616,0.023411313,0.03976658,-0.10549466,-0.03388533,-0.01912108,0.05350326,-0.16632432,0.05323159,0.108099826,0.008216959,0.113533854,0.122513406,-0.08678545,-0.019288544,-0.0290201,-0.062308904,0.01395612,0.0068464666,-0.04925352,-0.012473827,-0.16374831,0.033044185,-0.0016137969,-0.10309671,-0.028715823,0.0018790788,-0.053343773,0.021916213,-0.028401716,0.111383185,-0.08671224,-0.0845473,-0.11617215,0.005662335,-0.09039772,0.10048836,0.11369479,0.15269282,-0.1306063,-0.11277742
Forest,0.0069062286,0.13264945,-0.039347254,-0.18485029,0.003847094,0.089316964,-0.024692677,0.07926255,-0.14755088,0.086671084,-0.12260724,-0.018682683,-0.016689526,-0.06144919,0.10093172,-0.09925694,-0.13055468,0.035116915,-0.05546924,-0.04248175,0.05971746,-0.015955858,0.07248829,-0.0030330406,0.0048007052,-0.31151873,0.07140013,-0.043630674,-0.08282479,-0.09616631,-0.15754467,0.01275367,0.17784967,-0.16797303,-0.12907049,-0.051564805,-0.063141294,-0.05622796,0.10562723,-0.18902302,0.09356229,0.072019815,-0.043325964,-0.083079055,0.026106572,0.01813209,-0.07175891,0.044773582,-0.03246767,0.043224595,-0.06761913,-0.14402364,-0.059787776,0.14670996,0.20269854,-0.009755829,-0.21746844,-0.1663599,-0.05959251,0.066231,0.0675054,-0.037445158,-0.18454935,-0.06856182,-0.07850972,-0.0794318,-0.13082765,-0.19841184,0.043528818,-0.04531937,-0.055380143,0.19819948,-0.009167548,-0.06475278,0.11656177,0.07880762,0.06317795,0.22309498,0.13160314,0.10910102,-0.12962139,0.19724207,0.1771151,-0.017100995,0.20147169,0.060913745,0.121233664,0.09871055,0.13307978,0.06362982,-0.051641256,0.033340547,0.024887364,0.035158128,-0.15023963,0.14508948,0.03842297,0.15803857,0.059974104,0.10427391,0.09833336,0.095441766,0.053014457,-0.046410304,-0.02142664,-0.082001925,-0.07183659,-0.03802824,-0.009059444,-0.071924865,-0.0645818,0.15303273,-0.1876907,-0.09354541,0.026458235,-0.037238985,0.016778445,0.17746301,0.09107617,-0.03083194,0.100956775,0.03290297,-0.17256272,-0.03319716,0.020608334,-0.19661129,-0.013083373,-0.035233013,-0.056092683,-0.16462202,0.11333923,0.03253928,-0.11871616,0.0409022,0.12999624,0.0054833177,0.20403732,-0.00935686,-0.094105124,0.018203698,-0.0078794155,-0.17285757,-0.07089474,-0.05345388,-0.038405348,0.008743308,0.09113721,0.079051375,0.061595835,0.022724194,-0.09264409,-0.07890692,-0.0025952277,-0.0972919,0.054082215,-0.015318334,-0.0015303749,0.02479181,-0.07958062,-0.22108832,-0.035734173,-0.028072601,0.15620244,-0.1817711,-0.2733495,0.069143206,-0.031812634,-0.012272582,0.0131150205,-0.1548993,0.024506439,-0.09959331,0.08434857,-0.013891348,0.20115769,-0.084432006,0.07664416,-0.016285878,0.120592974,-0.16183393,-0.1268855,0.049368918,0.025151877,-0.007224932,-0.02308073,-0.14457007,-0.08700844,0.025432877,0.1306186,-0.1267995,-0.058415644,0.18359926,-0.0643012,0.003630363,-0.01848262,0.00067450124,0.036034442,0.007822948,0.030133598,-0.052901793,0.087006815,0.06521272,-0.0017166384,-0.06663386,-0.16345298,-0.1198582,-0.008010636,-0.048429556,-0.1373354,0.08836396,0.040038075,-0.057012286,-0.06615529,0.088201344,-0.045519855,0.11504919,0.1119367,0.08761607,0.0930258,-0.108384565,-0.07880264,-0.07446123,-0.21121849,0.011804532,0.01776897,-0.17627077,-0.13537821,0.13295095,-0.11760476,-0.012131775,0.15277515,0.13738407,-0.014561622,-0.064004056,-0.09703093,-0.11082479,0.0070388145,0.025578178,-0.036049616,-0.11734848,0.017172094,-0.0118308375,0.07086948,-0.07985976,0.015481615,0.13488355,-0.16886322,-0.05523631,-0.10350925,-0.014339627,-0.11519737,-0.00016814747,0.059639517,0.080189,-0.0095189605,-0.06469802
Swamp,-0.024149168,0.12521617,-0.08402996,0.013506608,0.08796611,0.063346945,-0.059474885,-0.069128454,0.053956762,0.08848521,-0.14354198,0.04727954,-0.055815868,0.13629408,-0.044095427,0.0036293243,-0.14802995,0.0019734472,0.06770998,-0.028289648,0.08357333,-0.055282105,-0.14529796,0.06936615,-0.11396666,0.0041238302,-0.026922632,0.02978572,-0.043946486,-0.08870679,-0.0395804,0.080942616,0.20528989,-0.061272014,-0.00022197183,0.026781471,-0.10606149,0.0448212,-0.020595895,-0.23721322,0.019972598,-0.12987442,-0.019296153,0.020174935,0.30913702,-0.10653121,-0.1606735,0.00069059804,0.11624007,0.022684032,-0.15360181,-0.05702382,0.09127699,-0.07348689,0.08114114,0.10034462,0.14832756,-0.013748225,-0.060708985,0.09447843,-0.10740496,0.018966172,0.09507059,-0.08199666,-0.14400855,0.093182355,-0.055481672,-0.09143607,0.074509114,0.010645449,0.12463345,0.04974646,0.015473869,-0.012474048,0.017068071,0.09310898,0.064502396,0.086637,0.0038687924,-0.05810922,0.13448128,-0.12711787,-0.008426179,0.16698328,0.19064553,-0.026969304,0.149906,0.05432709,-0.014370578,7.263813e-05,0.0356885,-0.005899748,-0.09004179,-0.019269802,-0.12450263,-0.052975092,-0.03174067,-0.003866902,-0.07482723,-0.031320106,0.20928521,-0.07120056,-0.057231728,0.042681303,-0.019215576,0.025288528,-0.19258723,0.028375909,0.13767377,-0.07176498,-0.055961866,0.0016296452,-0.11770444,0.044312943,-0.0027747273,-0.029016152,-0.046921235,0.07982864,0.096249476,-0.03818572,0.0266899,-0.018177865,-0.18185937,0.00995355,0.034205098,-0.04649548,0.07344984,0.054303907,-0.0032515938,-0.021513766,0.08381385,0.037153553,-0.07161294,0.109489806,0.04975633,0.08442252,-0.053563423,-0.058873057,0.065186195,-0.010096531,-0.088681296,0.046664964,0.028257908,-0.12175079,-0.020304354,-0.0019043053,-0.03660184,0.01621035,0.094623774,-0.052409615,-0.01397752,-0.019531293,-0.056587882,0.001955472,-0.16876805,-0.09871195,0.08717813,-0.101565294,0.03912284,-0.06431861,-0.023161791,-0.042618662,0.036458958,-0.059640747,-0.24438027,0.00033852865,0.030059662,-0.10595172,-0.012420966,-0.115432814,-0.08293991,0.0177962,0.013470785,0.0026649437,0.10328823,-0.13510753,0.0776198,0.08028832,0.10465298,0.062003255,-0.11175569,-0.026925832,-0.04805684,0.16845198,0.031313337,-0.13852167,-0.012843713,-0.011214212,0.16530801,-0.13404655,0.00075931754,0.028748974,-0.11587324,0.08090676,0.03386108,-0.04624594,0.03695825,0.03440666,0.009896977,-0.0027130835,0.1031058,-0.040690176,-0.059797946,-0.07061712,-0.18432401,-0.15797079,0.034706626,0.0041752732,-0.07885394,0.03945021,0.07826046,-0.22462386,-0.03796707,0.037703853,-0.05779972,0.12840596,-0.13050392,0.08886743,0.021662282,-0.15715097,-0.016085362,-0.08078274,-0.03546782,-0.021525906,-0.095490955,-0.017821329,-0.112907045,0.015709953,-0.022255437,-0.012465713,0.04233441,-0.03686014,-0.08816775,0.003952865,-0.03878918,0.087421075,-0.0323484,0.14309351,-0.00950627,-0.15095358,0.061806113,-0.026742699,0.11465885,-0.010829857,-0.054814756,0.19044127,-0.05039381,-0.047799088,-0.10601213,0.04132009,-0.07890502,-0.10010454,-0.064373635,0.11674846,-0.12208086,-0.055121716
Island,0.122416064,0.007238087,0.08297493,-0.19447619,0.05527551,0.098266475,-0.14828213,-0.0604106,0.192123,0.05600886,-0.20787859,-0.17902094,0.12094845,0.13095933,-0.09899507,-0.01695448,-0.057800554,0.030342069,0.26922423,0.0832706,-0.036932264,-0.19018413,0.14953789,-0.04070045,0.065190054,-0.19062153,-0.076219246,-0.063567415,-0.1086178,0.013718637,0.33359277,0.0921417,0.16321577,-0.17708358,-0.14863667,-0.110382,0.11094707,0.08287549,0.06507326,-0.10207049,-0.06902069,0.011350404,-0.129124,-0.03116383,0.1776411,0.0064269407,-0.095040716,-0.1995959,-0.05412546,0.05993353,-0.1289802,-0.051273573,0.090818465,-0.0057140337,-0.09336726,0.20651764,-0.048891023,-0.12795368,-0.12442966,0.08199631,-0.21577194,0.17231756,0.16061296,-0.1605619,-0.0900225,-0.08893382,-0.038771514,-0.11048315,-0.10484871,-0.06858511,-0.037783697,-0.09303481,-0.079554364,0.10577649,-0.012170392,-0.041586343,-0.04528968,0.069607146,0.029603895,-0.039373547,-0.050319634,-0.036250163,0.09112302,0.19499542,0.048470672,0.05341713,0.0349732,0.08594171,-0.008028385,-0.080543585,0.1419864,-0.009983932,-0.04850007,0.12485014,-0.05687864,-0.007673858,-0.10329358,-0.07760375,0.09733342,0.0040641543,0.036823705,0.047656614,2.504154e-05,-0.1686867,0.05521294,0.15012434,-0.065472245,0.045366727,-0.007779939,-0.14121667,-0.067178346,0.026762467,-0.103189915,0.032566,-0.07135049,-0.044737287,-0.036926355,0.23130117,-0.05629109,0.0051068575,-0.05480275,-0.18349805,-0.08406842,-0.13727777,0.055081584,0.038078163,0.024966938,-0.052968968,0.026487403,0.049335923,-0.032083686,-0.05490802,-0.06269234,-0.059040934,0.087193884,0.23748133,-0.115711175,-0.087945774,-0.013087804,-0.09298845,-0.11685668,-0.116724685,0.27553427,-0.072524786,-0.0355178,0.013260965,-0.03239353,-0.0337425,0.00874877,0.017203413,-0.02467312,0.024224108,-0.0778507,-0.07356717,-0.08120709,-0.12988718,0.15961108,-0.057283156,0.0352298,-0.030086093,0.10002931,0.09141451,-0.07675301,0.01855869,-0.0544394,0.2595438,-0.013802721,-0.02793754,0.035461344,-0.14763361,-0.078680545,0.10418824,-0.098598175,0.054155897,0.108312815,-0.1343278,0.07101948,-0.016139645,-0.05969975,-0.018725943,-0.22795923,-0.117735855,0.09403694,0.10104643,0.12557359,-0.066421084,0.045825057,-0.038787868,0.13154298,0.030362507,-0.124313034,0.0030584238,0.026379505,0.17058098,-0.05409676,0.004764935,-0.017499909,0.2631571,0.012600268,0.080235645,-0.011369905,-0.0545318,0.04177099,-0.03391498,-0.14377579,-0.2202706,0.051059272,-0.09722821,0.116942294,0.03975712,-0.1280318,-0.027998697,0.10880241,0.14885794,-0.035330184,0.35405025,-0.015749596,-0.027133029,0.07753588,0.010112974,0.0694024,0.026701214,-0.03612279,0.013905207,-0.06719481,0.028650261,-0.0058277547,0.2088504,0.13075957,0.08329326,0.201794,-0.03009486,0.1241246,0.046032403,-0.18732856,0.08852148,-0.03274427,0.009012485,0.07977491,0.11384842,0.025176596,-0.07901882,0.12634996,0.07595507,-0.033722535,0.14454524,0.08009772,-0.003625356,-0.028349219,-0.083389975,-0.008771611,-0.054927323,0.020347413,0.10674778,-0.08622687,0.12138653
Hexgold Slash,0.045223005,-0.065311104,0.17331398,0.017618585,-0.023254314,0.10471916,-0.14696704,0.17728971,0.051490553,0.0039537367,-0.011451357,-0.11107703,0.12604865,0.0103569385,-0.037837464,-0.23652413,-0.071603045,-0.009294337,-0.029333616,-0.14915448,-0.12650837,-0.17570081,0.06570575,-0.073987104,0.105934754,-0.34833616,-0.1962174,-0.13210998,-0.06348649,-0.04988667,0.09811423,0.16912489,0.2247009,-0.17766567,-0.046268966,-0.038453273,0.026961265,0.021365454,0.058010507,-0.25288168,-0.048629414,0.044770375,-0.11806499,0.021398906,0.05922248,0.0316541,-0.050261974,-0.09810383,-0.012988276,0.08937122,0.02846751,-0.16634344,0.09503984,0.03694691,0.02517922,0.18174456,-0.11859579,-0.053809475,-0.14353167,0.07595796,0.08513264,0.050407253,-0.041931983,-0.120411195,-0.09546364,-0.17579667,-0.05325675,-0.065059744,-0.09389843,-0.0766074,-0.1014814,0.12823418,0.07473772,0.026029157,0.12359328,-0.013720691,0.08879198,0.16999266,0.19448678,0.014376791,-0.048953637,0.24719752,0.18993193,-0.014686344,0.020755513,0.217387,0.039099824,0.090676896,0.19289663,0.032007903,0.14134054,0.052444253,-0.05741103,0.046340298,-0.21754509,0.11334435,-0.109403774,-0.06677587,0.20258793,0.076631345,0.013950077,-0.0062904074,-0.005295618,-0.07636477,0.04165028,-0.027232457,-0.25334913,0.14393364,0.071781464,-0.047041457,-0.1019578,-0.0017797056,-0.077883385,-0.043808613,0.009110545,0.05223316,0.08240859,0.19955328,0.121529534,-0.039898712,-0.042566646,-0.16082281,-0.17865054,0.03916653,-0.026710633,0.087336406,-0.025111735,-0.037155185,-0.033991255,-0.21902539,0.07653444,-0.110308215,0.041919377,-0.16216998,0.1229048,-0.048484106,0.15116191,-0.052630495,-0.066617236,-0.02081124,0.060997013,-0.15873781,-0.023116332,-0.10534825,0.034108378,-0.07928876,0.13269658,0.13815588,0.09263887,-0.06619765,-0.20043717,-0.03191846,0.0109800305,-0.09741325,0.06606174,0.06602668,0.1493581,0.03870913,-0.02777054,-0.093812026,0.10010025,-0.012133362,0.15254706,0.015307569,-0.081704915,0.13081612,0.27450722,-0.10552984,0.06855438,-0.03005264,0.052939523,0.0057151252,-0.036741056,-0.038955137,0.042668324,0.07832553,0.09689949,0.10771542,0.07588052,-0.05163824,-0.24945532,0.12433521,0.0035538243,0.0025512662,-0.028961446,-0.11011952,0.004942604,0.08592514,0.042926557,0.008223927,-0.07251007,-0.004196418,-0.008755617,0.16669203,-0.0023660173,0.10900552,0.1977925,0.044203855,0.22585477,-0.15930848,0.08714819,-0.010919815,0.08782132,-0.022934219,0.051396165,-0.20101269,-0.14670332,-0.041940548,-0.03454206,0.07716119,-0.1987357,0.009751212,0.041585777,0.09874522,-0.1482714,-0.014591267,-0.024952669,0.073621884,0.0153864,-0.019554516,-0.12189224,-0.044745296,-0.19844808,-0.072275266,0.043608032,-0.08731766,-0.039282065,0.19865233,0.12843505,-0.0441509,0.22225805,0.0711425,-0.044630557,0.0147001585,0.012831636,0.027102375,-0.11530634,0.11434619,-0.023457415,0.08519786,-0.09547277,-0.08702392,0.068612695,0.08817609,0.02059996,-0.02399541,-0.14386614,-0.042763792,-0.13262208,-0.0070601427,-0.12146702,0.06909488,0.02075211,-0.030739944,-0.0719695,0.08154417
Barbed Batterfist,-0.11301198,-0.016669076,0.21519193,0.048883297,-0.054324325,0.20829877,-0.19214237,0.18654992,-0.05350572,-0.054869097,-0.04137541,-0.13717827,0.21445516,0.067208566,0.020746468,-0.32937294,-0.08018325,-0.12684366,-0.027048426,-0.14596526,-0.07823457,-0.24404182,0.094645746,-0.047830384,0.1308386,-0.20669177,-0.10308576,-0.17127669,-0.06958238,-0.09961192,0.11762032,0.124431096,0.23810421,-0.20626402,0.0714703,-0.02242118,0.071170375,-0.0780206,-0.011487422,-0.24843328,-0.06839214,-0.03241201,-0.105424896,-0.071570925,0.03954963,0.048803505,-0.060120467,-0.091084786,-0.016779093,0.05096734,0.045971707,-0.09740061,0.13337407,-0.042837184,0.016043153,0.20664483,-0.1279367,-0.09371742,-0.18953171,0.01161521,0.067618966,0.106116235,-0.019032534,-0.08379269,-0.060531132,-0.21089648,-0.116797924,-0.16065581,-0.046788026,0.0256816,-0.109085076,0.070624046,0.087723605,0.069115564,0.17097215,-0.023708113,0.13136585,0.2579632,0.20075582,-0.04852155,-0.047558896,0.24711762,0.14472084,-0.1000331,0.06940405,0.19813871,0.028104058,0.16198014,0.13154125,-0.024600048,0.09838905,0.07780294,-0.057362203,0.06572046,-0.21656981,0.13204235,-0.15896331,-0.09944758,0.0780263,0.06179056,0.07336424,0.01147793,0.079803884,-0.046148717,0.0126120355,0.073387735,-0.30488923,0.22703625,0.113102816,-0.027650137,-0.19083677,-0.08014666,-0.09301021,-0.019285612,0.043980937,0.11615658,0.05636406,0.13411821,0.15805073,-0.03722797,-0.018218629,-0.21403413,-0.16849925,0.12523472,-0.11016839,0.063612126,-0.03839037,0.08636771,0.018484708,-0.2872753,0.055209104,-0.04852373,0.033361603,-0.16635233,0.029366458,-0.15260518,0.26309273,-0.033357766,-0.099382296,0.038283724,0.05438946,-0.22411992,-0.071154274,-0.047975905,0.028828692,-0.0930637,0.08635177,0.18146057,0.10340564,0.01776549,-0.26633745,0.009365691,-0.013830896,-0.082873866,0.1713558,0.07092753,0.13480678,0.09377063,0.0045231674,-0.17203066,0.15805478,-0.08959191,0.14305101,-0.013652296,-0.039194077,0.15664226,0.21747975,-0.075903654,0.08070719,0.020743823,-0.008216072,-0.022215907,-0.09754788,-0.17747448,0.06395279,0.09484113,0.09516622,0.026850823,0.09830707,-0.053282928,-0.2638424,0.10749741,0.003563931,0.038969956,-0.014512644,-0.2093,-0.030210286,-0.019836867,0.12790097,0.023777282,-0.0798753,0.08240342,-0.055245947,0.14357679,-0.043819748,0.14660273,0.19745407,0.08483572,0.3264592,-0.14784858,0.19037437,-0.0403823,0.12986606,0.12627664,0.08482643,-0.11496174,-0.1397555,0.031235883,0.019937012,0.18066673,-0.29111984,0.028917298,0.028951887,0.16352063,-0.26017642,-0.033373736,-0.043596838,0.05498595,-0.03546349,0.05046953,-0.073425256,-0.0064978166,-0.14797117,-0.1988136,0.12857568,-0.070683435,-0.013942809,0.23031427,0.19848956,-0.10008455,0.14800863,0.116270185,-0.050322372,-0.0021517337,0.023064522,0.07412947,-0.08820278,0.12379611,0.009501338,0.15690641,-0.20192288,-0.13052851,0.018963922,0.112198964,-0.0091239195,-0.043645523,-0.18504311,-0.08399497,-0.05898445,-0.0026379135,-0.1947019,0.24322793,-0.052617747,0.02809286,-0.04332294,0.10702864
Volt Charge,0.011416114,-0.09677806,0.2029745,0.0023683026,-0.015287305,0.013494505,-0.14336827,0.119904906,0.063742645,0.03535357,-0.016496848,-0.04738775,0.15503566,0.02293776,0.0013962345,-0.18356772,-0.06546443,0.05169454,0.018907355,-0.16700976,-0.11940437,-0.16488825,0.08340568,-0.072901495,0.09619312,-0.3161555,-0.15216571,-0.10181515,-0.07784002,-0.028907724,0.083692126,0.16332787,0.21754849,-0.18602367,-0.025634555,-0.08510833,-0.042290844,0.026917983,0.049664468,-0.22004333,-0.031343702,0.08799071,-0.15548961,0.030769559,0.1172312,0.047391787,-0.026306493,-0.10265832,-0.030804755,0.10851317,-0.0042639016,-0.18261667,0.057391237,0.004080934,0.07284904,0.15308733,-0.16669923,-0.02772663,-0.15256296,0.07149714,-0.018645598,0.05636338,-0.089933276,-0.09979296,-0.15544882,-0.098919295,-0.043585416,-0.08388242,-0.07109197,-0.03234393,-0.10925059,0.07358182,0.055531476,-0.086129636,0.14327529,-0.024585035,0.058382623,0.15662618,0.1619786,0.001685942,-0.040507603,0.28521937,0.20461944,-0.009299733,0.016247958,0.18495268,0.06782472,0.07122202,0.18323773,0.056769814,0.10520892,0.034380596,-0.09044332,0.056115884,-0.2022626,0.09499354,-0.08392678,-0.022419248,0.18852289,0.05613491,0.07421203,-0.0023057885,0.06420594,-0.07918418,-0.0008479269,-0.0063384953,-0.2615596,0.092073575,0.034270056,-0.036492027,-0.11573483,0.018128268,-0.091357596,-0.049338415,-0.045207083,0.008712975,0.084748544,0.18470715,0.19675678,-0.07826686,-0.032157212,-0.1606144,-0.15437278,-0.042040437,-0.06779351,0.058700465,0.009410756,-0.04000711,-0.028391836,-0.20230107,0.116700575,-0.12220626,0.052115284,-0.15157183,0.106698744,-0.033037607,0.1609856,-0.04153518,-0.040626865,-0.012103706,0.11420319,-0.18283607,0.01330972,-0.070016876,0.03579205,0.0021523484,0.11190414,0.0980144,0.02452651,0.024159253,-0.15975736,-0.028769704,0.019522587,-0.11193115,0.06624944,0.06975204,0.12957464,0.10080149,0.035334554,-0.118532814,0.035777234,-0.022828043,0.16640392,-0.021410186,-0.0889912,0.0760647,0.2460445,-0.099152625,0.09965784,0.0041990583,0.07682712,0.0233189,-0.04768051,-0.0010244289,0.02425302,0.0761366,0.09599981,0.07257311,0.0060981954,-0.013526243,-0.24195464,0.07897309,-0.019753074,0.056223884,0.022150625,-0.113310955,-0.00037365872,0.06691975,0.11042208,-0.029100584,-0.026534293,-0.006940855,0.008612093,0.12650348,0.0053976136,0.11060124,0.18308103,0.03553552,0.23800614,-0.1146064,0.08100644,-0.024469579,0.08575632,-0.034708187,-0.007833621,-0.16699639,-0.115899794,-0.012063737,-0.08219888,0.09603414,-0.11456821,0.03843045,0.024539335,0.1738824,-0.14140594,0.057406683,-0.026410537,0.07200827,-0.0001619659,-0.002249712,-0.088321365,-0.030620053,-0.15537414,-0.05199147,0.03183364,-0.11708768,-0.016532585,0.17595595,0.103566855,-0.002200491,0.27873352,0.06034766,-0.109037705,0.030059328,-0.022054236,0.080164626,-0.14162874,0.0782924,-0.017755453,0.10828652,-0.0589421,-0.110953435,0.039216023,0.04147421,0.010787027,0.0004945422,-0.17877464,-0.047810704,-0.073674634,0.008871095,-0.12250328,0.052519716,-0.04920254,-0.046150573,-0.056348607,0.14196196
Axiom Engraver,-0.041188475,-0.031453066,0.08835145,-0.059248272,0.07814901,0.2597052,-0.20219678,0.13681091,0.031183075,0.1119967,0.0058022235,-0.13870454,0.14682458,-0.12205995,-0.09173788,-0.24351004,-0.02559404,0.019856771,-0.05397677,-0.13370171,-0.112611316,-0.23624253,0.14064099,-0.08789258,0.05724357,-0.34549287,-0.10802731,-0.1286355,-0.15128481,-0.04308307,0.058482677,0.16071372,0.27987066,-0.19696417,-0.024082573,-0.09337739,0.046322953,-0.024234897,-0.0032027285,-0.18208387,-0.10054272,0.0063157254,-0.18269266,-0.06627887,-0.027209446,0.018191429,-0.06727825,0.02528672,-0.015175796,0.09271122,0.058303848,-0.1742381,0.026399273,0.012483034,0.030138223,0.25159168,-0.18412347,0.01985996,-0.19052133,0.02442489,0.062127367,0.07073775,-0.14480999,-0.0731643,-0.07661687,-0.15541083,-0.037731223,-0.067444466,-0.085752085,-0.04329512,-0.045203377,0.120771,0.07957914,0.018414356,0.16012853,-0.026076123,0.13550387,0.27261305,0.18855,-0.0071313023,-0.09318776,0.3225341,0.22140269,-0.11149137,0.07027592,0.10121891,0.029772893,0.07609861,0.12964155,0.074909374,0.1739038,0.06654285,-0.13670728,0.13678202,-0.22541673,0.08695966,-0.116607435,-0.05069173,0.1844233,0.053370614,0.1304182,0.054601688,0.027881388,-0.09994373,0.12057395,0.068109185,-0.24828377,0.08150981,0.09666792,0.00012726079,-0.16810732,-0.034623455,0.008766314,-0.09074416,0.010240403,0.15984373,0.13773584,0.13736422,0.12968087,-0.09054492,0.037334196,-0.16308174,-0.19369823,-0.011177835,-0.12762445,0.04586958,-0.009147169,0.026297452,0.0026103226,-0.3001776,0.15801382,-0.05772067,0.1245803,-0.1510112,0.13494948,-0.103242174,0.2997055,0.0667077,-0.057138957,-0.04858436,0.105635986,-0.16633376,-0.16766,-0.05696353,0.079621956,-0.07860384,0.01524092,0.10533111,0.030356819,-0.002828614,-0.2450643,0.037993196,-0.045440078,-0.07924927,0.17923093,0.03438853,0.1037759,0.09384377,-0.08264874,-0.19762689,0.046189386,-0.107477345,0.14206491,-0.113489635,-0.13667223,0.1563848,0.16644713,-0.116701506,0.043620463,-0.06193329,0.105435714,0.061637543,-0.04890792,-0.16408536,-0.03660044,0.08019317,0.18426608,0.02992238,0.02296675,-0.08926984,-0.31991768,0.13226253,0.009319542,-0.0028945878,0.035642814,-0.21000905,-0.12393447,0.06079429,0.16031842,0.023933478,-0.09490122,0.05501663,-0.0260239,0.20875946,-0.045573194,0.12445332,0.19325317,0.13552213,0.23935248,-0.14850645,0.020750273,0.007417217,0.16800484,0.008597508,0.008473207,-0.13474555,-0.17849503,-0.029378649,-0.042921975,0.147343,-0.22425242,-0.012726329,0.014303569,0.1320304,-0.1928586,0.028355803,-0.08581667,0.13560152,-0.046919387,0.04320031,-0.07802155,-0.048694387,-0.16484521,-0.1242142,0.036342338,-0.2140799,-0.06027525,0.2191491,0.18678889,-0.13475345,0.25026512,0.09299501,-0.050133497,0.038479056,-0.016345926,-0.0047108536,-0.059315663,0.042722262,-0.091360055,0.13683553,-0.13594508,-0.08080466,0.06684126,0.017532507,0.011838903,-0.057845917,-0.15229554,-0.05052457,-0.10663919,-0.040491495,-0.17468783,0.13735801,0.033458807,0.01657614,-0.013164096,0.07840877
Contagious Vorrac,-0.009681038,0.06731396,-0.053510033,-0.23935376,0.0412856,0.050581664,-0.060524154,0.06893735,-0.1648224,0.08373209,-0.08394429,-0.09628044,-0.010488955,-0.0779385,0.12443438,-0.14581157,-0.092545986,0.025418146,-0.07358781,-0.08156142,0.0060976585,0.03709587,0.06686475,0.0032253433,0.020757936,-0.29931417,0.03325101,-0.02882047,-0.095770665,-0.12460413,-0.119292386,-0.014357659,0.22948943,-0.20513235,-0.117219135,-0.052120656,-0.09487202,-0.13717324,0.123868525,-0.21054444,0.027199918,0.09427163,-0.083418645,-0.0603377,0.03549045,-0.041936282,-0.13052179,0.07071709,-0.008066233,0.062414072,-0.08421015,-0.15047538,-0.10534904,0.18572843,0.19227089,-0.020284047,-0.18981043,-0.13123295,-0.017334372,0.022581836,0.10190813,-0.024849301,-0.17971691,-0.099666126,-0.12210231,-0.10533484,-0.0747178,-0.18056479,0.09713005,0.0009545511,-0.0030222724,0.16733694,-0.009588601,-0.07914707,0.14497028,0.0612339,0.03636542,0.16648626,0.1021149,0.14964809,-0.0322896,0.23182204,0.16191795,-0.05924388,0.18253256,-0.00791848,0.12885953,-0.0034811117,0.16851097,0.031864997,-0.0574735,0.04061752,-0.016895719,0.073299505,-0.0811379,0.22616428,0.029563257,0.094192736,0.079695776,0.0112747345,0.07353322,0.16680615,0.005855287,-0.010976624,0.037278622,0.06545146,-0.09725191,-0.1080545,-0.0072489646,-0.090352386,-0.115961336,0.16591235,-0.1491288,-0.12375739,0.0014460227,-0.0803249,0.07453146,0.15754509,0.07297601,-0.10695252,0.011307026,0.019166213,-0.15096058,-0.026459975,-0.02957051,-0.18869919,0.04503819,-0.06167749,-0.056412514,-0.24489632,0.14483869,0.041336764,-0.09555368,0.0044257124,0.08361064,-0.037085604,0.24513075,-0.030509092,-0.11142025,-0.055675775,-0.065103196,-0.1582793,-0.04984789,-0.07752337,0.060651664,0.08961997,0.058035094,0.05789243,0.056193713,0.08056662,-0.09439887,-0.01773767,0.01543047,-0.08339207,0.0674241,-0.016417312,0.0058289375,0.008864959,-0.055879522,-0.12914884,-0.057744604,-0.08897883,0.060461566,-0.19558117,-0.23632275,0.050524235,-0.05309597,-0.038711537,-0.0453811,-0.18285622,0.044425894,-0.053434066,-0.014061384,0.00075436814,0.15852934,-0.06822612,0.11722274,0.040931903,0.09708217,-0.14456591,-0.058707554,0.048648063,-0.028794315,0.0152044725,0.020582128,-0.21628883,-0.086100765,0.07797343,0.13946843,-0.044839907,0.033670213,0.26550758,-0.054517623,-0.0010503647,-0.08928527,0.025218576,0.1233648,0.015780926,0.08487805,-0.06778573,0.046266593,0.05996994,0.008887329,-0.054073762,-0.14499,-0.06446433,-0.027014846,0.04788273,-0.14999,0.08948347,0.052102603,-0.07554246,-0.14059821,0.17602429,-0.062444128,0.046230372,0.01983688,0.10904214,0.11955038,-0.14869478,-0.054530382,-0.027361773,-0.16749483,0.01547321,-0.007764228,-0.20597522,-0.10745054,0.08083762,-0.09123851,-0.05290263,0.21842228,0.17600273,-0.01976884,-0.0026431186,-0.14783302,-0.14467047,-0.057037584,0.0192855,-0.11884505,-0.11694497,0.018210813,-0.0009064768,0.015954018,-0.13101487,-0.023569534,0.06426336,-0.24033508,-0.08647846,0.0005463772,-0.04645639,-0.13538067,0.060559765,0.032750513,0.057638425,-0.027469875,-0.053945936
Chimney Rabble,-0.03346542,-0.05328693,0.12377285,0.082717754,-0.04791204,0.24955517,-0.16327915,0.1697767,-0.03574522,-0.017069573,-0.013410569,-0.1622339,0.2189114,-0.037055477,-0.05569543,-0.37324804,-0.096821666,-0.041868586,-0.02665766,-0.10438902,-0.08481632,-0.14074375,0.04116042,-0.029314907,0.13790588,-0.2615097,-0.18153898,-0.17161274,-0.048003,-0.040313784,0.12533134,0.07333513,0.27221534,-0.20078972,-0.04235566,-0.03873355,-0.02368059,-0.13355194,0.05850023,-0.25025597,0.00796056,-0.025235068,-0.05484174,-0.13053897,0.059505176,-0.015537626,-0.037497878,0.012261432,-0.072378986,0.104896225,0.009510235,-0.22466291,-0.0010961733,0.004025901,-0.012076137,0.22024234,-0.041732173,0.032904066,-0.15936576,0.02073193,0.10574528,0.058007315,-0.07939895,-0.14405,-0.1651622,-0.18913685,-0.008328522,-0.10929995,-0.041001268,-0.07479678,-0.07202138,0.11948788,0.04005689,0.056575134,0.13721894,-0.108818874,0.16346344,0.29364341,0.31607932,-0.01001081,0.01175631,0.3299008,0.182188,-0.12988527,0.03160794,0.13547795,0.067327976,0.080710635,0.16590844,0.049205128,0.06436354,0.1413574,-0.09050782,0.12550819,-0.23745506,0.15900211,-0.1868633,0.020808747,0.20847216,0.022299187,0.16736409,0.020240033,0.036627516,-0.12363475,-0.0035215397,0.015323518,-0.2628714,0.16811389,0.13153596,-0.015308401,-0.14176358,-0.05768327,-0.015137367,-0.029695474,-0.013713892,0.1164076,0.07158351,0.12141373,0.096832074,-0.052559637,0.046499964,-0.15457319,-0.15114218,0.10059273,-0.12587655,0.08049088,0.042630095,0.00518557,0.030002488,-0.3535585,0.14650983,-0.03458632,0.025550067,-0.12222211,0.10372812,-0.04502247,0.28824532,0.011108399,-0.12569702,-0.012834872,0.06215797,-0.09091197,-0.13675725,-0.1223681,0.11751871,-0.20095164,0.06178527,0.20468435,0.068262644,-0.0055669826,-0.292809,0.037197825,-0.03909285,-0.048871886,0.19182335,0.04449188,0.0821497,0.017878657,-0.07322036,-0.20142975,0.083976895,-0.08603404,0.12779416,-0.083712794,-0.11191936,0.07822494,0.2022067,-0.1520507,0.022951065,-0.11290279,0.06170673,-0.020264355,-0.13277891,-0.13977996,0.01304851,0.113421194,0.2025318,0.032430682,0.026680365,-0.07849341,-0.20421535,0.16873738,-0.09935659,0.027141815,0.0022704287,-0.199794,-0.027730102,0.05443851,0.06498625,-0.037189923,-0.030931978,0.19093506,-0.019260356,0.17536148,-0.04406864,0.050644033,0.16189733,0.0448525,0.21151495,-0.20397122,0.035809353,0.053053483,0.031750396,-0.005367109,0.086376555,-0.07603046,-0.15820427,-0.028720563,-0.15548764,0.14038919,-0.19648398,-0.034095,-0.09191543,0.12094222,-0.20175807,-0.100493126,-0.10780082,0.053288523,-0.01526394,0.057193168,-0.09756384,-0.04711241,-0.15283664,-0.07724197,0.1078747,-0.13999799,-0.00022174127,0.23707753,0.1940247,-0.15210856,0.19961365,0.118228726,-0.04180176,-0.1619765,0.027797844,0.023213264,-0.18794265,0.15949535,-0.06253597,0.11517154,-0.2142729,-0.17388576,-0.045161426,0.106810585,0.04218813,0.006517242,-0.22240941,-0.053163175,-0.1445134,-0.09564901,-0.17293997,0.1505002,-0.002348671,0.06587208,-0.046674926,-0.009683392
Furnace Strider,0.005431562,-0.05052837,0.10389315,0.016466867,-0.036141466,0.1767859,-0.16812648,0.23577009,-0.040062014,0.043284994,0.009762424,-0.07987349,0.22089528,-0.04307757,-0.025994595,-0.2795794,-0.06978421,0.06223408,-0.008025139,-0.16449614,-0.062424876,-0.10272598,0.048678488,-0.12596847,0.09024358,-0.4034157,-0.12343146,-0.1622997,-0.11639934,-0.014501775,0.09120735,0.11940019,0.21128947,-0.115904495,-0.05368157,-0.02445356,0.010989945,-0.006053925,0.051324997,-0.23159648,0.016673042,-0.03129346,-0.107632846,-0.056826755,0.07873563,0.009293567,-0.029660556,-0.05101804,0.026022723,0.020138575,0.02827041,-0.2919701,0.08605214,-0.02820763,0.050501566,0.27565318,-0.12145325,-0.057934918,-0.12946773,0.0020523604,0.068981454,0.11088395,-0.12402575,-0.11163649,-0.14273374,-0.1663376,-0.02563698,-0.13742627,-0.05344386,-0.028752234,-0.041887432,0.040931705,-0.024202224,0.0006037023,0.14239523,-0.09626755,0.04237866,0.24144244,0.10502481,0.07770731,-0.0854057,0.29868814,0.20290427,-0.0519706,0.054403674,0.14218554,0.04808661,0.04573254,0.19348231,0.028761342,0.15155222,0.11252354,-0.12398401,0.16967116,-0.22529408,0.09398313,-0.17273225,-0.028115302,0.12667753,0.08778108,0.06798114,0.029764675,0.08164689,-0.076622225,0.037019115,0.02628584,-0.23297054,0.1195975,0.020980023,0.098897494,-0.15740353,-0.0325573,-0.037340734,0.039102945,0.041336942,0.064528674,0.12507862,0.16593948,0.16057593,-0.12396459,-0.051976364,-0.16322811,-0.19572352,-0.0049842177,-0.11174588,0.032858454,0.054543152,-0.04075837,-0.0031858264,-0.23573239,0.15415938,-0.026332866,0.12366201,-0.13658398,0.14210176,-0.14332418,0.33319217,0.0129442,-0.12049979,-0.027049148,0.01688627,-0.1568986,-0.06741774,-0.10685704,0.09453139,-0.09206858,0.113089144,0.11829625,0.07613345,0.036673103,-0.18348005,0.010461679,0.043991935,-0.0500402,0.14568351,0.10094275,0.02775848,0.06488899,-0.057738077,-0.28720543,0.0028682018,-0.071018085,0.14211822,-0.12190715,-0.19101359,0.1140298,0.26735204,-0.018752497,0.02710827,-0.075168476,0.11725986,-0.012411949,-0.10714697,-0.0661991,0.033884928,0.08688089,0.18076906,0.006216857,-0.0023200102,-0.06760093,-0.2566754,0.18126892,-0.08335431,0.0077291266,-0.012073157,-0.16523486,-0.010702997,0.067113906,0.13346533,0.06323707,-0.06356028,0.065060765,-0.012643896,0.20002456,-0.04921851,0.10150357,0.17634772,0.0938121,0.27445802,-0.17581382,0.09478046,-0.0034330864,0.041012563,-0.008208298,0.018189581,-0.098007016,-0.1769956,-0.01947119,-0.060445767,0.099360265,-0.21807301,0.034057733,0.021530537,0.16674703,-0.22019711,-0.04315029,0.0052805035,0.047183074,-0.04142019,0.01949002,-0.04162603,-0.05713753,-0.19516714,-0.050308302,-0.021710837,-0.122295715,-0.108188175,0.21747015,0.077261,-0.17982438,0.19158888,0.05996873,-0.027325995,-0.04573354,-0.0037264135,-0.061095368,-0.06654332,0.07516346,-0.012127855,0.09387876,-0.18839586,-0.16873899,-0.010917329,0.011634203,0.03786046,-0.029274426,-0.189831,-0.06973963,-0.1784796,0.00093240256,-0.11324178,0.05751683,0.05130828,-0.053033,-0.02889641,0.07358027
Planar Disruption,0.14788193,-0.041687872,0.26594836,0.045427565,-0.012847546,-0.011930067,-0.19029702,0.12774915,0.004230749,-0.1357393,-0.22394261,-0.11854877,-0.01883288,0.09290433,0.05749094,-0.17286222,-0.0930561,-0.2255676,0.14546731,-0.051252514,0.06990145,-0.17723213,-0.017412564,-0.009472235,0.09693773,0.023940086,-0.025365302,-0.078761205,-0.1379615,-0.007015307,0.18807149,0.028935399,0.17053841,-0.16067834,0.17710386,-0.113707244,-0.19682625,-0.028347101,0.07387282,-0.27388552,-0.11412936,-0.08884775,-0.13265118,-0.108021796,-0.015183787,0.032937657,-0.121905394,0.042214558,0.080031715,0.007565992,-0.085847065,0.09194176,0.066111036,-0.00094552204,0.02476149,0.106254555,-0.02826265,-0.05634154,0.03779884,0.052184567,0.024083752,-0.017917594,0.04374184,-0.1857115,-0.09074414,0.028294684,-0.21477462,-0.1404351,0.002221589,-0.033296004,-0.076344274,0.13242616,0.082251266,0.013206182,0.03995165,-0.05035031,0.1128934,0.07423095,-0.11157843,-0.056578357,-0.04642495,0.06864341,-0.01916836,-0.024952244,-0.061213877,0.005578292,0.07580088,0.07176448,0.02332868,-0.06281927,-0.027255794,0.05956992,-0.1323721,0.08860253,-0.014776165,0.06460535,-0.12906842,0.008905906,0.107835636,0.12235419,-0.10998046,-0.110087246,0.08828192,0.120567486,-0.13276179,-0.014943261,-0.24088137,0.12665018,0.03184781,-0.1221949,-0.224914,-0.021658001,-0.04296048,-0.12135117,0.030389989,0.03999605,0.052901987,0.1607326,-0.02043896,-0.019196564,-0.032756407,-0.10242397,-0.05630776,0.1275408,0.11340327,-0.026201783,0.056253236,-0.0014190469,0.049044684,-0.19081637,-0.004335001,-0.04610812,3.0707586e-05,0.03827478,0.016337277,0.11933777,0.028189002,-0.0070160422,-0.058035307,0.07618106,-0.05938179,-0.095768906,0.15425432,-0.031802487,-0.0395646,-0.13037086,-0.055640522,0.15134898,0.092356354,0.121490546,-0.07461545,-0.032040868,0.09571901,-0.015219178,-0.08847711,0.0949539,0.13850434,0.05105184,0.034892283,0.024625374,0.08315126,0.044920765,-0.026388537,0.027262675,0.011427091,0.060841214,0.049501587,-0.030252548,-0.031824023,-0.08833802,0.027647085,-0.097228356,0.09110667,-0.03935282,0.21602628,-0.19067307,0.14074615,0.109390736,0.18795429,0.05501024,-0.14222632,0.022678895,0.07077401,0.075447306,-0.12686323,0.057684127,0.023192065,-0.12587988,0.0017242646,-0.0013801727,0.01809858,0.047072656,-0.0007497704,0.083516546,0.049291868,0.05936683,-0.036295477,-0.14825775,0.016914194,-0.123108976,0.13023695,-0.049973793,0.08773864,0.12624392,-0.013232109,0.036875132,0.051342614,-0.014462314,-0.03999712,0.07362302,0.02845114,-0.1501742,0.05426815,0.034872398,0.027872076,0.02913138,-0.049963653,0.038470067,-0.09831994,-0.042146605,-0.027178476,0.052818645,-0.1120054,0.0010176087,0.14495592,0.07344602,0.07845334,0.06293778,-0.08504323,-0.042039942,-0.030420572,0.055690274,-0.02621181,0.036998015,-0.052016824,0.016026353,-0.06901801,0.08473244,0.07605213,-0.08301666,-0.020698998,-0.013043315,-0.023923758,0.034547515,-0.00192047,0.07708216,-0.05442833,-0.036632415,-0.14006111,0.0077732,-0.089253984,0.12357624,0.0820578,0.15795939,-0.19449523,-0.07768526
Lattice-Blade Mantis,-0.047124304,0.117769055,-0.09917253,-0.19351305,0.051099338,0.091325335,-0.124610804,0.14555997,-0.21720138,0.1545151,-0.027564764,-0.1273098,0.028825665,-0.11600957,0.041796297,-0.14740917,-0.112851374,0.044407837,-0.051020484,-0.027295087,-0.034322,0.012309325,0.059661858,-0.002926062,-0.08190153,-0.38778228,0.061277613,-0.02804283,-0.15125313,-0.03485484,-0.16948311,-0.0037983118,0.25145757,-0.1801904,-0.10788987,0.04809491,-0.018904451,-0.09540928,0.14286652,-0.23207958,0.07526471,0.04549556,-0.14412826,-0.09388592,-0.00013959831,-0.013088033,-0.07224586,0.06640968,-0.05431957,0.100584805,-0.091645025,-0.1594235,-0.13089052,0.08751736,0.19800764,0.035804197,-0.21018924,-0.116264634,-0.11541668,-0.027297005,0.1247409,-0.0010461428,-0.23494641,-0.15086935,-0.084084,-0.16383065,-0.059741296,-0.17948529,0.051760934,-0.10214674,-0.062106926,0.18456103,-0.01823431,-0.0035613987,0.15774085,-0.0043074577,0.10395824,0.1609217,0.2115663,0.15700917,-0.10100894,0.28587043,0.16998069,-0.09973392,0.13240783,0.09980307,0.11616362,-0.00614361,0.1578936,0.10416285,-0.035237264,0.067398414,-0.04128613,0.10267051,-0.16087082,0.28265283,-0.02822535,0.078815565,0.16998617,0.06717249,0.08019638,0.14737701,0.101928644,-0.11496076,-0.003129662,-0.0053527313,-0.08746614,-0.038054034,0.007848386,-0.052977856,-0.092941485,0.1796909,-0.21410328,-0.05638136,0.07261901,-0.041798446,0.12708199,0.19394743,0.053704184,-0.027853562,0.10269851,0.05936829,-0.1609408,-0.025463698,-0.053299993,-0.16478118,0.03751283,0.026410423,-0.041112218,-0.3109079,0.26282582,-0.00066381966,-0.10429206,-0.052171294,0.12195381,-0.010187496,0.36010045,-0.035423268,-0.095479466,-0.033243563,-0.030695457,-0.17267571,-0.14859696,-0.14900148,0.046409238,0.0073301625,0.061514396,-0.012676996,0.06511501,-0.00604883,-0.20389928,-0.0032713087,-0.007533737,-0.0789237,0.11947661,0.027786642,-0.046598393,0.05387208,-0.095998146,-0.16473785,-0.08250539,-0.011728084,0.07403221,-0.20641187,-0.30614844,-0.0013722623,0.08004866,-0.10976652,0.05150719,-0.1531642,0.050522845,-0.059515297,0.029211279,-0.06733885,0.09684291,-0.075113356,0.1375558,0.0155376,0.13965222,-0.16523515,-0.15030529,0.1009372,-0.1342414,-0.05322266,0.019797875,-0.23481531,-0.11098413,0.111631036,0.08664869,-0.036794763,0.0027335442,0.2921185,-0.040331565,0.11743658,-0.08422887,-0.051826056,0.17859155,0.027434964,0.084651574,-0.07005456,0.04621647,0.09014286,-0.023374585,-0.044266038,-0.1375476,-0.056484245,-0.021276653,-0.084601104,-0.12709059,0.15241796,0.021068716,-0.04774907,-0.13888067,0.21981734,-0.070825554,0.06977194,0.11898039,0.13527706,0.19240572,-0.06799081,-0.12937364,-0.056953102,-0.19666076,-0.055731013,-0.001061367,-0.28830487,-0.10366609,0.070903264,-0.03252335,-0.113688864,0.2223379,0.23341003,-0.012004888,-0.037206627,-0.0708328,-0.19336921,-0.07822314,0.05134655,-0.12856083,-0.06496302,-0.093924575,-0.05709003,0.025475152,-0.16747497,0.01657243,0.0005863438,-0.24849941,-0.052902445,-0.01937153,-0.04224598,-0.1382297,-0.095614456,0.085563414,0.092015184,-0.030101778,-0.07163099
Terramorphic Expanse,0.048184548,-0.042634137,0.051562503,-0.029243382,0.0725285,0.07423661,-0.098424494,0.0069275545,0.058474135,0.039390225,-0.062774464,-0.022876356,-0.011965746,0.093163304,-0.08920862,-0.057743624,-0.0983566,-0.009962163,0.17631006,-0.04868416,-0.11297639,-0.06933859,-0.048473354,0.008342345,-0.009398854,-0.11528991,-0.081645094,0.024149323,-0.13626811,0.006445772,0.036467485,0.10848236,0.16585888,-0.09563698,-0.101748064,-0.18184939,-0.031104948,0.030098781,-0.04280532,-0.19937894,-0.0053653554,0.056655113,-0.026075859,0.022959273,0.05172205,0.009407744,-0.08964478,0.074082956,0.036552254,0.10484398,-0.13950707,0.07340622,-0.0050512254,0.018892005,-0.000502178,0.075586885,-0.10998034,-0.11065825,-0.108100876,0.08284732,-0.059727162,-0.029213576,-0.14627314,-0.107405216,-0.15334623,0.046578266,-0.10453288,-0.09336051,-0.015273606,-0.061662346,-0.10122784,-0.000465553,0.016900722,-0.040299833,0.027687028,0.078965634,0.025486687,0.097708836,0.12591359,-0.026069377,-0.08381188,0.059167802,-0.018393343,0.05163872,0.008253746,0.036807902,0.07386429,0.026668739,0.097928666,-0.010286213,0.008933577,-0.0787258,-0.027191434,0.115928374,-0.011145723,0.06341553,-0.031397145,0.024574004,0.17222895,-0.078227066,0.06351331,0.025597617,0.027711812,-0.053645205,0.02288123,-0.016285395,-0.17740452,0.051558904,0.04248233,-0.07255947,-0.036911655,0.09472411,-0.13283381,-0.033236045,-0.012473487,-0.023671314,0.08427513,0.18142325,0.15426072,-0.051301286,0.028622352,-0.1081414,-0.111558914,-0.05757754,-0.026864372,-0.1459878,0.011900095,-0.025097204,0.055578593,0.011609557,0.08643292,-0.021796992,-0.066668086,0.044257447,0.07477098,0.15635614,0.055575237,-0.121865235,0.04265709,-0.0566064,-0.015198107,-0.0076517565,0.10322147,-0.017959788,0.12419102,0.025617056,-0.034186404,0.146897,0.030026851,0.04288637,-0.0555283,-0.08163323,0.05672631,-0.1527544,0.014609059,-0.039827533,0.10117213,0.022065511,-0.01079986,0.0768209,0.031805456,-0.027961195,0.050066687,-0.1079165,-0.13380083,0.104503125,0.07971442,0.097629905,0.042372365,-0.075188875,-0.012293989,0.09506561,-0.024576364,-0.015244764,0.15638275,-0.13385724,0.06339714,0.14591111,0.061499212,-0.11499981,-0.18545057,-0.02709202,0.033003375,0.15904795,-0.00414757,-0.047455184,0.026126489,0.043930646,0.1897924,0.0068324385,-0.01915783,-0.11716824,-0.10165059,0.0139809,0.037668042,0.01651415,0.13926093,0.004168179,0.020483917,-0.037713677,0.20901233,0.0004960239,-0.044311337,-0.06230558,-0.025878228,-0.13016434,0.0044752527,-0.014616177,-0.046176914,-0.028251112,0.080754295,-0.07251878,-0.021048417,0.07896616,-0.051378176,0.01457669,-0.03352519,-0.04878142,0.06663785,-0.017840257,0.016464353,-0.08279323,-0.037058514,-0.020058855,-0.11389318,-0.10228559,0.052036412,0.08971097,-0.021599164,0.10153821,0.12811407,0.022020359,0.031416677,-0.041679624,-0.031780377,0.06178778,-0.08380538,-0.061183523,-0.0020253647,0.010901887,0.04635966,-0.053207465,-0.067953385,0.0059017297,-0.03829152,0.1849574,-0.02080585,-0.051599286,0.019642822,0.0034328643,-0.059533402,-0.010423792,0.036359336,0.072905354,-0.19271412,-0.009897512
Ruthless Predation,0.074209765,0.11215664,-0.04041735,-0.16270751,0.02076727,0.06994729,-0.010867363,0.14011188,-0.1433866,0.051774062,-0.09420155,-0.035547186,-0.006492759,-0.099076346,0.0823689,-0.12140688,-0.083286524,-0.03546329,-0.099139884,-0.029182242,0.013412889,0.040749095,0.05025,0.049900565,-0.06707456,-0.3166289,0.101570316,-0.030521136,-0.04057602,-0.08306716,-0.099730335,-0.0085670035,0.25616536,-0.19029033,-0.08657927,0.00987559,-0.06973038,-0.08945337,0.05347398,-0.16916429,0.058426686,0.09401211,-0.120853566,-0.097117014,0.0035452496,0.0044444567,-0.0748043,0.057707027,-0.03164223,0.019759387,-0.054966744,-0.18705697,-0.15084572,0.13338643,0.2284923,0.04345387,-0.16443504,-0.14634545,-0.066578664,0.026626607,0.13921905,-0.036160573,-0.08847936,-0.084882885,-0.099649236,-0.10177328,-0.1576429,-0.18026355,0.056909256,-0.036494393,-0.074804164,0.19078809,0.0034901178,-0.113466375,0.15625031,0.06493742,0.1042634,0.14400601,0.15392703,0.15241171,-0.024510305,0.1953311,0.20747243,-0.0110054845,0.089232355,0.08148248,0.08988572,-0.022046808,0.111122586,0.055203598,-0.03461611,0.097507276,-0.054198466,-0.009471845,-0.10933406,0.27059364,0.026875326,0.12970251,0.16896595,0.05676564,0.004950385,0.12022785,0.04781803,-0.053475477,-0.009282665,-0.12375889,-0.13605282,-0.052822836,-0.004471101,-0.13511461,-0.089386925,0.17109965,-0.15661049,-0.038507126,0.01525469,-0.08794599,0.09299769,0.13712972,0.024897741,-0.027148351,0.09428962,0.087693065,-0.06940569,-0.03685447,-0.057583157,-0.195841,0.039573595,-0.044069726,-0.09270267,-0.26317772,0.08942882,0.03604769,-0.06767329,0.04506239,0.08335152,0.017062027,0.20621517,0.0031928145,-0.060166072,-0.004462279,-0.06268034,-0.18838446,-0.038121056,-0.09751511,-0.026336247,-0.013145539,0.123344116,0.022997694,0.079311095,0.0033756408,-0.13029763,-0.008099712,0.0062133204,-0.07254943,0.052174445,0.008678578,0.010619628,0.08410147,-0.01661292,-0.16997148,-0.05507306,-0.046413794,0.115876876,-0.16951017,-0.2696157,0.012958087,-0.0065671434,-0.026463382,-0.027400514,-0.17346106,0.036061272,-0.08852735,0.08020865,-0.04647595,0.14058985,-0.10989091,0.0725436,0.033630706,0.17857671,-0.12486165,-0.08559308,0.07524992,-0.059019383,0.0034556156,0.04795359,-0.16047393,-0.04017678,0.090002194,0.10761401,-0.09681141,-0.02988897,0.18847227,-0.046207897,0.03829425,-0.0282749,0.022552831,0.11963644,-0.033879954,0.036531534,-0.033876635,0.13775511,0.029633947,0.040550504,-0.052127972,-0.1367822,-0.051470216,-0.022712318,-0.09962773,-0.103906155,0.0676108,0.06705327,-0.1176153,-0.046722542,0.19478434,0.02547232,0.16324435,0.025051603,0.07829919,0.14563134,-0.10145003,-0.1427817,-0.14847532,-0.17684919,-0.03415708,-0.04378658,-0.12543494,-0.11900502,0.059164688,-0.085037045,-0.078113645,0.12583777,0.22582267,0.043093614,-0.023056217,-0.14620098,-0.09904163,-0.00029741687,0.080383696,-0.09520401,-0.16184914,0.016536515,0.020315906,0.047764726,-0.05805909,-0.046078652,0.039025247,-0.1944684,-0.060903452,-0.037524905,0.04690169,-0.15534835,0.009477214,0.034718018,0.05665609,-0.021611108,-0.008973253
Duelist of Deep Faith,0.11628727,0.027606372,0.20741844,0.010217646,0.0568449,-0.051386,-0.12870847,0.09939812,-0.11796067,-0.12368073,-0.22599025,-0.09166056,-0.0031588923,0.10478765,0.18736534,-0.25005198,-0.09038103,-0.20737238,0.10883037,-0.01915703,0.11584549,-0.14315408,-0.07366752,0.07087217,0.0790013,0.05718181,-0.0902784,-0.09043113,-0.10223383,-0.018896028,0.07019604,-0.018695256,0.25183105,-0.09804236,0.14412802,-0.045002483,-0.22233284,-0.07976677,0.069316015,-0.24668328,-0.0936265,-0.080379225,-0.04280538,-0.038980328,-0.025946284,0.01536092,-0.064060256,0.07577743,0.047418155,0.072105184,-0.08372047,0.06764727,-0.035654068,-0.051609665,0.041805968,0.0868655,0.04433277,-0.024384487,0.015717285,0.0553684,0.09712654,-0.08115224,0.05309885,-0.2372959,-0.07640377,0.11824914,-0.21932484,-0.1305846,0.073631264,-0.03929094,-0.059775382,0.15455286,0.13223511,0.039556,-0.067308724,0.03253063,0.15951523,0.14331937,0.0075025014,-0.12539953,-0.033283684,0.023602774,-0.0011934764,-0.08464346,-0.04898162,-0.069270015,0.15656091,0.06266793,0.033429705,-0.074501045,-0.1459716,0.08094595,-0.16059378,0.08770191,-0.054153573,0.0006284348,-0.09775574,0.004880417,0.07012855,0.12044724,-0.037579656,-0.09720629,0.07905341,0.12550476,-0.061775293,0.050232008,-0.2873907,0.15640861,0.017273698,-0.05586393,-0.23655094,-0.015141678,-0.03050743,-0.07412103,0.055603802,0.06367132,0.03697124,0.08033138,0.11449122,0.024437293,0.0072767464,-0.09049492,-0.081659526,0.14398278,-0.00888766,-0.045257866,0.06198068,0.10823313,-0.009246519,-0.31580025,0.12672035,0.03350191,-0.06609409,0.007631655,0.1354998,0.16918457,0.051245417,-0.018791603,0.024479521,0.049716733,-0.090221405,0.0017151288,0.074053355,0.0570054,0.12562977,-0.12395027,-0.065146156,0.21572487,0.089337595,0.04906479,0.030409519,-0.0035461618,0.17680773,-0.06733795,-0.116275646,0.16073088,0.10198285,0.0132526085,0.047358636,-0.15712939,0.06311205,0.038895212,0.012207412,0.0057736025,-0.0031896129,-0.023914032,-0.0044983895,0.02706693,-0.01793883,-0.09560127,-0.026302677,-0.054703414,0.09883464,-0.16119163,0.15573545,-0.039012313,0.21303026,0.07701228,0.19273642,0.00041696298,-0.10676118,-0.06505474,-0.031736344,0.13962905,-0.16652252,-0.039834227,-0.08136692,-0.13194066,0.00691113,0.04219603,0.026666839,0.19955276,-0.009470996,0.20015873,0.08895614,0.11635453,-0.12185879,-0.112450175,0.004405514,-0.23898968,0.16245566,-0.10085373,0.0537402,0.17556663,-0.06457384,0.147524,0.15909,-0.008719867,-0.07228592,0.020330986,-0.020404652,-0.07171807,-0.033847403,-0.022899006,-0.057987094,-0.02675071,-0.063256614,0.07340724,-0.061813697,-0.078367405,0.030036816,0.083785936,-0.16102158,0.0682138,0.20732036,0.069362,0.095589325,0.08285198,-0.16101545,-0.066687986,-0.036033254,0.023101931,-0.10959962,-0.03215855,-0.057545386,0.0017029146,-0.1477768,0.13016507,-0.02920822,-0.17232102,0.058850076,0.020228906,-0.036349066,-0.009396146,-0.029220283,0.0965639,-0.0667181,-0.17377801,-0.21020961,-0.11487782,-0.14241065,0.12008911,0.13510987,0.120134555,-0.1331801,-0.11620131
Crawling Chorus,0.04959015,-0.045320038,0.20072344,0.011552611,0.052961413,0.02951978,-0.050786994,0.052767478,-0.022804033,-0.13934174,-0.24213342,-0.078648224,0.030994128,0.11469979,0.10620692,-0.21499592,-0.092153125,-0.21717511,0.0615342,-0.0020286497,0.124835975,-0.09095824,-0.040959563,0.0061604953,0.06454163,0.048245862,-0.014420771,-0.12993623,-0.073799916,-0.002918121,0.13422713,0.03117712,0.11591968,-0.13780981,0.04846468,-0.0031454277,-0.19004764,-0.14213288,0.062268436,-0.25112522,-0.07886431,-0.09478639,-0.04951593,-0.12866071,0.0010100099,-0.032801628,-0.12858808,0.12991509,0.090634085,-0.008736325,-0.061613277,0.098796204,0.017059278,-0.007475239,0.08262644,0.15200286,0.061903376,0.01357533,0.025047883,0.008821199,0.09679786,-0.032508623,0.024122328,-0.22242817,-0.13411559,0.12313749,-0.2082428,-0.18602178,0.069587596,0.037559547,-0.03965792,0.14819936,0.034278,0.04319726,-0.045727942,-0.06516967,0.08757993,0.13454418,0.020474855,-0.043537304,-0.008163233,0.06696312,0.042233147,-0.0106655015,-0.041296322,-0.06468725,0.17265035,0.057811145,-0.021396976,-0.010650097,-0.0825052,0.07899148,-0.1769373,0.02720061,0.019206656,0.01425184,-0.18119529,0.07335022,-0.00953527,0.07806733,-0.041775264,-0.050342955,0.16643271,0.061508905,-0.15446787,0.10656693,-0.3298869,0.1375943,-0.037226517,-0.05657784,-0.22134827,-0.12557687,0.0066576353,-0.053878658,0.059328392,0.041643985,0.046744984,0.067039534,0.07249982,-0.068957664,-0.0075238706,-0.0818856,-0.081541434,0.18158007,0.063374825,0.01308896,0.11194975,0.043410297,0.052225996,-0.33483088,0.1387633,-0.00039616795,-0.15646352,0.045918636,0.13347046,0.17598876,0.05320579,0.0010724784,0.04045992,0.019557327,-0.13939159,-0.03379286,0.002260892,-0.014399993,0.05949021,-0.22678101,-0.082471095,0.15771915,0.041367352,0.09213672,-0.03493005,-0.03706447,0.058280583,-0.06233009,-0.16847183,0.09310562,0.08508802,-0.014737284,0.047946732,-0.09547463,0.07140548,-0.009242934,0.014178789,-0.057341028,-0.07878591,-0.062683575,-0.06631854,0.054879896,-0.060988657,-0.10865273,-0.057275612,-0.059292775,0.11382397,-0.1076455,0.11238388,-0.11731006,0.24382289,0.057368465,0.17595725,-0.020045213,-0.018101932,-0.0505573,-0.019371962,0.208698,-0.12159438,-0.03112007,-0.066944554,-0.1344161,0.010586581,0.03901982,0.041530453,0.20213811,0.0131102605,0.15464179,0.099104054,0.08591266,-0.16568445,-0.11917757,-0.023565773,-0.1239775,0.18622443,-0.1008972,0.035191733,0.18357283,-0.048532102,0.13767938,0.10146674,-0.0163263,-0.058832772,0.07184676,0.05272846,-0.10469256,-0.032269698,-0.014245283,0.009347175,-0.070944756,-0.11226958,0.015455427,-0.10375954,-0.031667165,0.060423,0.11369387,-0.14230302,0.09404778,0.19606131,0.03584317,0.10473336,0.14741191,-0.14585175,-0.10461212,-0.11102054,-0.0057930415,-0.10607372,-0.048540868,-0.090850666,0.040878776,-0.14424916,0.16429791,-0.018288562,-0.14200456,0.023424013,0.08377992,-0.00047245275,-0.1139977,0.05118107,0.09821713,-0.101334214,-0.093222134,-0.19944224,-0.09841684,-0.17240208,0.16568619,0.15916802,0.18214329,-0.14676203,-0.24491946
Rustvine Cultivator,-0.0012081855,0.05260075,-0.13018976,-0.28662175,0.01851633,0.10145726,-0.037390325,0.16947281,-0.13891093,0.18421313,-0.028232163,-0.037401054,-0.077648945,-0.14755473,0.07998732,-0.117585965,-0.11538905,0.035464358,-0.052212838,-0.1218603,-0.054104295,-0.02516078,0.09709665,0.01714379,0.022768337,-0.3621392,0.082781866,-0.06288504,-0.103198,-0.11532941,-0.14136074,0.0037555527,0.22419848,-0.16872144,-0.0860324,-0.089852706,0.004020932,-0.080733284,0.16443428,-0.14576943,0.04407728,0.1228156,-0.044159938,-0.02349914,-0.038428552,-0.08291638,-0.11675089,0.041439928,-0.073255554,-0.0024912662,0.025993122,-0.25079954,-0.13442941,0.11016441,0.26332614,0.044074915,-0.20691945,-0.0413274,-0.10438769,-0.06448381,0.12034932,0.04324883,-0.18004028,-0.075461484,-0.1075087,-0.10251443,-0.13720869,-0.19940437,0.06794098,-0.08522218,-0.10298911,0.17896718,0.011725798,0.013164831,0.15309103,0.14239725,0.0931156,0.21555085,0.15765564,0.091888726,-0.11672587,0.24686609,0.21182775,0.034641676,0.15061891,-0.038057204,0.117969826,0.02515767,0.1496031,0.124096476,0.028571203,-0.016737396,-0.09365482,0.13898677,-0.18356887,0.16261388,0.015754255,0.081178725,0.13595515,0.11449502,0.092756435,0.17807923,0.03282896,-0.13282341,-0.008613429,0.013175463,-0.112739176,-0.0114795035,-0.053425055,-0.103210546,-0.16804688,0.12956652,-0.117379345,-0.10312565,0.018796364,-0.08557594,0.20201358,0.2043461,0.07946013,-0.037323616,0.09040835,0.04012029,-0.23001209,-0.073523656,-0.047671434,-0.16040297,0.022419535,-0.021027429,-0.07505336,-0.27651128,0.16138378,-0.036445327,-0.09590523,-0.07971189,0.17485893,0.023208596,0.27105266,0.0035291894,-0.027728317,-0.051751006,-0.045826096,-0.15516788,-0.12860717,-0.17120662,0.026527062,0.025327932,0.031210138,0.018307328,0.097454645,0.0065839286,-0.22315781,-0.049181797,-0.0293022,-0.07545025,0.066733114,0.010103205,0.040042628,-0.0020481765,-0.19696479,-0.14915588,-0.03522776,-0.08665114,0.14412175,-0.118328325,-0.30912748,0.059468403,-0.043350056,0.049148716,0.003972798,-0.17841047,0.11460722,-0.0338088,0.112959355,-0.06825285,0.13822022,-0.08206523,0.16592579,-0.016970677,0.101505086,-0.17759155,-0.12650034,0.027323999,-0.05159991,0.026620109,-0.0075391475,-0.12784462,-0.080434516,0.121425785,0.15408719,-0.048874706,0.03097416,0.17878813,-0.020409597,0.14067806,0.036808424,0.0049479646,0.17313753,0.021315096,0.13640186,-0.06567508,0.07215717,0.055288203,0.056000896,-0.009778455,-0.119859315,-0.09162406,-0.0891975,-0.0512089,-0.04049638,0.0709437,0.024786882,-0.120033026,-0.13344519,0.25901216,-0.03047803,0.12162641,0.04096567,0.15944085,0.17915262,-0.08424797,-0.073057234,-0.052376807,-0.13451977,-0.06491789,-0.014077064,-0.19988933,-0.113919854,0.09803952,0.0059602046,-0.08195445,0.26516655,0.17409083,0.09188077,0.03472947,-0.13482992,-0.21312104,0.063758776,0.008300697,-0.17013083,-0.16175827,-0.0016028597,-0.055117562,-0.0020565228,-0.16552982,-0.0007447759,-0.022326319,-0.18869808,-0.085898854,-0.02110764,-0.015848687,-0.12918454,-0.041314084,0.03980913,0.052038584,0.025073277,-0.026782505
Predation Steward,-0.012156165,0.13908595,-0.13825668,-0.1600533,0.059478473,0.12008765,-0.07650696,0.19646212,-0.19184265,0.17641822,-0.07803932,-0.10022843,0.016313612,-0.17523848,0.08432371,-0.1378053,-0.09094841,0.057148922,-0.08132147,-0.12869208,0.020035634,0.004241805,0.07675099,-0.052188884,-0.05067873,-0.33366317,0.04474347,-0.060139526,-0.11690551,-0.10555181,-0.16583148,-0.05402546,0.25347358,-0.1192119,-0.1550964,-0.020772787,-0.04995467,-0.06716987,0.15766074,-0.23162538,0.025482439,0.0895971,-0.09178279,-0.07800102,-0.07693119,-0.06553669,-0.109364174,0.018652298,-0.054131556,0.0833998,-0.009828382,-0.21649736,-0.08024795,0.15751429,0.20203817,0.0384603,-0.2763596,-0.14938125,-0.1256581,-0.08085824,0.107439265,0.088286035,-0.21920146,-0.19555366,-0.029053945,-0.14875539,-0.12666662,-0.07423228,-0.017412381,-0.054354906,-0.081037246,0.23392929,0.057148486,-0.02407554,0.14579011,0.09759904,0.10871668,0.1788167,0.15783262,0.0770992,-0.083629236,0.25439608,0.17264533,-0.083332896,0.18727393,0.040662915,0.072099425,0.026304953,0.08795085,0.14121847,-0.0007344461,0.10085807,-0.06839905,0.11087606,-0.21596192,0.23002037,0.015742853,0.10293545,0.14947864,0.077985235,0.11952473,0.16825356,0.14413384,-0.08581174,0.04548302,-0.042708863,-0.08935083,-0.06744418,0.01169052,-0.06375721,-0.16971314,0.15421313,-0.16128224,-0.114969306,0.06628404,0.024736522,0.117336504,0.15824355,0.06710908,-0.07593493,0.075647615,0.0057094474,-0.17810477,-0.024512246,-0.07817949,-0.1551723,-0.0010514462,0.043617945,-0.05533201,-0.28708923,0.21627793,0.056161914,-0.09053362,-0.018622078,0.1894902,-0.028007466,0.363617,-0.02953132,-0.06396954,0.03047493,-0.0049731564,-0.27216765,-0.107233316,-0.09004537,0.019043306,0.02643579,0.011200037,0.018363258,0.050340928,0.030399477,-0.17145017,-0.044857007,0.032158807,-0.010130967,0.13142624,0.06499996,0.0059603117,0.09472723,-0.15797444,-0.21154764,-0.10390612,-0.11544195,0.12450985,-0.1335057,-0.32807627,0.09036941,0.030472485,-0.06614036,-0.028562646,-0.19306275,0.090104364,-0.07516639,0.08220612,-0.060027726,0.14435299,-0.0866625,0.19041035,-0.0052156253,0.13731255,-0.20620178,-0.13751785,0.11862364,-0.13760217,-0.06207433,0.020517811,-0.19424777,-0.13624673,0.040895015,0.12364035,-0.057910446,0.02577073,0.23025458,-0.044518035,0.062221847,-0.11042929,0.02078499,0.15286101,0.09092893,0.1517044,-0.08398412,0.11634281,0.07352851,0.054557543,-0.035987977,-0.16122164,-0.047572937,-0.066170946,-0.09764871,-0.08029856,0.13833106,0.01982213,0.0047925785,-0.08710425,0.2607079,-0.0682064,0.16157347,0.13378169,0.06998934,0.18404913,-0.045678414,-0.02361859,-0.060449924,-0.16970642,-0.0082379235,-0.053365204,-0.18273367,-0.070465304,0.07998484,-0.00068254035,-0.16641425,0.24664196,0.22237375,0.043325294,-0.0073846737,-0.06369561,-0.18577434,0.04416311,0.013970625,-0.15321392,-0.120199926,-0.023329582,0.019677887,0.056246713,-0.06805285,-0.01082704,-0.02535783,-0.19450933,-0.094633885,-0.06532274,-0.008206946,-0.18254715,-0.095230125,0.046689324,0.08418556,0.044452507,-0.04777716
Mandible Justiciar,0.09808593,-0.052219365,0.41495872,-0.0049298787,0.0001236735,0.12175126,-0.23253816,0.13811544,-0.030098027,-0.17225946,-0.26749015,-0.19195439,0.094010524,0.17404178,-0.06689291,-0.23242535,-0.106539704,-0.23584178,0.2758579,0.036237244,-0.0118686175,-0.32066393,0.018234855,-0.07779975,0.105363496,0.025807805,0.00029416956,-0.14243798,-0.20153931,0.025724616,0.31605837,0.006955537,0.14733198,-0.023099413,0.13082172,-0.13934694,-0.060657255,-0.0465202,0.10028366,-0.23874566,-0.11571106,-0.18220957,-0.17209855,-0.09190929,-0.006698136,0.07499862,-0.1468264,-0.05072784,0.09860236,0.010485551,-0.09605798,0.12140473,0.19460823,-0.0013531919,-0.10914499,0.08107034,0.020579537,-0.076157786,-0.05577964,0.061425153,-0.053726263,0.098074906,0.09533218,-0.20832793,-0.060587667,-0.019669866,-0.17383967,-0.20472175,-0.06491244,-0.05752971,-0.16901538,0.13918146,0.1852924,0.16733703,-0.06332304,-0.14532606,0.12518667,0.072174594,-0.10603589,-0.12896048,-0.014806105,0.08615191,-0.14353424,0.008769994,-0.10731532,0.031118844,0.03582248,0.1261135,0.059860844,-0.06804455,0.07510447,0.07796461,-0.120936714,0.1706037,-0.050909102,-0.0055412706,-0.123423934,-0.04625358,0.09623647,0.14857882,-0.21118426,-0.095526025,0.06804766,0.09054395,-0.13106483,0.02534522,-0.34711298,0.16526459,0.079642415,-0.148077,-0.27073646,-0.005518363,-0.06718801,-0.1626469,-0.02659527,0.13817474,-0.0076830355,0.15551305,-0.033384103,-0.030612612,-0.08071517,-0.2270176,-0.041133575,0.107386276,0.124973774,0.004440357,0.07445291,0.050399832,0.024053156,-0.23870094,0.092177734,-0.10942653,-0.023046995,-0.08435399,0.00738351,0.10914227,-0.038433213,-0.025830492,-0.016011266,0.14766239,-0.07247298,-0.09877712,0.20364627,0.021172537,-0.0309415,-0.054214265,-0.064909175,0.10546046,0.14602028,0.19017716,-0.15707038,-0.049059726,-0.031182395,-0.014532002,-0.0132930335,0.07966232,0.31770197,0.08773701,0.06848344,0.11842809,0.21901424,0.07033447,-0.061534993,0.1918795,-0.034804318,0.07693694,-0.0017151434,0.005592235,0.063878395,-0.10639747,-0.060609832,-0.024941025,0.18206318,-0.014395172,0.21113116,-0.16070345,0.09596242,0.15281233,0.2004324,0.06442587,-0.13299155,0.009069578,0.1099669,0.14054978,-0.085472725,0.005172877,-0.003784513,-0.23572,-0.066017866,0.001125797,0.035655104,0.034943428,0.044471756,0.1921561,-0.024320785,0.08679851,-0.116379395,0.0047785235,0.104329966,-0.07907672,0.096147954,-0.025930772,0.05917559,0.14903916,-0.06739978,0.14380954,0.0025137977,-0.11904854,-0.0071013407,0.120685615,-0.10804102,-0.106394865,0.1264845,0.11897134,-0.02510465,0.07142245,0.028619394,0.07701907,-0.09357248,0.018231045,0.010424181,0.13536432,-0.15518446,0.012391181,0.07608492,0.0273431,0.19143645,0.04155701,-0.027967742,-0.09142003,0.09264032,0.023637686,-0.0487259,0.09381259,0.07708205,-0.015767103,-0.2029363,0.10604582,-0.022873592,-0.00947555,-0.09915658,-0.04280178,0.04628758,0.1107609,0.007849776,-0.020980073,0.030366858,0.04088191,-0.14234857,-0.15691896,-0.115925446,0.20872287,0.12099348,0.18557301,-0.24959661,-0.09057197
Dune Mover,0.05647765,-0.051083997,0.1264594,0.013546056,0.09699893,0.035288062,-0.05354845,0.06301178,0.022945382,-0.017708478,-0.14276114,-0.035622016,0.0056187636,0.06955655,-0.04673844,-0.07013944,-0.019388422,-0.05022075,0.13317807,-0.11984348,-0.07287633,-0.17871091,0.08368393,0.0043172943,-0.031228935,-0.01453853,-0.077466674,0.040839326,-0.19361691,-0.08219441,0.095188774,0.11704259,0.15814741,-0.08775974,-0.0836136,-0.14452915,0.04370732,0.0534328,-0.044687085,-0.16015214,-0.0010947668,0.08357696,-0.05132839,-0.047056425,0.020452302,-0.051634118,-0.09417827,0.07185855,0.07697022,0.012190481,-0.12523021,0.078023665,0.07048551,0.025979184,0.04149542,0.0032636558,-0.10090766,-0.13063228,-0.11004263,0.057884026,-0.0486153,-0.0059343153,-0.118701875,-0.13108306,-0.046243835,0.05116813,-0.15453948,-0.12268487,-0.056267858,0.01019616,-0.009076182,0.052500587,-0.0058068386,-0.042693026,-0.039637096,0.086317785,0.05991593,0.07189974,0.07373002,-0.0027830792,-0.08709881,0.03691965,0.0061935647,0.058665745,0.029943855,-0.020678824,0.06309408,0.056657217,-0.012313988,-0.0009699035,-0.06581812,-0.07277856,0.021191642,0.07326963,-0.032907046,0.040190753,-0.033988748,0.014846672,0.15098098,-0.04656958,0.09510029,-0.016921494,0.040100243,-0.016478388,-0.050603643,0.018022854,-0.1863888,0.08774931,0.08443277,-0.094469935,-0.1597176,-0.043797456,-0.09140004,0.052494586,-0.030046353,0.04406945,0.07040927,0.099260926,0.1692045,-0.049790747,-0.0056047575,-0.18739717,-0.018566465,0.010718269,-0.027725477,-0.11916793,-0.039764598,-0.07314243,0.04371619,-0.018087316,0.11861964,0.041975323,-0.0604497,0.07030496,0.08593714,0.17392726,0.12574159,-0.043168817,0.06867602,-0.04699652,-0.04369586,-0.068054706,0.046646524,-0.0136742,0.049393483,-0.06663111,-0.08122889,0.10063523,0.06666139,0.0025155249,0.020863965,-0.0995482,0.032973748,-0.010242727,-0.104569085,-0.07948949,0.05984025,0.03913414,0.010233153,0.06775,0.02557242,-0.026726352,0.10286892,-0.03397406,-0.16289459,0.02897194,-0.05494203,0.04094835,-0.092851035,-0.07291411,-0.047635462,0.04545986,0.032240044,-0.08548881,0.1810673,-0.2516636,0.02955588,0.092006765,0.07385485,-0.041788675,-0.09945408,-0.027609408,0.071824916,0.07521247,-0.025945842,-0.0043481668,-0.016014516,-0.053760093,0.20654373,0.035518307,0.028749531,-0.0517378,-0.1779125,0.08296593,0.032557636,0.018301306,0.043908253,0.040674046,-0.002127448,0.020776574,0.21347466,-0.04152518,-0.01635655,-0.033781,-0.040490642,-0.10615207,0.08517299,-0.05236445,-0.0071793054,0.050069954,0.04059819,-0.044641547,-0.07580708,0.032658063,-0.010702616,0.07305745,0.0029287727,-0.06055521,-0.026145577,-0.05397933,0.035615955,-0.03787352,-0.0414588,-0.006956539,-0.096458666,-0.0642876,0.02662698,0.09677147,-0.03676692,0.02763266,0.0049244952,0.028666206,0.05000717,0.02475127,-0.07801652,0.06969524,0.059777215,-0.06468522,0.013434976,-0.08736813,0.05257914,-0.007504117,-0.074731246,-0.034225814,-0.018695563,0.16737549,-0.020873025,-0.10862407,-0.07954955,0.0066777556,-0.08038488,-0.015880974,0.12776053,0.13969126,-0.13761401,-0.017417215
Incisor Glider,0.11613131,-0.0026117165,0.20116977,-0.008766387,0.060604297,0.025911814,-0.0853311,0.023779461,-0.05781593,-0.13340914,-0.2923373,-0.050665703,0.017091082,0.0607059,0.12803875,-0.19602206,-0.061577912,-0.21269916,0.04285469,-0.01299453,0.13185818,-0.120726354,-0.01996894,0.0104298,0.0066646985,-0.0036886719,0.046400547,-0.089671694,-0.16934878,-0.022746142,0.18229854,0.001467706,0.06267702,-0.1575639,0.055219766,-0.097705714,-0.20449649,-0.08090211,-0.0061426247,-0.19436407,-0.06185992,-0.12603074,-0.18461607,-0.16986255,-0.0211986,0.023400895,-0.0962119,0.040282108,0.0662699,-0.0574021,0.004881197,0.055684865,0.108470656,-0.0016298097,0.041243788,0.13395548,0.047219094,-0.064944826,-0.032070797,0.043754436,0.016927892,0.05330075,-0.005178445,-0.28827924,-0.119772814,0.11873949,-0.19159389,-0.18302386,0.04006467,0.061334137,0.006447327,0.10294749,0.06582002,0.06237968,-0.041314185,-0.119074985,0.057193097,-0.0010492782,-0.072878584,-0.048554055,-0.031895798,0.0736824,-0.062360466,-0.016817538,-0.09799228,-0.07421345,0.109043375,0.06894736,-0.033130597,-0.050472617,-0.09779948,-0.02475663,-0.06856845,0.10930418,-0.060427364,0.052428752,-0.11004962,0.062585965,0.030854922,0.063756846,-0.15236019,-0.07567359,0.14285964,0.12444404,-0.19048758,0.028453438,-0.26833376,0.12496467,0.03501495,-0.08747489,-0.2487957,-0.12555496,-0.07231188,-0.027455399,0.03145102,0.13385074,0.051161073,0.1929157,-0.0028962458,0.02150571,0.009151658,-0.13374752,-0.095378496,0.21532479,0.07498694,0.0053316997,0.08011859,-0.0025284938,0.08165097,-0.24089186,0.07646309,-0.006715642,-0.05662887,0.02594423,0.07898244,0.12592262,0.026075039,0.02246697,-0.077524126,0.027487163,-0.100745045,-0.028869655,0.0844485,0.0013339737,0.024761379,-0.15284929,-0.09271915,0.09836931,0.08390358,0.09627692,-0.08122558,0.054880686,-0.0070174877,-0.03036894,-0.12824798,0.07009717,0.12096338,0.034845565,0.071991764,-0.031904746,0.11945871,0.0528951,0.007128833,-0.034638327,-0.020241052,0.029946137,-0.063828066,0.045882568,-0.08160897,-0.068290174,-0.08546814,-0.06230262,0.08161168,-0.15195286,0.11209254,-0.21511425,0.08312912,0.02620903,0.275624,0.029136999,-0.05104023,0.03003173,0.05284936,0.127331,-0.1378336,0.04342591,-0.035858333,-0.21692638,0.015798304,0.12842537,0.010015154,0.16282843,0.012028543,0.19836426,0.04817545,0.067920536,-0.12816824,-0.069978364,-0.0279846,-0.15964551,0.1906827,-0.0651037,0.05450008,0.17116383,-0.06619226,0.12863092,0.11547945,-0.08346945,0.052080117,0.1427372,0.012737732,-0.15399411,0.022206957,0.027229289,0.030655362,-0.061306104,-0.0031846322,0.06732382,-0.13353784,-0.044613853,0.06368169,0.070619434,-0.17352329,-0.017652811,0.14373717,0.0205277,0.13770942,0.07429534,-0.06613609,-0.07622102,-0.18919492,0.019772954,-0.08322212,0.04293216,-0.05729949,-0.010691809,-0.10403291,0.12594615,-0.008226365,-0.09418907,-0.00047636518,0.0034012916,0.03228377,-0.009840534,0.0690324,0.12410756,-0.123886906,-0.008387519,-0.1916453,-0.07852943,-0.15024614,0.2062132,0.11928315,0.20377025,-0.21935683,-0.17626712
Basilica Shepherd,0.07528428,-0.03784016,0.2200931,0.04360791,0.05201736,0.063026845,-0.06674868,0.08360278,-0.025268404,-0.21114898,-0.22356266,-0.07295162,0.007617502,0.08864658,0.10461072,-0.20120883,-0.09489879,-0.16692065,0.1868688,-0.014985254,0.094030336,-0.10235356,-0.059676807,0.006316205,0.063771784,0.044306368,-0.004013195,-0.16245604,-0.097477406,0.09040413,0.18746744,-0.022496758,0.11760028,-0.10134356,0.12797791,-0.0921816,-0.13561979,-0.14653,0.023304423,-0.3004373,-0.07408788,-0.1676322,-0.10924733,-0.1391819,-0.022971299,0.015910035,-0.08779763,0.07314399,0.09669697,0.0068418407,-0.052285995,0.04519918,0.1384164,0.011576004,0.028494453,0.09355934,0.026350627,-0.04377201,0.039870434,-0.014237023,0.02921391,0.034389507,0.0791827,-0.2835356,-0.08232243,0.042749606,-0.23736246,-0.15538272,0.025751658,-0.015837107,0.0077889566,0.124612704,0.071091644,0.05716746,-0.0013425722,-0.110194765,0.05943358,0.060527727,-0.15657952,-0.043924168,-0.010336486,0.065963976,-0.049524605,-0.031464618,-0.09987335,-0.02589115,0.110996045,0.035151277,0.03618876,-0.021071967,-0.05474106,0.095181644,-0.14548884,0.110020086,0.020220611,0.05722361,-0.15191506,0.06263166,0.055915214,0.030859826,-0.1803694,-0.06180905,0.1511365,0.11310179,-0.18457787,0.06630635,-0.31478047,0.15303943,0.032948285,-0.050670125,-0.21905504,-0.068593614,-0.06595296,-0.07348901,0.06649599,0.054818217,0.0033047446,0.13043651,0.028117502,-0.033770535,-0.007648037,-0.07027986,-0.12798388,0.16429332,0.10720889,-0.015928164,0.151924,0.009270098,0.059274595,-0.24410136,0.09595892,0.024148742,-0.093328714,-0.011942177,0.09609824,0.10949098,0.059387438,0.014921,0.014552393,0.07065761,-0.09313333,-0.090986125,0.07110333,-0.09747088,0.04360719,-0.12644045,0.0053152693,0.100679964,0.019647246,0.12796195,-0.11623686,0.0021465388,0.056781735,0.016083067,-0.16465461,0.092332415,0.16105779,-0.0023130646,0.036925726,-0.06541913,0.061971683,0.03928309,-0.003744502,-0.029876191,0.005982547,0.017561918,-0.020475352,0.13547726,-0.065653585,-0.11048659,-0.019613901,-0.02823441,0.07072757,-0.08858511,0.16943462,-0.1197566,0.18384455,0.052389916,0.23440328,-0.014000286,-0.06457464,-0.01240071,0.015987342,0.14726602,-0.11727225,0.046001244,-0.0022642156,-0.18701516,0.04811451,0.074356735,0.025678447,0.16721943,0.03980834,0.1513172,0.07628679,0.102238245,-0.09771718,-0.06985344,0.033378426,-0.12246786,0.16375539,-0.09667493,0.08316112,0.16992448,-0.010786631,0.13791814,0.04521387,-0.055526298,-0.09401031,0.09532869,0.0029529496,-0.14892031,0.03455559,0.038859054,-0.050059568,-0.04716657,-0.07429517,0.005963259,-0.09761204,-0.0415177,0.057347473,0.09676188,-0.2001704,0.066752754,0.099404626,0.0728095,0.09711023,0.10528547,-0.10695624,-0.090577625,-0.0841925,-0.017528387,-0.080677174,0.045855414,0.01883611,-0.012946385,-0.16080219,0.13615489,-0.049115773,-0.050409403,-0.024045026,-0.019886369,-0.051753443,-0.11067728,0.038915996,0.13095221,-0.112740524,-0.017854085,-0.14792584,-0.0446419,-0.11883302,0.084738694,0.10686357,0.16117883,-0.18009515,-0.08479762
Flensing Raptor,0.056359585,-0.027564215,0.20403057,-0.05476065,0.019656248,0.019828008,-0.07661366,0.01720795,-0.14264081,-0.1427256,-0.28367355,-0.088986784,-0.013738699,0.097299665,0.15996388,-0.20530926,-0.066134565,-0.2559161,0.06819941,-0.04727077,0.24243215,-0.055229694,-0.056050174,-0.01996576,0.060312286,0.052718166,0.023533303,-0.09260575,-0.04185746,-0.035455413,0.04534557,-0.09277287,0.17833896,-0.14446256,0.08996274,0.015803931,-0.28054988,-0.12827381,0.07989171,-0.2782005,-0.08180314,-0.10500522,-0.04476113,-0.072081216,0.033255782,-0.021834977,-0.03836346,0.12327132,0.09381048,3.9151677e-05,-0.121191435,0.073930815,0.013945371,-0.0050491844,0.13265313,0.052455235,0.105073296,-0.027300648,0.015143082,0.025764788,0.08771928,-0.09803093,0.062061433,-0.24922925,-0.14005658,0.09387912,-0.16820696,-0.14643878,0.039821,0.06489235,0.046322796,0.08196272,0.12610099,0.033972457,-0.046678744,0.0077630337,0.079080105,0.13717513,0.023858262,-0.07162906,-0.026697924,0.0017188225,-0.010424173,-0.043838385,-0.0038020662,-0.077961415,0.2070243,0.019569697,-0.013050684,-0.06049499,-0.12640454,0.07258158,-0.11855854,0.03175025,-0.003969262,-0.008973775,-0.13073348,0.056620948,0.012184069,0.06387373,-0.017686555,-0.03885961,0.050070446,0.12558156,-0.10245005,0.048653413,-0.2595261,0.15103845,0.02514352,-0.07265406,-0.22370096,-0.02834742,-0.064544156,-0.049425777,0.057512835,0.07539881,0.005695832,0.052022494,0.11398667,-0.1094705,0.00090146525,-0.053136785,-0.08197847,0.14181004,0.11234778,-0.041250803,0.11724699,0.04094811,0.029789211,-0.2825798,0.0599409,0.00333236,-0.120298654,0.03069257,0.08866989,0.21624333,0.05284592,0.0046542194,0.012989309,0.028156154,-0.12557238,-0.03182743,0.002118032,0.015474567,0.121448904,-0.18565649,-0.1241439,0.24845347,0.039857216,0.04087974,0.012025394,0.056033254,0.08378051,-0.10455291,-0.15619719,0.06421139,0.00969298,0.01690781,0.025771854,-0.1388574,0.026805488,0.013532652,-0.038462512,-0.005371644,-0.06416456,-0.09237341,0.010737195,0.05643383,-0.09713049,-0.11358883,-0.05787691,-0.086420596,0.043163493,-0.12974195,0.17837149,-0.07383002,0.17399755,0.011474878,0.2155793,0.01683978,-0.087223366,-0.014141948,0.057913885,0.14357854,-0.1289733,-0.08138179,-0.068916075,-0.10919397,0.031206116,0.047785744,0.053201057,0.20383517,0.0025798075,0.12619866,0.10031631,0.11092362,-0.12449646,-0.1142032,-0.034524232,-0.21900295,0.16433014,-0.0723839,0.05435498,0.15954554,-0.045191582,0.09253288,0.1631297,0.048980106,-0.07472207,0.057451148,0.015875421,-0.1196185,-0.002270983,-0.029164445,-0.07774728,-0.14906572,-0.09853728,0.03967583,-0.097713776,-0.10737755,-0.043641776,0.12116157,-0.2045505,0.07833086,0.14865376,0.03593101,0.024266753,0.118683234,-0.18965547,-0.12693605,-0.027617507,-0.0017810287,-0.1012682,-0.06703053,-0.12580422,-0.0106446445,-0.13539541,0.09595064,-0.0452281,-0.110496074,0.05736594,0.058153424,-0.0062770555,-0.045852162,0.004051591,0.1331657,-0.14720388,-0.119763285,-0.1663146,-0.08126703,-0.15504986,0.13310137,0.09474838,0.10497831,-0.16081727,-0.2045102
Indoctrination Attendant,0.038244795,-0.031791538,0.1997146,0.060213447,0.06595327,0.06424361,-0.14713928,0.093962945,-0.081767194,-0.10806381,-0.1951414,-0.12716836,0.060207084,0.10828189,0.09336104,-0.25453657,-0.08115986,-0.18346013,0.18185619,0.020252557,0.118391775,-0.13388479,-0.045277826,-0.010724719,0.10819722,0.03169786,-0.026976278,-0.11644518,-0.073045775,0.029444695,0.20829865,0.03891175,0.10829904,-0.15047094,0.09326578,-0.09230575,-0.19869015,-0.1278114,0.056989145,-0.21900387,-0.08813324,-0.122662045,-0.114716254,-0.17720167,0.055598043,-0.035867628,-0.13302605,0.0801557,0.041627835,0.040691588,-0.12134101,0.09624327,0.026242657,-0.0007163483,0.01177008,0.07967368,0.021390332,-0.035999887,-0.015339262,0.033463504,0.068700284,-0.017032336,0.036104776,-0.15030606,-0.0901411,0.051417068,-0.138235,-0.18851471,0.03199573,-0.047372933,-0.05019623,0.13109936,0.0498962,0.0140750315,-0.061188333,-0.13845806,0.12947457,0.0693652,-0.009026541,-0.017485341,-0.035478283,0.08498442,-0.0145224035,-0.08781504,-0.057305824,-0.1075925,0.15465368,0.08211594,0.021436658,0.01463429,-0.14268318,0.07740284,-0.15845887,0.055364612,-0.0035051685,0.027661368,-0.16434251,0.01912215,0.08298511,0.042816762,-0.050021477,-0.06050902,0.04091558,0.039146286,-0.2352169,0.08803272,-0.32025027,0.18556182,0.071651116,-0.12460246,-0.2563463,-0.08813102,-0.09672168,-0.08362537,0.039197244,0.0678466,0.029269246,0.13072316,0.0038698898,0.014943661,0.031341653,-0.091895156,-0.057614837,0.21879497,0.08340353,-0.010978307,0.1307627,0.022681545,0.055405192,-0.28956553,0.056327328,0.027802953,-0.096613415,-0.026588809,0.08550433,0.1645976,0.10465432,-0.0233097,-0.049484085,0.062661566,-0.04372655,-0.033701014,0.07231334,-0.037752166,0.052967336,-0.17934868,-0.09200989,0.13603903,0.023191452,0.14448787,-0.08693684,-0.076747514,0.013416248,-0.000988281,-0.09907768,0.046345953,0.09401373,0.02170926,0.0365037,0.0123509085,0.06529193,0.094283536,-0.031661622,-0.08854769,0.07945411,-0.038911507,-0.022527652,-0.006122979,-0.018330751,-0.10768954,-0.06808467,-0.06875421,0.020591674,-0.14280531,0.115304746,-0.19337745,0.18815047,0.06735852,0.1990056,-0.062159844,-0.02332947,0.0012314264,-0.0068499534,0.093561426,-0.10155976,0.035933327,0.029784923,-0.11373882,0.0064139566,0.1147278,0.03406773,0.19284292,-0.029907871,0.15012033,0.08748761,0.009600718,-0.057550557,-0.08113082,0.022247635,-0.106599815,0.0835429,-0.055263463,0.06864201,0.114185214,0.054013103,0.10188985,0.077172816,-0.0850369,-0.122160345,0.085853264,0.06515101,-0.11901231,-0.0014162267,0.03323031,-0.005309369,-0.09527932,-0.059075706,0.013939215,-0.07280968,0.03297893,0.010034374,0.08465653,-0.11823283,0.014244092,0.18798347,0.012282877,0.1242315,0.101408064,-0.11827005,0.0034351782,-0.097938955,0.0049170107,-0.08449204,-0.05983672,-0.013018041,0.016359633,-0.1339164,0.17331088,0.041055467,-0.11186099,-0.08860602,-0.06971459,-0.06913207,-0.01330442,0.08878569,0.08062675,-0.1387909,-0.12563056,-0.1541826,-0.050088882,-0.14297114,0.13955961,0.16589913,0.25996593,-0.13897862,-0.13404891
Anoint with Affliction,0.023823481,0.115949005,-0.015881406,0.023192793,0.035340838,0.0064523653,-0.044852078,-0.0049855085,0.09592262,0.067598015,-0.14180996,0.0052963104,-0.08072197,0.14479041,-0.0132239675,-0.03586787,-0.040678795,-0.028713493,-0.013639261,-0.030200435,0.057575967,0.009702326,-0.09576094,0.0378449,-0.006726659,0.018401913,0.017787963,0.015734488,-0.05647314,-0.12137953,-0.005745595,0.024478856,0.2210251,-0.06790926,0.04459353,-0.043010805,-0.17034703,0.09392173,0.019617945,-0.26607156,0.016511997,-0.08105308,-0.08119234,0.046493214,0.28403568,-0.06972353,-0.12922183,0.00013067893,0.053683363,0.04048882,-0.15893005,-0.0650257,0.09785361,0.020488428,0.086791895,0.17136376,0.12466451,-0.00938749,-0.07375554,0.027401183,-0.036493298,-0.0073162317,0.06005679,-0.059148766,-0.17668726,0.0027567858,-0.05067765,-0.050146993,-0.010095316,-0.028226154,0.1250504,-0.0071005225,-0.006787564,-0.06621153,-0.038260605,0.1513948,0.11809312,0.043225292,-0.019555714,-0.048201025,0.116700426,-0.10614946,0.062143892,0.19970661,0.1060797,0.000753798,0.09501457,-0.017109074,0.003281461,0.03986494,0.03931993,0.028113246,-0.037874073,-0.066618815,-0.0056982087,-0.021303296,-0.0018295492,-0.061819263,0.019579083,-0.033265095,0.17151241,0.02685176,-0.08431091,-0.006747894,0.012484142,0.02162978,-0.20815496,-0.017903095,0.09024953,-0.03367174,-0.04422424,0.09029561,-0.1213524,0.06942568,-0.05845798,-0.049162935,0.0503124,0.09667898,0.15502554,-0.05736316,-0.040250126,0.043537352,-0.23837388,-0.0046245316,0.0320234,-0.018544601,0.08521842,-0.0020894154,-0.08206992,-0.09411337,-0.0013193148,0.11124166,-0.06355185,0.15326245,0.07591383,0.09798461,-0.038236428,-0.051203247,0.010338765,-0.04613382,-0.10374731,-0.02486042,0.029956805,-0.11901285,-0.032892022,0.019942258,-0.052920546,-0.021983279,0.009651878,-0.06258976,-0.0239098,-0.020858541,0.008782028,-0.00086889183,-0.100363635,-0.0470985,0.03625351,-0.0744667,0.01305252,-0.035650697,-0.038497716,-0.055685055,-0.052141637,-0.09632815,-0.26274034,0.04471752,-0.026154742,-0.108711176,-0.008286479,-0.13465099,-0.105932035,0.005279692,0.013656442,0.00058314286,0.041713484,-0.12857883,0.013189058,0.103334345,0.068683416,0.09123134,-0.066773474,-0.0686888,-0.07460888,0.14289677,-0.013646399,-0.09219544,-0.005455576,0.029134117,0.20727378,-0.14681832,0.02804743,0.031357948,-0.13968967,0.14124207,0.024029108,-0.054136872,0.09633444,0.021808483,0.03958914,-0.025980808,0.13270347,-0.03619873,-0.045226783,-0.085351415,-0.1284432,-0.16832975,0.035712354,-0.006097561,-0.04350067,0.08948629,0.101447545,-0.23736507,-0.028694857,0.0070763184,0.016525311,0.10469697,-0.14227569,0.046460267,0.052935258,-0.17045265,-0.030751178,-0.057760555,-0.037027985,0.02890448,-0.0810793,-0.030225815,-0.10096253,0.045197528,-0.016718948,-0.023095127,-0.012282587,0.0142132,-0.059476547,0.0483789,-0.137031,0.08930859,0.0012396597,0.1694531,-0.017755229,-0.10888426,0.14832371,0.043469753,0.15115924,0.049106237,-0.0843855,0.15500456,-0.059868164,-0.07136795,-0.116860054,0.056407277,-0.08192534,-0.10804731,-0.042821113,0.0117290495,-0.12339591,-0.065336935
Blazing Crescendo,0.07537111,-0.038578544,0.13460165,0.08426766,-0.078533426,0.14403653,-0.24421464,0.18950948,-0.069576874,-0.13081595,-0.12529027,-0.09530324,0.2220724,-0.010449959,0.014877724,-0.29958045,-0.050115738,-0.019979693,-0.029821679,-0.21126115,-0.08353408,-0.15450315,0.09307114,-0.05707724,0.123336494,-0.3553456,-0.1445985,-0.116941325,-0.034079034,-0.057334054,0.045737967,0.1055709,0.31170368,-0.20473325,0.01874353,0.019815113,-0.10360078,-0.04860984,0.007139277,-0.26130944,-0.05601283,0.020104738,-0.083136916,-0.026875421,0.058243725,0.022726502,-0.02709785,-0.057130344,-0.020536032,0.075981565,0.04920847,-0.20564899,0.10097983,0.07127483,0.057735756,0.18989731,-0.114855036,-0.07894127,-0.07628912,0.10672804,0.1646137,0.13803309,-0.051279888,-0.14198226,-0.08305249,-0.20750873,-0.031796433,-0.16611502,-0.12897995,-0.03984935,-0.10431349,0.13887873,0.04957691,-0.0038729517,0.11144917,-0.057406683,0.10287868,0.23700947,0.266536,-0.049731955,-0.007760855,0.31192732,0.19927233,-0.031454295,0.038657542,0.20675382,0.050069273,0.10601645,0.12134641,0.08682779,0.13481884,0.15915479,-0.053404525,0.016530504,-0.2818541,0.13598117,-0.12881969,-0.05574502,0.21656185,0.058192227,0.05466013,0.01539131,0.044352658,-0.03040598,-0.008914214,-0.06425398,-0.29655033,0.14642212,0.064283006,-0.06503026,-0.12794304,-0.07740064,-0.03411546,-0.07572275,-0.02812274,0.10314652,0.12303014,0.17320369,0.106260784,-0.13226256,-0.1052034,-0.14174558,-0.17980847,0.068451606,-0.086312056,0.08012911,0.024507469,0.05429914,-0.065935336,-0.3208383,0.08453663,-0.063836075,0.071250476,-0.13464884,0.013513234,-0.07800381,0.25927842,-0.03489622,-0.07195246,0.037685417,0.012717321,-0.13724591,-0.08098213,-0.10506704,0.091886245,-0.15330005,0.10085361,0.083679356,0.13851292,-0.06262803,-0.22092745,-0.0855812,0.00038419926,-0.0586608,0.15151931,0.11437786,0.11110195,0.06913471,-0.08318314,-0.23187813,0.1047022,-0.07804679,0.083690606,-0.02018658,-0.100535,0.1082622,0.2037873,-0.21337526,0.07698831,-0.0075385896,0.017916624,0.0030505692,-0.032941245,-0.027481958,0.0069485125,0.14755765,0.113945,0.1266906,0.08813011,0.041346755,-0.25659594,0.17359221,-0.048706476,0.015956316,-0.058456637,-0.13044688,0.0073397653,0.034965023,0.046627417,-0.04451689,-0.06101873,0.09110081,-0.028156908,0.07677979,-0.053294092,0.123044424,0.0980977,0.055158146,0.2613676,-0.12645084,0.091577776,-0.0151462685,0.1306833,-0.010259522,0.053635415,-0.12305723,-0.104686424,0.025260916,-0.07151866,0.10455201,-0.19543332,-0.00045850733,0.020019606,0.094690464,-0.21536086,-0.056048132,-0.09072897,0.04311827,-0.035788286,0.0034788367,-0.077390544,-0.046223946,-0.21369845,-0.055957813,0.09687613,-0.096850544,-0.047150087,0.22661537,0.13277052,-0.05896973,0.16867979,0.14633924,-0.02902456,-0.086898826,-0.0353304,0.04420284,-0.12978579,0.13892627,-0.020085907,0.11895335,-0.22706054,-0.18703444,0.00054182834,0.21364677,0.017370164,-0.015153989,-0.11826912,-0.10484763,-0.18139052,0.0074929274,-0.13652349,0.17988777,-0.037503906,-0.037616957,-0.04970475,0.038237326
Oil-Gorger Troll,-0.008503896,0.10144603,-0.115276076,-0.23862597,0.071643025,0.14123589,-0.1529834,0.1706305,-0.14380024,0.11680101,0.07079678,-0.15649831,0.054484308,-0.13340327,0.062829696,-0.12062703,-0.1158197,0.13663527,-0.026650282,-0.10094338,0.013271626,0.10547097,0.09567375,-0.08152429,-0.022842983,-0.42369574,0.12731688,-0.04673216,-0.1273698,-0.08766917,-0.17839338,0.050994955,0.21060167,-0.17458405,-0.08863643,-0.058183964,-0.031799354,-0.12074927,0.18941614,-0.14692122,0.07927664,0.0025598558,-0.2336421,0.00011910858,-0.06324774,0.036079194,-0.09774804,0.023920894,-0.03909648,0.13574164,-0.05505419,-0.24153848,-0.07637641,0.16119228,0.23555996,0.11162538,-0.3190203,-0.11132139,-0.12058794,-0.13529657,0.09278183,0.08575354,-0.19249536,-0.11525313,-0.10665496,-0.1555823,-0.07146425,-0.07114366,-0.08385083,-0.082928926,-0.1169005,0.14964089,0.055680797,-0.0040101116,0.13525435,-0.046279114,0.034062974,0.11265343,0.119865306,0.16382019,-0.11163704,0.26404664,0.12120983,-0.025792737,0.07017861,0.070531674,0.100975014,-0.06453251,0.10064792,0.14261483,0.06685463,0.08857548,-0.1516372,0.056564353,-0.13834718,0.30396837,-0.10725835,0.07109908,0.12273766,0.0881402,0.014033501,0.21176425,0.12302179,-0.11750454,0.03249012,0.0448836,-0.16488348,-0.07435148,-0.06394017,-0.049953498,-0.14172132,0.2557181,-0.24162771,-0.06888729,0.11091001,-0.067806356,0.17408113,0.22437662,0.14153345,-0.05063476,-0.012813173,0.005311679,-0.21443786,-0.17839235,-0.053985067,-0.19954567,0.11809018,-0.077884324,-0.036917195,-0.27578118,0.27618533,0.00481975,-0.020328738,-0.07228372,0.18918522,-0.08877417,0.33508146,-0.08211439,-0.04416805,0.016964825,0.03262867,-0.1921898,-0.06414613,-0.18873437,0.012398625,0.108945884,0.049556356,-0.12748176,-0.028919855,0.06650557,-0.19323078,-0.007886081,-0.03409885,-0.072467655,0.12946536,0.06610138,-0.001164388,0.04381931,-0.11792302,-0.109041914,-0.18838508,-0.041616734,0.05486944,-0.20238298,-0.35479763,0.03642959,0.16088217,-0.03237557,0.12126921,-0.22208253,0.06566344,0.004341251,0.0054422608,-0.009084508,0.07626197,-0.036347575,0.12329345,-0.026786722,0.028173372,-0.21296518,-0.12262697,0.13904169,-0.17147906,-0.05757403,0.061435632,-0.14379843,-0.10109927,0.03663552,0.1421751,0.0010345158,0.00036699534,0.16861744,0.077076286,0.16568995,-0.10053839,-0.0072363904,0.2354924,0.17644201,0.1929264,-0.14303581,0.08800773,0.030187432,0.07060122,-0.06891121,-0.18286705,-0.07045282,-0.068364665,-0.08769026,-0.06723144,0.14242625,0.0081631355,0.0074002417,-0.13696146,0.40773,-0.11835139,0.13441578,0.13797759,0.12199269,0.288042,-0.0031782766,-0.00036651778,-0.08733315,-0.18205932,-0.023866326,-0.14259149,-0.27377766,-0.11226963,0.11796911,-0.0941719,-0.0965652,0.27509564,0.17959689,0.011960187,0.03820508,-0.07941515,-0.19932038,-0.08081545,0.09788029,-0.21402499,-0.026515786,-0.057854585,-0.04662315,0.10587424,-0.1938753,0.026770303,-0.04968965,-0.2539393,-0.070211515,0.078216836,-0.06789369,-0.1221503,-0.0797113,0.07092736,0.011594093,-0.0056699547,0.053333562
The Autonomous Furnace,-0.0002945362,-0.011373248,0.16312408,-0.007593539,-0.0069499793,0.14681315,-0.20322059,0.2289717,0.030884346,0.00956752,0.03783955,-0.10967951,0.1545062,0.0077279387,-0.014503925,-0.10141698,-0.09627931,0.038385116,-0.034830138,-0.19437185,-0.06280273,-0.21321052,0.0602253,-0.06373959,0.08819947,-0.34250948,-0.16686577,-0.074005134,-0.08106702,-0.06260534,0.015081403,0.15709454,0.18676087,-0.2386772,-0.036192797,-0.06333284,0.0037117254,-0.08367208,0.048954494,-0.24372615,-0.16090527,0.045670453,-0.09223931,-0.011010947,0.07914784,0.055092137,-0.06505426,-0.11829408,-0.0067398944,0.094134554,0.019889353,-0.19752453,0.123797916,0.027745955,-0.051724505,0.16413383,-0.14174129,-0.085803345,-0.22258511,0.065617226,-0.009578353,0.08137271,-0.16626154,-0.06992782,-0.062120378,-0.10885133,-0.044159546,-0.1086794,-0.06249508,-0.06286913,-0.072478876,0.11422701,0.019638378,-0.06600985,0.10292252,-0.0030823771,0.08891973,0.22464761,0.09925322,-0.040283706,-0.037535813,0.22827269,0.207835,-0.023961738,0.1331816,0.15641192,0.092831016,0.13159703,0.09992355,0.0006669512,0.12233522,0.039450362,-0.07686517,0.05647149,-0.27270302,0.101016626,-0.113945566,-0.03832172,0.13072318,0.05144695,0.05975521,-0.032533385,0.12164602,0.008909414,0.065594,-0.051563036,-0.2678085,0.111601,0.061590955,-0.07022564,-0.08840754,-0.041936155,-0.07390812,-0.11998752,0.001748636,0.15209988,0.059017573,0.21470028,0.11585638,-0.035652295,-0.043416515,-0.21019739,-0.07613443,-0.049163572,-0.041541506,0.08995342,0.04545557,0.05147399,0.005694218,-0.17759697,0.04323302,-0.0662191,0.055834748,-0.05004714,0.13252404,-0.024045384,0.18303153,-0.035490736,-0.04733149,0.0074509527,0.08630731,-0.042254288,0.06968654,-0.060287856,0.052678928,-0.054521035,0.107152514,0.094385035,0.076762035,-0.118010655,-0.18166377,-0.043669667,-0.010064992,-0.16862833,0.11724423,0.107236676,0.12825745,0.08741753,-0.025695758,-0.16197895,0.09216584,-0.044630382,0.18168876,0.01464567,-0.076587655,0.153689,0.28924295,-0.078470886,0.071523145,0.03065426,0.13894798,0.01430514,-0.081360444,-0.04303739,0.059406262,0.14412698,0.19672547,0.0573682,0.0057876683,-0.10054174,-0.2754563,0.0429987,-0.02038714,-0.0018163755,0.005148038,-0.12701385,-0.05526398,-0.016617088,0.12685639,0.017035335,-0.06250234,-0.019117743,0.051865187,0.111096896,0.022003492,0.0917776,0.18457507,0.11229561,0.21050555,-0.11479824,0.091658406,0.0073417416,0.072890185,-0.10578001,0.028554877,-0.12168544,-0.11909493,0.0066437977,-0.109080985,0.023122514,-0.23708202,0.13132074,0.054188676,0.15189818,-0.23409376,-0.051844914,0.014198536,0.100358844,0.06662416,-0.006365048,-0.023396363,0.024499808,-0.14371833,-0.13072233,0.053776525,-0.07739463,-0.07801776,0.20874082,0.17472106,-0.051359817,0.24337845,-0.004704652,-0.019545807,-0.035111636,-0.05214079,0.02108163,-0.16564,0.14066966,0.0026604682,0.06603295,-0.07689575,-0.13721009,0.0025697094,0.04089883,0.0023055237,0.0070378245,-0.21150011,-0.05267231,-0.051610272,0.055254593,-0.13776928,0.107870385,0.015448304,-0.035105743,-0.07657465,0.10287649
Free from Flesh,0.014176987,-0.0054653008,0.12571993,0.070821606,-0.06726703,0.19372478,-0.18485896,0.19271585,-0.0006672315,0.030544445,0.017507525,-0.103362344,0.15324618,-0.05316257,-0.05536603,-0.31004342,-0.02312141,0.025944842,-0.066154964,-0.18860802,-0.108366914,-0.17364137,0.14429332,-0.11067671,0.03982755,-0.42641675,-0.09381618,-0.11499489,-0.11674521,-0.09985047,0.05652068,0.13814743,0.24169822,-0.18441893,0.008400074,-0.0035186037,-0.07169274,-0.044537622,0.048800312,-0.31960523,-0.049982928,0.008876455,-0.23525886,-0.08856252,-0.048474383,0.013089783,0.042460028,-0.06226248,0.041168712,0.10839148,0.08110392,-0.25222647,0.0709767,0.039313145,0.069777735,0.26482156,-0.23330264,-0.09845008,-0.09301259,-0.003353984,0.0981035,0.10457601,-0.1117115,-0.08459105,-0.122636676,-0.25581452,-0.01264429,-0.12641446,-0.08214953,-0.032616496,-0.14957109,0.1497016,0.025989141,0.013224127,0.1948881,-0.10840992,0.016346037,0.27581316,0.19574203,0.10370569,-0.0285404,0.32998,0.28788936,-0.056663785,0.08956496,0.19677973,0.09965983,0.06827153,0.19767149,0.071755506,0.13360076,0.13948059,-0.08073148,0.073583044,-0.25793266,0.16962934,-0.20279564,-0.052597426,0.28034112,0.08220501,0.07284036,0.014400549,0.12540211,-0.124576956,0.08218548,0.0083169285,-0.21445392,0.073042214,0.11651362,-0.087130114,-0.08611032,-0.050294966,-0.041507285,-0.07216328,0.049431887,0.17938475,0.10626751,0.14534763,0.08427733,-0.1211654,-0.054989453,-0.21929249,-0.2181297,-0.027214501,-0.059818745,0.025217094,0.039638136,-0.045797504,-0.04773447,-0.28516826,0.15503119,-0.05833508,0.14662024,-0.099924326,0.11603154,-0.13692972,0.29781687,-0.002140945,-0.06875056,-0.041259,0.030553097,-0.17493045,-0.098736815,-0.21186239,0.017020551,-0.14854312,0.103467,0.033526864,0.12543121,-0.029378919,-0.23157096,-0.06455239,-0.108243495,-0.009100908,0.20678915,0.014233815,0.085729696,0.08748428,0.008416131,-0.2714502,-0.0009477512,-0.10242697,0.07392771,-0.08006357,-0.08985386,0.08430488,0.270238,-0.20532744,0.02479299,-0.027987314,0.026716715,0.024680238,-0.08243741,-0.04933569,-0.015333038,0.12298298,0.19140746,0.103359416,0.08589012,-0.0038761736,-0.29631904,0.27815527,-0.083062686,-0.10828233,0.011049621,-0.09659639,-0.05761486,0.049485225,0.07386214,-0.023760088,-0.14279357,-0.031063816,-0.046142466,0.15587033,-0.077897824,0.07704357,0.09176969,0.17823899,0.23756127,-0.17750394,-0.003456514,0.020332852,0.14560121,0.042331528,0.0031310741,-0.24470101,-0.10006439,-0.01643591,-0.08748138,0.19286242,-0.12802184,0.030522967,0.0046704165,0.059892338,-0.23979801,0.031569153,-0.066982426,0.07671234,-0.013050135,-0.0008214732,-0.08242775,-0.050826084,-0.20332745,-0.035553742,0.06583845,-0.13032463,-0.07445958,0.22489743,0.11979903,-0.12456093,0.24198155,0.086482555,-0.10306433,-0.011289287,-0.09756066,-0.056589615,-0.10142412,0.11500263,-0.007193942,0.18666448,-0.22162622,-0.17124407,0.119709566,0.016119732,0.033116654,-0.094589524,-0.16400899,-0.12695995,-0.12803163,0.0325839,-0.07783973,0.16236143,0.015818417,-0.034864873,0.07265261,0.07665479
Charge of the Mites,0.1530368,-0.08587491,0.20966606,-0.0029896032,0.008043715,0.05257781,-0.10025771,0.0644146,-0.04168306,-0.17579433,-0.27936432,-0.10103311,-0.0033819792,0.086047485,0.12225044,-0.24696913,-0.082218595,-0.16292758,0.10660619,-0.00567604,0.1365092,-0.11508916,-0.044208966,0.03998339,0.015504612,0.052208938,0.030899752,-0.1794045,-0.08339176,-0.036028095,0.15834956,0.03311229,0.077817015,-0.12791774,0.0827194,-0.02897591,-0.1925619,-0.13321841,0.013681751,-0.26394382,-0.09088313,-0.15473068,-0.12571427,-0.22262014,-0.0011185,0.057093576,-0.11608518,0.058703482,0.13051374,-0.045424018,-0.051880684,0.056427486,0.150015,-0.036133092,0.07294779,0.10405087,0.05321158,0.016322752,-0.00791419,-0.03905921,-0.029050475,0.030419143,0.02364739,-0.24746646,-0.045834146,0.079367906,-0.18198226,-0.13220957,0.0021698878,0.028973911,-0.0583308,0.1168126,0.101992555,0.059292175,-0.011943042,-0.16337678,0.0152140055,0.0953037,-0.07096776,-0.038319632,-0.018179791,0.021977566,-0.059973624,-0.012747461,-0.082246915,-0.042204577,0.11943642,0.07270866,0.051903468,-0.038648408,-0.04790424,0.08640169,-0.17039227,0.07501539,-0.005631527,0.02915513,-0.0886529,0.016233215,0.050352868,0.07591646,-0.17512701,-0.09271548,0.08285369,0.07744566,-0.111133456,0.014708845,-0.3120342,0.13428359,0.06662019,-0.10878016,-0.22847371,-0.047674168,-0.090830915,-0.07824847,0.085866325,0.10985014,0.016944032,0.10459211,-0.044637464,-0.05336236,-0.0065091206,-0.11152159,-0.089736804,0.14471655,0.10992761,0.02841689,0.08084884,-0.04999298,0.024155006,-0.24412547,0.08399867,-0.065128006,-0.08196931,-0.022384917,0.048895657,0.1274927,0.054411393,-0.008828556,-0.037409626,0.017523129,-0.09186553,-0.085049324,0.08120088,-0.015743606,-0.03853806,-0.1763608,-0.044863734,0.13169679,0.032179605,0.1103511,-0.08825636,0.017508127,0.029796666,-0.01391416,-0.19115278,0.08364741,0.15295257,0.03146466,0.12764786,-0.0661535,0.11306545,0.005299548,-0.035620183,0.017490344,0.054463483,-0.03382304,-0.055555567,0.06720309,-0.038710628,-0.0538003,-0.022937862,-0.05251215,0.14351186,-0.05926764,0.1680912,-0.15633327,0.10651891,0.108864374,0.2594023,0.040031042,-0.104086086,0.0019558782,0.02644783,0.11017388,-0.12401541,0.04800959,0.011935737,-0.14621797,-0.017774036,0.08997328,-0.013534928,0.09991821,0.01710079,0.1632253,0.0781894,0.09967599,-0.11147471,-0.06677105,0.01193497,-0.072904706,0.1477388,-0.039777834,0.049387436,0.20717019,-0.052806687,0.042499453,0.13802992,-0.08770877,-0.04098445,0.06812558,0.043382153,-0.1845462,0.024155853,-0.041560687,0.010877733,-0.05909923,-0.008320094,-0.019375011,-0.07272299,-0.057599608,0.03693229,0.049573377,-0.21727714,0.05944094,0.11077506,0.057648703,0.08994788,0.1061619,-0.17635532,0.0011728357,-0.072008364,-0.013584431,-0.07136711,0.02746962,-0.056288544,-0.019169368,-0.0738254,0.13214326,0.016477875,-0.056664836,0.039928377,0.06983748,0.018747462,-0.006601195,0.11154864,0.12325239,-0.040407635,-0.047356058,-0.1707401,-0.06692817,-0.16475351,0.11358552,0.13291898,0.18108636,-0.12721641,-0.09302676
