,0,1,2,3,4,5,6,7,8,9,10,11,12,13,14,15,16,17,18,19,20,21,22,23,24,25,26,27,28,29,30,31,32,33,34,35,36,37,38,39,40,41,42,43,44,45,46,47,48,49,50,51,52,53,54,55,56,57,58,59,60,61,62,63,64,65,66,67,68,69,70,71,72,73,74,75,76,77,78,79,80,81,82,83,84,85,86,87,88,89,90,91,92,93,94,95,96,97,98,99,100,101,102,103,104,105,106,107,108,109,110,111,112,113,114,115,116,117,118,119,120,121,122,123,124,125,126,127,128,129,130,131,132,133,134,135,136,137,138,139,140,141,142,143,144,145,146,147,148,149,150,151,152,153,154,155,156,157,158,159,160,161,162,163,164,165,166,167,168,169,170,171,172,173,174,175,176,177,178,179,180,181,182,183,184,185,186,187,188,189,190,191,192,193,194,195,196,197,198,199,200,201,202,203,204,205,206,207,208,209,210,211,212,213,214,215,216,217,218,219,220,221,222,223,224,225,226,227,228,229,230,231,232,233,234,235,236,237,238,239,240,241,242,243,244,245,246,247,248,249,250,251,252,253,254,255
Mountain,0.11200723,-0.15538552,0.15569066,-0.07698027,0.0589266,0.10775467,-0.026656205,0.08068734,0.09827177,-0.031655893,-0.08832997,0.0017223406,0.041532215,-0.054290023,0.10013744,0.040214796,0.03187355,0.10991735,-0.09484063,-0.02876777,-0.10527613,-0.2113818,-0.030899715,0.11961872,0.03454577,-0.037295736,-0.0053812377,0.066259764,0.19490618,-0.06478974,-0.09303194,0.13271064,0.025252953,0.065497085,-0.15781449,0.016788408,0.018615972,0.060001742,-0.04152541,0.12716967,0.101486996,-0.102811374,0.099955775,0.110736825,-0.10678554,0.2416042,-0.069529295,-0.011357106,0.06672587,0.033770498,-0.12880014,0.12420255,0.17428921,-0.02307176,0.037298065,0.14753944,0.04665351,-0.11094372,-0.06743499,-0.04735708,-0.22502953,0.0041563334,0.059971467,0.17815822,-0.10493947,0.015080795,0.0728985,-0.014995048,-0.0770506,0.025882456,-0.07099489,0.04027342,0.13116676,0.09808886,-0.082476266,0.079038106,0.038943477,-0.06701162,-0.08178743,-0.05427299,-0.11134121,-0.0600721,-0.013057049,-0.22957367,-0.020700617,0.17986704,0.20154972,0.17383192,-0.077668026,-0.14085495,0.06596744,-0.015018263,0.0072230045,-0.06088304,-0.028058067,0.081891604,-0.057761036,-0.23844919,0.01073215,0.17713742,-0.012359577,0.23275535,0.08266328,-0.09391747,0.103621565,0.056552295,-0.22978443,-0.3355143,-0.21558203,0.05814812,0.125302,-0.027687179,0.11634017,0.10446211,-0.05772981,0.043238457,0.10760536,-0.044390026,-0.069302775,0.05876977,-0.037105978,0.12197054,0.16792622,-0.041043907,-0.01460756,0.21387623,-0.043438785,-0.12642199,-0.15647464,-0.12982707,-0.102490164,0.08959025,0.056932945,0.018594945,0.03832128,0.080649026,-0.059130814,0.0558033,-0.029669248,-0.040763024,-0.2807921,0.013311333,0.078366205,-0.12041984,-0.17758606,-0.07098166,0.042810407,-0.2744973,-0.009557056,-0.03487061,-0.011575323,0.018569058,-0.020934185,0.030384019,-0.095772885,0.013295708,0.0029945197,0.120455764,-0.08325737,0.10514329,0.020625154,0.33202025,0.014888542,0.14753968,-0.16344732,0.06980284,-0.10375831,-0.037053682,-0.13660516,-0.009025009,-0.02806684,-0.06426902,0.11911998,0.03515312,-0.09397042,0.010197396,0.036367413,-0.10426202,-0.019522898,-0.030887974,-0.053495374,0.06579862,0.013644551,-0.10027248,0.053569376,0.016635673,0.06839632,-0.105171815,0.11898485,-0.11207174,-0.08671984,0.15041031,-0.17063145,-0.05430803,0.06985218,0.0933897,-0.087385096,0.12439001,0.14169636,0.06401924,-0.08983948,0.049113985,-0.0667693,-0.039142914,-0.029487466,-0.0545819,-0.10968837,0.032393634,0.09384881,-0.012766777,0.22928438,-0.0030662513,0.10747741,-0.015682992,-0.0102800485,-0.08601117,-0.26932618,0.09817043,-0.17583825,-0.15311325,0.0784409,0.016552499,-0.08724342,0.15897956,0.047307488,0.06030362,-0.10549425,0.03504479,0.12387664,0.13020375,-0.17218137,0.17279592,0.2107473,0.13900816,0.03823464,0.038493622,0.09201148,-0.046501618,-0.02816621,-0.06372478,0.017793022,-0.13867135,0.028986966,-0.009651014,-0.10713802,-0.079271585,-0.12858267,0.060420148,-0.107239075,0.009313092,-0.1129323,0.09705169,-0.034904566,0.018220851,0.24144702,0.051457528
Plains,-0.04309849,-0.2760002,0.034956794,-0.09353081,0.05574786,0.069723934,0.036659554,-0.012299474,-0.074539386,0.03314277,0.018215295,0.006385998,-0.023943663,0.16579169,0.0274099,0.08942936,0.021843579,0.09924201,-0.11910967,0.047954004,-0.06545922,-0.035396546,-0.05636183,0.14604354,-0.06783789,-0.033110734,-0.010035205,0.06614114,0.24180833,-0.009687115,-0.14902927,0.12069069,-0.015537727,-0.034662522,-0.10179182,-0.057203278,0.090622,0.1310504,-0.013326911,0.11272543,-0.040630173,0.12663071,0.2657674,0.18727314,-0.12978911,0.05259907,-0.0980321,0.059580784,0.1377951,-0.015020727,-0.10709296,0.08331195,0.073042385,0.16625065,0.0966445,-0.21019724,0.03885819,-0.047430746,-0.06037424,0.008488213,0.12394654,-0.03844353,-0.07410796,0.1406897,-0.08489855,-0.022647262,0.13049588,0.053310134,-0.015121025,-0.11234261,0.06948776,-0.10174703,-0.023325669,-0.016950432,-0.08996306,0.032469053,-0.12465919,-0.14648771,-0.036478285,0.06785009,-0.01843182,-0.0311392,0.003219686,-0.16560462,0.017351266,0.082119964,0.102861434,0.007225519,-0.118845075,0.016913667,0.054207653,-0.11213263,-0.05529871,-0.013189723,-0.068158634,0.0035481672,-0.11054813,-0.19773589,0.0036338654,0.068244494,0.0055459104,0.13452725,0.04150842,0.022437716,0.0122318985,0.035978917,-0.1346021,-0.10400215,-0.037143458,-0.03232412,0.042501464,-0.09187585,-0.02267904,0.13050619,-0.06638197,-0.12498304,0.031370137,-0.068320245,-0.0428578,-0.00095946144,-0.09317127,-0.14795369,0.10147781,0.01899971,-0.12919168,0.12367381,-0.08605617,-0.047743537,-0.15892063,-0.029860366,0.060798496,0.01875805,0.054072402,0.047493394,0.13833544,-0.08693195,-0.2043227,0.053907778,0.014038883,-0.06349699,-0.045575473,0.08064804,0.016778741,0.106136076,0.02814532,0.039237965,-0.12891509,-0.1284421,-0.04607555,-0.15852936,0.0005345694,-0.07042928,-0.026917746,0.012918109,-0.056436498,-0.15955435,-0.0022442956,-0.034927804,-0.115459844,0.027737994,0.08276022,0.104266025,0.034760598,0.1515513,-0.16779758,-0.053467527,-0.13467744,-0.038246833,-0.07679593,0.13303092,0.07254545,-0.033456545,-0.058329217,-0.03254091,0.087108105,0.043629788,-0.07397217,0.027769675,0.06997208,0.11334564,-0.11734269,0.14425643,-0.18110923,-0.08488399,-0.092170104,0.04225727,-0.032291885,-0.07500468,0.06385891,-0.034629066,0.18543848,0.10300364,0.10398987,-0.09377665,-0.03906957,-0.0419673,0.088733606,0.089451715,0.116504915,0.05260689,0.10193705,0.023334237,-0.098153844,0.114130616,0.11602742,0.10953826,0.03233724,0.042924296,-0.019187331,0.0047268653,-0.06416215,0.0032785945,-0.06913914,0.17448479,-0.01641021,-0.20022355,-0.14917943,0.24459116,0.02503342,-0.11154716,0.057895143,-0.12363851,-0.016762434,-0.06902782,-0.0031067242,-0.21333392,0.011913378,0.014915613,0.08495423,0.1478035,0.0316931,0.027207794,0.10487815,0.17546391,0.037567273,0.056038536,0.20072621,-0.0037966077,-0.020338507,0.062460303,0.0154413665,-0.05740705,0.060228318,-0.04012137,-0.07230526,-0.112814836,0.009372549,0.09141438,-0.16631521,0.04071711,-0.0034233166,0.11306463,-0.055028923,0.113175415,0.1291849,0.028680831
Forest,-0.08643664,-0.174909,-0.04847569,-0.10687283,-0.0241147,-0.06166453,0.048485033,0.046667326,0.15148674,-0.019630222,0.16930139,0.083323166,-0.06817472,0.15559044,0.013442687,-0.094810754,-0.06055109,-0.20847012,-0.15403496,0.0109892115,-0.068708956,-0.16517109,0.09049674,-0.0085763,0.032538492,-0.07917632,0.013347731,0.12391082,0.18485117,0.071942426,-0.09068598,0.09373857,0.08733408,-0.079781316,-0.022849135,0.086217344,-0.09010699,-0.04075334,-0.04250364,0.04233468,0.12593283,0.01771897,0.10115207,0.09573179,-0.010414012,0.03468971,-0.034653377,-0.0012569161,-0.0635335,-0.075450644,-0.17464954,0.012331841,-0.07733847,0.054646432,0.08449228,0.20538242,0.060219686,-0.083963886,0.037779413,0.008469603,-0.111207895,0.025129132,0.124129966,-0.20041864,-0.043288648,-0.09485331,0.09685818,-0.043948695,0.03917055,-0.03152989,0.025643144,-0.113120995,0.04233916,0.05398549,0.068820976,-0.078438655,0.041253578,-0.081433184,0.051202495,-0.0100593,-0.1175372,-0.057033118,-0.0081524495,-0.120702244,0.06732681,0.11020725,0.109984666,0.15440083,-0.00017642158,-0.09022789,-0.07892883,-0.03995044,-0.24628839,-0.036335073,-0.112796254,0.094896965,0.06738281,-0.25354955,0.115123205,0.082464635,-0.08012527,0.36558923,0.10769766,-0.028895099,-0.0053064064,0.0121212965,-0.11971731,-0.13684662,-0.16708511,0.18196458,0.1792799,0.0074673826,0.16046153,0.036049567,-0.090988606,-0.12909444,0.13680296,0.03566074,0.07172647,0.115229435,0.00960273,-0.012149836,0.23211573,-0.11838512,-0.12171764,0.024763336,-0.045684043,0.015184027,-0.09155898,-0.047991455,-0.008371645,0.18634893,-0.022801794,0.020148134,0.031411137,0.10916168,-0.031318575,0.029256465,0.068534516,-0.11750649,-0.07666646,0.042796247,0.04907976,0.09403155,-0.2506527,-0.021303495,0.113303825,-0.1390963,0.1146248,-0.16355328,0.048103303,0.22403075,-0.16608283,0.020940732,0.025342982,-0.0610329,-0.08257731,0.117527284,-0.09031256,0.119921066,0.0011205218,0.100145556,-0.09340862,0.097638205,-0.09438349,0.18668704,0.020567149,-0.09906824,-0.073071055,-0.060239367,-0.009634916,-0.054307345,0.0013834608,-0.0057459613,0.06726352,-0.027595488,0.079752594,0.045567792,-0.0043111094,0.04789745,-0.0442795,0.06600463,-0.17732485,-0.06630146,-0.15793681,-0.10214488,0.0104671605,-0.07190287,0.02613921,-0.11843711,-0.008524479,0.24522565,-0.19443701,-0.0060475604,0.18733917,0.035837144,-0.11889675,0.20004116,0.006191821,0.1552883,-0.09599076,0.09187816,-0.00031203756,-0.054030072,-0.034351435,-0.0633252,-0.01144224,0.039318725,0.044824928,0.023759698,0.08253593,-0.1472372,-0.008764732,-0.07236911,-0.009044877,-0.047237035,-0.15832745,0.1979779,-0.09396639,-0.0102231605,-0.12314009,-0.162702,-0.05912982,-0.004708758,0.039582107,-0.058921494,-0.047369048,0.16941199,-0.06787391,0.17111446,-0.03777504,0.036476873,0.11099449,0.19487853,-0.011925482,0.100029625,-0.029485265,0.019282231,-0.04637187,-0.14116222,-0.05246204,-0.030863801,-0.0042772833,-0.009600966,0.06211306,-0.019563077,-0.008702512,0.12618464,0.06371511,-0.045477472,-0.010379582,-0.07871641,0.08908442,0.07766279,0.18673284,0.07795165
Swamp,0.108156785,-0.04973434,0.08061915,0.050781246,0.0026276724,-0.03839171,0.028194893,-0.03578591,-0.03423382,-0.035841692,0.13473535,0.15689987,-0.057349738,-0.023907539,5.3054682e-05,0.008036459,0.0075219017,-0.13102771,-0.02236036,0.015725048,0.013244377,-0.0435046,-0.0022506556,-0.06985392,-0.008806192,-0.075056456,0.07153989,-0.0036331143,0.26141235,0.050795317,-0.050535243,0.042487442,0.11113136,-0.04547583,-0.0012674837,0.049901277,-0.046094015,0.014340617,0.080704324,0.044218644,-0.044168483,0.06455571,0.08458988,0.058101088,-0.00817276,0.015209021,-0.0011663534,0.06800308,0.012950626,-0.04105207,-0.027788436,0.17486069,-0.08579622,0.08098303,0.0808526,0.0019034267,0.08517835,0.048190996,0.098095484,0.042637892,0.21394356,-0.0023559104,-0.029440163,-0.06646801,-0.1572906,0.009527158,0.01480509,0.092108235,-0.0099419365,-0.24376002,-0.0031281044,0.049317062,-0.058327667,0.048320387,0.05007787,0.039961662,-0.045780074,-0.021365333,-0.050600052,0.05278206,0.041016616,-0.057448108,0.023731826,-0.08896056,0.07968351,0.21866228,0.091666795,-0.042224552,-0.09308396,-0.14439453,0.0074744136,-0.10594594,0.08949112,-0.103724696,-0.18361917,0.093246154,-0.002426123,-0.091203324,0.35425863,-0.046936862,-0.107288584,-0.0054552685,-0.010358838,0.041772325,0.10445317,-0.018407803,-0.12958655,-0.06984154,-0.1384354,0.070733346,0.19523671,-0.1306449,0.18230653,-0.08476257,-0.095363975,-0.19456464,-0.017252032,-0.018017806,-0.08834683,-0.0828555,0.0049063955,-0.1272628,0.08654675,-0.10737397,-0.17784122,0.014481101,0.038579036,-0.030937146,-0.104081586,0.052630994,0.066839516,0.0351189,-0.03153314,0.09696389,-0.07352496,-0.008194383,-0.13977177,0.082740754,0.005627513,0.023744833,0.0008506004,0.06866459,-0.07505999,-0.021932332,-0.1571779,-0.06628872,0.054430585,-0.10611718,0.09502593,-0.053342044,-0.019065894,0.033726428,-0.08031469,0.12948549,0.058425713,-0.09277262,-0.051001687,-0.045415953,-0.034507092,-0.041273534,-0.00022119877,0.14928932,0.020574061,0.03814949,-0.002057233,0.018924514,-0.015204492,0.035050068,0.05231509,-0.052957915,0.05699505,0.027247721,-0.10270214,0.0654141,0.11855901,0.014494121,-0.0059697065,0.031669028,0.009289974,0.07754608,-0.008761689,0.12462853,-0.058745474,-0.023904726,0.02514335,0.064479195,-0.035461422,0.12140952,-0.0054045827,0.09291167,0.05584763,-0.03013926,0.028325183,-0.022185069,0.03868336,-0.047144294,0.023147956,0.118296325,0.064337425,0.2932263,-0.21024884,-0.0056339772,0.03293661,-0.0054760785,-0.07448108,-0.0745604,-0.06271973,0.01929547,-0.063771345,0.15313984,-0.003725807,0.10720549,-0.15082341,-0.001361121,-0.055319875,-0.0351348,-0.024132162,0.2083145,0.06892934,-0.15008868,-0.0062089795,-0.14831255,0.07255137,-0.20052923,0.10732323,-0.03174249,-0.112963334,-0.038664576,-0.06456653,0.09529876,0.056461018,-0.0076602027,0.11931043,0.08558267,-0.049779247,-0.034126848,-0.02523536,-0.05012968,0.12718764,0.105365984,-0.008754582,-0.0381841,0.0911966,-0.08560803,0.15451396,-0.13756615,-0.041902874,0.0029767142,0.1884695,-0.01767933,0.03935688,-0.012696845,0.020443927,0.044361506,0.060875956,0.10081264
Island,0.21459813,-0.071658365,0.20249316,-0.1822745,-0.059299137,0.072253354,-0.20107014,-0.04130878,-0.04922722,-0.0397337,0.14523588,0.24231727,-0.085864894,0.014792204,-0.07800164,0.0031567116,0.12684017,0.0723074,0.07414246,-0.034735087,-0.027908128,0.16132306,0.059657883,-0.031200929,-0.028221786,0.010517312,0.0030726723,-0.09935307,0.11986761,-0.02720596,-0.028772207,0.008002054,0.023925358,-0.057142712,-0.028372291,0.023807999,-0.027503427,0.067343,-0.11723283,-0.0018928533,0.03436782,-0.048654903,0.14818455,-0.04610202,-0.13684784,0.03774522,-0.12593131,0.07523664,-0.08613855,-0.013768095,-0.03749847,0.02810719,0.0060559693,0.11295024,-0.022718532,0.11088823,-0.19912577,0.023735393,-0.01045053,0.023245575,-0.027663704,-0.066472,0.008087908,0.09284063,-0.10559784,0.15106371,-0.01930059,0.032318242,-0.056764886,-0.037279945,-0.03152469,0.017273482,-0.013796473,0.08450461,-0.097410135,-0.01178646,-0.07967348,-0.12706189,-0.026796972,-0.14444888,-0.1549707,-0.008521039,-0.071347825,-0.021564644,-0.10623082,0.11784115,-0.0057851514,0.16227181,-0.033674315,-0.1846271,-0.030051516,-0.08768211,0.05333508,-0.01448181,-0.16743793,0.15101075,0.043322526,-0.02211361,0.100413136,0.04037388,-0.061671272,0.13192359,0.023803905,0.17904633,0.018923221,0.022475863,0.12673737,-0.18877296,-0.05184875,-0.113660745,0.09830268,-0.015207726,0.076972,-0.05789261,-0.17962776,-0.08328153,-0.14610972,0.029959973,-0.088065445,-0.04526752,-0.05259592,-0.0748103,0.07327244,-0.022096433,-0.034571044,0.03984254,-0.0913118,0.12355982,-0.29972103,0.02091255,-0.14300194,-0.0043809894,-0.057229117,0.14594051,0.077255115,-0.0030225767,0.11419143,0.015545333,0.026077008,-0.12927411,-0.05604338,-0.06488607,-0.0030679298,0.037988525,-0.10561489,-0.06105345,0.09808185,-0.30581182,0.005826597,-0.17934892,-0.00358053,0.06475714,0.21412487,0.03405876,-0.15241595,0.07168109,0.027141754,-0.07511141,0.042424213,0.0058495663,-0.019316748,0.20633414,0.12201589,-0.017343596,-0.20259447,0.07361665,-0.029604433,0.14065738,-0.06713219,0.09757432,-0.006133078,-0.17667398,0.23542903,0.04628022,-0.07224512,0.12746242,0.104259714,-0.019171093,0.032530084,0.06893548,-0.1031208,0.21667075,0.032895345,0.098583214,0.17327416,0.052988593,0.03686599,0.12018667,0.094675615,-0.09511023,0.04304395,0.13149165,0.016842652,-0.050322395,0.11904826,-0.018301236,-0.1703261,-0.0820967,0.0909441,-0.008565672,-0.0017730589,-0.054490432,-0.09338609,0.008144689,0.0092597455,-0.16614754,-0.119622424,0.050188154,0.0546121,0.04504137,0.048476752,0.08415616,-0.036267262,0.057947323,-0.08241109,-0.12979068,-0.057350654,0.045419727,-0.14332958,0.0041788346,0.25043678,-0.024805553,0.063132904,0.06984303,0.06505554,0.08331627,-0.28208676,0.12235847,-0.046755463,0.074966066,0.07708563,0.12018607,0.16221642,0.12568524,-0.050096374,0.07237433,0.15241577,-0.116548896,-0.06416251,0.122952946,0.25946987,-0.17769943,-0.02288519,0.105920084,0.053281814,-0.12686913,-0.019498387,-0.034987453,0.034096196,-0.024322849,0.021988308,0.1177219,0.043773014,0.16070002,0.05462236,0.11636392
Hexgold~Slash,0.13132466,-0.20386788,0.14271858,-0.1217636,0.047074057,0.09687403,0.026935894,0.13531688,0.08454928,-0.053858947,-0.03711118,0.011820064,0.024399033,-0.07573182,0.11594694,0.02863741,0.056559756,0.15281768,-0.11108237,-0.053992536,-0.06640861,-0.10783868,-0.032950085,0.0455837,0.025437918,-0.021036385,-0.062487014,0.03453035,0.1796667,-0.08125937,-0.12356883,0.18392174,0.0049416753,0.10281721,-0.12637232,0.05829937,0.08624339,0.06103975,0.020963857,0.12941112,0.07145103,-0.1566082,0.10087048,0.089672655,-0.08590524,0.21495928,-0.09988848,-0.025734166,0.081177525,-0.0031488887,-0.14507207,0.11616401,0.19789582,0.053400166,0.028360551,0.061607834,0.04900362,-0.14345591,-0.07337922,-0.028852614,-0.19691071,-0.06493106,0.03651929,0.10162547,-0.13105306,0.016128553,0.07913001,0.03868875,-0.08050401,0.049441647,-0.04069843,-0.044456515,0.18082036,0.12501636,-0.039284993,-0.010711822,0.10058809,-0.030440021,-0.07040189,-0.060714234,-0.0781231,-0.124097206,-0.086977795,-0.17817071,-0.09845788,0.13637924,0.18134254,0.12625284,-0.037412923,-0.107578784,-0.017864987,-0.009736802,0.012803713,-0.049624134,-0.01273358,0.030952698,-0.12622295,-0.3047092,0.019390846,0.18798564,-0.09253292,0.19692951,0.040623557,-0.13058671,0.08696993,0.119903184,-0.24000685,-0.25700727,-0.2226537,0.0032172096,0.10319822,-0.03390052,0.20380755,0.11075663,-0.11166755,0.041644257,0.09002172,-0.02285444,-0.080035985,0.08347499,-0.0437689,0.05823956,0.20369878,-0.04309583,0.023291629,0.22979149,-0.021125643,-0.100762166,-0.09871184,-0.14446397,-0.106542386,0.05401935,0.015878167,-0.008695838,0.023374315,0.12658668,-0.013548359,0.05773353,0.0048168604,-0.019230243,-0.26728863,0.028057573,0.086298905,-0.12062312,-0.18405508,-0.027796706,-0.013942353,-0.29621947,0.064734,-0.07184877,-0.013239409,0.060326092,-0.058356266,0.061199747,-0.120852575,-0.015559221,0.075373046,0.13170461,-0.08772808,0.15964045,0.009996328,0.23359673,0.03230156,0.14282231,-0.19029991,0.093265414,-0.055123527,-0.06453267,-0.0706411,-0.028323641,-0.0037297541,-0.058386706,0.08134285,0.02324293,-0.018281542,-0.08319777,0.030201528,-0.12147599,-0.0032079131,-0.0035785234,-0.084183924,0.11965309,-0.012080449,-0.0960832,-0.003019583,0.00258227,0.069127604,-0.07477736,0.07213069,-0.10414506,-0.10566655,0.18558326,-0.1632719,-0.07019988,0.010326465,0.08269512,-0.13455543,0.095330365,0.12710677,0.03534023,-0.08616265,0.062247097,-0.09827634,-0.07451299,0.011065898,-0.14946222,-0.12063582,0.02981282,0.10813472,-0.05264536,0.21608347,-0.022249715,0.091825865,-0.06346392,-0.02832776,-0.0723682,-0.18939506,0.13929643,-0.20085007,-0.13336074,0.09829647,-0.0112607265,-0.075330265,0.15391369,0.07014765,0.027819738,-0.1825586,0.07040954,0.1314285,0.119928375,-0.17554213,0.14331606,0.22100684,0.06724937,0.0783401,0.023150902,0.082494296,-0.025796873,-0.061849486,-0.083960086,0.03025648,-0.10589844,0.10522606,0.038046606,-0.103760876,-0.088240415,-0.11934574,0.063426696,-0.14332655,0.008404136,-0.16264172,0.1352981,-0.053062532,0.062032145,0.22580588,-0.030381484
Barbed~Batterfist,0.12082735,-0.20800781,0.1439198,-0.07410684,0.11064071,0.11347062,0.019697377,0.14733335,0.1468691,-0.041047968,-0.094746806,0.0040419367,-0.018393718,-0.042491842,0.16535501,-0.028189171,0.08746245,0.21613064,-0.11440332,-0.09407772,-0.069563664,-0.24535319,-0.09521606,0.09495301,0.059847567,0.016852185,0.0010606168,0.06936494,0.23190951,-0.09119177,-0.0742453,0.18056089,-0.01207624,0.06275483,-0.14279692,0.05878251,0.053594116,0.1003426,0.032892667,0.064915046,0.16711707,-0.14767575,0.19246776,0.07801678,-0.1309474,0.1696829,-0.13766734,0.0055543263,0.13440837,0.036057234,-0.2324029,0.11772645,0.22558814,0.08413039,-0.02113869,0.06529908,0.058222838,-0.20425503,0.009875129,-0.03291775,-0.21716335,-0.038748723,-0.0003383642,0.2008612,-0.13658458,-0.0197483,0.14219111,-0.044404317,-0.12647615,-0.008450499,-0.015196652,-0.00034995354,0.23430516,0.090011165,-0.024967562,0.09791773,0.12716548,-0.041626465,-0.12217569,-0.07061679,-0.09839763,-0.11065849,-0.056981318,-0.26864377,0.016782593,0.17199185,0.22111256,0.25364304,-0.004593049,-0.08632244,0.115482315,0.10583895,0.06487312,0.06500196,-0.029879188,0.08541751,-0.09490472,-0.2784894,-0.054033667,0.2466966,0.048159212,0.25551647,0.12912504,-0.18831478,0.087986186,0.062636785,-0.25558233,-0.23488754,-0.2129152,0.049907167,0.105230615,-0.039124366,0.094266154,0.12561318,-0.14125367,0.033874046,0.12659392,-0.0840391,-0.08103894,0.042812984,-0.07293768,0.0788175,0.20750916,-0.018834725,-0.044608347,0.28325108,-0.03959881,-0.25492576,-0.06274805,-0.22036286,-0.0750869,0.018098846,0.008063223,-0.05148227,0.044819657,0.10226247,-0.048541777,0.11238122,0.020111818,-0.06612402,-0.40132836,0.040586285,0.06523686,-0.08284869,-0.22944394,-0.032497842,-0.012587668,-0.28654748,-0.015752073,-0.04768772,-0.09246233,0.0127164535,-0.063261844,0.0586769,-0.15100856,-0.036931932,0.06870602,0.22546008,-0.11068116,0.079062186,0.060139522,0.32577616,0.02723721,0.20990232,-0.16706765,0.104244456,-0.15684985,-0.08247255,-0.09642264,0.07236647,-0.01742924,-0.04882373,0.06839027,0.016639987,-0.07475897,-0.05672885,0.005086696,-0.10805954,-0.026169542,-0.08679976,-0.06745656,0.067375496,-0.05479017,-0.14339726,-0.045491844,-0.01073087,0.054321125,-0.068889156,0.11392348,-0.11172815,-0.053937152,0.1634238,-0.15912482,-0.06490045,-0.06944071,0.08194093,-0.02188907,0.07381762,0.20818318,0.044087905,-0.11594076,0.013144208,-0.0849493,-0.091180526,0.023415793,-0.0583159,-0.18291496,-0.030709216,0.030113028,-0.12094125,0.23540445,-0.050553177,0.16226827,-0.014687741,0.04216789,-0.027623415,-0.22264622,0.08279032,-0.21141021,-0.14706519,0.04165962,-0.029037315,-0.0005779714,0.22255892,0.16000408,-0.06575892,-0.074240364,-0.0072632274,0.14252032,0.12307716,-0.09110702,0.21114062,0.16765042,0.13291076,0.07808113,0.14168738,0.16094291,-0.040436167,-0.09544091,-0.024700083,-0.010446203,-0.12434748,0.017739572,-0.11171499,-0.25002977,-0.17493032,-0.17147605,0.046131294,-0.18866386,0.075148955,-0.2082535,0.13229369,-0.093894325,0.044818923,0.23950915,0.0089276675
Volt~Charge,0.11347456,-0.17299418,0.14269578,-0.1846156,0.04680742,0.040964305,-0.037309237,0.14891857,0.101035036,-0.033703446,-0.03193019,0.013717353,0.0015782967,-0.05408218,0.059575774,0.049060185,-0.012367483,0.10927935,-0.121396355,0.048400223,-0.14097531,-0.121018924,-0.08459655,0.029373787,-0.016703798,-0.040132087,-0.045456983,0.05446586,0.17812218,-0.08244527,-0.08778831,0.1368839,0.037402116,0.0808251,-0.19282056,0.083154045,0.07832226,0.069924444,-0.0571739,0.14097942,0.077865474,-0.15996777,0.05467809,0.11913999,-0.12900095,0.25766438,-0.07411409,-0.055829898,0.020128945,-0.039209634,-0.12362704,0.11398222,0.17912138,-0.017997265,0.094800405,0.12444458,0.05220028,-0.1400746,-0.05925711,-0.02190246,-0.15623492,-0.0034337833,0.07266041,0.092332296,-0.074766435,0.031319924,0.095252395,0.020003954,-0.10055891,0.02288999,-0.101569705,0.032557357,0.14791963,0.09775389,-0.0017141317,-0.012848406,0.081903204,-0.009143528,-0.10631783,-0.05582231,-0.07661502,-0.059622154,-0.04817061,-0.1732509,-0.046868652,0.14691998,0.15555792,0.117454894,-0.08968393,-0.15650328,-0.010057129,-0.043684166,-0.03232172,-0.049448367,0.011663273,0.036650565,-0.07981209,-0.32488006,0.13095404,0.16863766,-0.09808674,0.18249592,0.08763015,-0.15447241,0.04074958,0.074231744,-0.22531904,-0.2909315,-0.19460475,-0.02024252,0.14048871,0.026853468,0.21266022,0.04206124,-0.11467136,0.07395485,0.073968664,-0.022234593,-0.106830604,0.083194874,-0.031177651,0.04509762,0.19171254,-0.00867893,0.014730342,0.2237449,0.012756407,-0.08392733,-0.10379431,-0.13283461,-0.091263935,0.07909322,0.0010714274,-0.034622226,0.0343056,0.13703729,-0.03522313,0.08792783,-0.054313734,0.0015885839,-0.2126918,0.034621812,0.11718441,-0.108447544,-0.14940897,-0.0010336789,0.025753662,-0.2340116,0.06498484,-0.07917372,-0.0463258,0.09405757,-0.07053999,0.01626835,-0.12478396,0.029152084,0.034457177,0.16386384,-0.09153772,0.20409957,-0.010231944,0.26495776,0.028953081,0.14845163,-0.1945529,0.07753441,-0.08423003,-0.05139945,-0.1348804,-0.038253263,-0.018246757,-0.12231308,0.08477689,0.0028337748,-0.06505207,-0.042979997,0.08667928,-0.14556146,0.034525115,0.04312772,-0.04368965,0.10475189,0.026382053,-0.10575865,-0.024361005,-0.0050035752,0.05590579,-0.03538986,0.045010157,-0.111796536,-0.10858584,0.17752415,-0.19258502,-0.072603874,0.01380462,0.07796756,-0.13627708,0.09238756,0.06564653,-0.0110178245,-0.11171619,0.078878544,-0.080951616,-0.034035034,0.01713756,-0.17878407,-0.0780579,0.0085164765,0.052072376,-0.055598043,0.18581124,0.010753138,0.06797978,-0.07997151,-0.07616968,-0.04204534,-0.17913672,0.17037414,-0.18978928,-0.14636967,0.10538005,0.03884714,-0.062336817,0.12258691,0.0859215,0.020902073,-0.15310565,0.047376286,0.15070663,0.149678,-0.14360353,0.18324776,0.20096932,0.08118103,0.05209076,0.013885947,0.117991254,-0.07083728,-0.07261183,-0.06783324,0.009394137,-0.11708459,0.013311267,0.113888726,-0.09273886,-0.073643625,-0.16199377,0.042508148,-0.0642827,-0.025334405,-0.14741883,0.18465008,-0.052891836,0.057276737,0.18363991,0.0014502478
Axiom~Engraver,0.16634859,-0.29138035,0.12474378,-0.058165576,0.013333258,0.1232647,-0.00949893,0.1673871,0.14362302,-0.017347602,0.026010957,-0.07366548,0.021811599,-0.076326445,0.17649713,0.037205458,0.07548402,0.09581579,-0.074693315,-0.13376507,-0.08663425,-0.26060012,0.07596659,0.05461381,0.013918839,-0.101543464,-0.11268616,0.0427928,0.3260172,0.02897254,-0.09355605,0.20280063,0.108361974,0.10090796,-0.15219988,0.13378753,0.045095343,0.11936193,0.029970342,0.1681797,0.13459843,-0.092907324,0.13678092,0.09649568,-0.12653719,0.24059571,-0.07655839,-0.009819095,0.11410977,-0.024454676,-0.1310151,0.13659956,0.1982838,0.021616943,0.08429894,0.074033484,0.06522619,-0.063699454,0.024273656,-0.059410416,-0.28655356,-0.08376586,0.018375684,0.068663694,-0.12644376,0.009515612,0.16455801,0.032562505,-0.06821488,0.022279803,-0.029686652,-0.051383127,0.18931912,0.17362906,0.07569092,-0.02504773,0.12551048,0.017246896,-0.06534995,-0.10084372,-0.1115651,-0.20399722,-0.07706038,-0.24109389,-0.03359364,0.17710353,0.24873084,0.2656839,0.037937853,-0.14933714,-0.07538177,0.033150803,0.004881785,0.0028408237,-0.093190506,0.07885566,-0.100882605,-0.28029191,-0.016306741,0.11143846,-0.039591882,0.25934955,0.07311328,-0.10910963,0.1772638,0.09870003,-0.21745004,-0.30608064,-0.25090414,0.06154473,0.17244145,0.013679246,0.23704395,0.08867082,-0.050920963,-0.032388207,0.06362657,-0.006518352,-0.056951396,0.020327054,0.023406528,0.08729195,0.19454637,-0.009599756,0.012919419,0.1660909,-0.06354092,-0.1629191,-0.07473369,-0.23989256,-0.07615133,0.1170269,0.013893481,-0.060758546,0.03187182,0.1554236,0.072394095,0.09115732,-0.02255647,-0.057539713,-0.28868267,0.0039342972,0.09648432,-0.087760165,-0.22991149,-0.004083643,0.07554058,-0.26181847,0.08730545,0.039120603,-9.394693e-06,0.02478124,-0.09564107,-0.012688912,-0.12600774,-0.06862224,0.02452039,0.17296433,-0.10947757,0.12028739,0.059604608,0.2473699,-0.062407415,0.09318595,-0.10297882,0.07583337,-0.054790042,-0.17200616,-0.13137516,0.006545267,0.04504166,-0.1506855,0.05595437,0.030815098,-0.068686694,-0.059822973,0.028049115,-0.061291084,-0.039121993,-0.15806594,-0.06395974,0.078211725,-0.062235318,-0.13303174,0.018995922,-0.03322522,0.11236616,-0.03620342,0.025020957,-0.18553111,-0.11589233,0.29250437,-0.24345216,-0.09082395,-0.04327766,0.08376415,-0.1042918,0.093739174,0.029516164,0.086863965,-0.1563292,-0.006779701,-0.07994322,-0.17123236,-0.043630056,-0.15616809,-0.14805612,0.07794321,0.09823936,-0.10368516,0.25169158,-0.057490755,0.23492499,-0.13217078,0.025049867,0.092404984,-0.24764852,0.10501391,-0.2546202,-0.04470901,0.039467532,-0.02997336,0.058242165,0.18733817,0.1462649,-0.0136236,-0.15477823,0.07689729,0.11805894,0.103438884,-0.13992324,0.16414139,0.17708473,0.12956399,0.10837896,0.11128777,0.06708622,-0.01358783,0.011907142,-0.16841033,0.014573296,-0.174277,0.041000407,0.029330913,-0.14065623,-0.12124934,-0.16465427,0.06777157,-0.17509651,0.024820283,-0.26604104,0.0678061,-0.08400789,-0.040153593,0.19491366,-0.008026719
Contagious~Vorrac,-0.029053975,-0.17098795,-0.0407374,-0.13673744,0.04028775,0.006583386,0.059211373,0.0018321008,0.16478078,-0.017879419,0.23502485,0.04185007,-0.11290359,0.095505916,0.07588341,-0.12625727,-0.04572145,-0.2632623,-0.21221715,-0.015885387,-0.05753785,-0.11574921,0.08729182,-0.016732557,0.0109014595,-0.07733167,-0.009222015,0.17011037,0.20984617,0.0073206723,-0.051320247,0.08751771,0.09522732,-0.06723255,-0.05441062,0.19102934,-0.055611458,-0.06199725,-0.01607486,0.01742555,0.059841506,0.0028254688,0.18386011,0.0674378,-0.028413018,-0.03518116,0.021911971,-0.037609015,-0.09496506,-0.055391893,-0.22167942,0.07442524,-0.026268795,0.00020193562,0.054470636,0.22109804,0.06758301,-0.019615425,0.061949067,0.05823021,-0.16603678,0.0026268659,0.14925162,-0.14426614,-0.047666647,-0.068302,0.054153174,0.049488142,0.03735843,-0.020398453,0.07040015,-0.13866644,0.079718605,0.13578184,0.036605734,-0.16744326,0.1003509,-0.02989735,0.09506229,-0.027527496,-0.06235482,-0.08834988,-0.058699608,-0.13792902,0.04421234,0.12346002,0.09484469,0.10070804,0.031682715,-0.10807305,0.009612957,-0.07188671,-0.21731782,-2.8463062e-05,-0.12925644,0.18443416,0.07232421,-0.26169026,-0.0010183915,0.08048834,0.058006413,0.31462094,0.0522313,-0.09641238,0.026175724,-0.0139862625,-0.120957404,-0.17085098,-0.18126807,0.110481955,0.12673186,-0.109254286,0.20686847,0.05188656,-0.100619204,-0.12185879,0.14566632,-0.04205935,0.050923333,0.08164379,-0.02995481,0.039814144,0.26269326,-0.09626916,-0.07709268,0.05754031,-0.042454388,0.042168066,-0.14701334,-0.094289795,0.025754344,0.17626278,-0.061011434,0.020210259,0.033693552,0.083664365,-0.064846136,0.036078557,0.07011893,-0.119966164,-0.08416075,0.059327364,0.12666878,0.10731512,-0.20672399,-0.0073357555,0.14020692,-0.114104554,0.15887249,-0.097086124,0.041160267,0.18916602,-0.18461154,-0.015693946,-0.009658936,-0.01652238,-0.07232546,0.14985338,-0.010351015,0.14283033,-0.030608563,0.10944394,0.001190885,0.11438598,-0.12881511,0.23525028,0.010402217,-0.13134669,-0.08055316,-0.10711572,0.058539636,-0.016463755,-0.0036533456,-0.036000863,0.059835974,0.044228643,0.09705667,0.008966492,0.06765707,-0.028320037,-0.030506397,0.027176233,-0.15052505,-0.07999953,-0.08524218,-0.15889978,-0.00792185,-0.09271533,-0.0067554894,-0.15998851,0.0050281677,0.2922786,-0.15176179,-0.1063761,0.11445454,0.033736203,-0.18975942,0.19437385,-0.03763385,0.05446409,-0.16616957,0.06264671,-0.03856171,-0.104508325,-0.070270546,-0.106852524,0.016511612,0.08499577,0.035859577,0.017204963,0.17734393,-0.081857204,0.022947222,-0.12984237,0.018050509,0.002352295,-0.1916772,0.2074757,-0.01752574,-0.0029488595,-0.09452273,-0.14345306,-0.048937257,-0.0113527095,0.05953848,-0.044538446,-0.049642265,0.1588984,-0.052134454,0.12163469,-0.08884619,0.03667617,0.043396804,0.17687875,-0.033416644,0.103949636,-0.14408688,0.07455547,0.022879982,-0.09142104,-0.031407163,0.010283123,0.022949874,0.07785859,0.008640925,-0.013370114,-0.02655997,0.12865266,0.050403066,0.0085766455,-0.0038964292,0.010568283,0.0397092,0.11590185,0.08632243,0.052500933
Chimney~Rabble,0.16209564,-0.2103426,0.11192685,-0.0019215493,0.07256153,-0.0034435443,0.06240513,0.08659046,0.07969834,-0.13410263,-0.108370855,-0.038699888,0.025902383,-0.039836053,0.14535008,0.03956196,0.09839085,0.16661863,-0.18510558,-0.0043751374,-0.10944001,-0.21220863,0.114778906,0.13240255,-0.020517409,-0.07512442,-0.08802329,0.050127212,0.27079526,-0.067475125,-0.05922055,0.203154,0.04448566,0.10162269,-0.11450119,0.1696884,0.08203389,0.097767554,0.14687659,0.22581185,0.15274332,-0.1271718,0.20394918,0.021958089,-0.10414555,0.23048194,-0.04800788,-0.04805005,0.090648174,-0.022583801,-0.19913743,0.11808383,0.22047105,0.014851848,-0.009962793,0.08275052,0.058449302,-0.108408436,0.0328759,0.002530646,-0.21843436,-0.05343776,0.08043727,0.13050681,-0.20640133,-0.032596644,0.13930734,0.01440773,-0.09131218,-0.03272161,-0.030561628,-0.059064213,0.16667317,0.19088514,0.061113466,0.025732303,0.097886354,0.010526115,-0.019028075,-0.052932575,-0.026228437,-0.17967056,-0.07254246,-0.26514584,0.095868126,0.17028828,0.27123234,0.17656688,0.00959937,-0.057762712,0.060141362,0.098870285,0.003671373,-0.011604892,-0.09341516,0.046746872,-0.20488136,-0.21266824,0.033738766,0.12490279,0.07121525,0.22836173,0.079681695,-0.18225236,0.11116302,-0.011687212,-0.33386296,-0.2495971,-0.25001216,0.122848496,0.094594486,-0.01998455,0.2865052,0.09376008,-0.056277175,0.026926648,0.072505206,-0.07850015,-0.06638753,-0.041761346,-0.05572496,0.05332267,0.31931642,0.012415957,-0.09950278,0.2847289,0.05518901,-0.14912523,-0.055713516,-0.22332297,0.044456076,0.09067523,0.023817822,0.03534241,0.07221933,0.1567839,0.0020558853,0.0956157,0.08094658,-0.0892335,-0.28210542,0.11670102,0.12957904,-0.039159358,-0.19254136,0.01661165,0.076705724,-0.28869045,0.07654105,0.05226048,-0.0676888,0.05085384,-0.10921824,0.050024383,-0.11417278,-0.08415228,0.06753441,0.16608463,-0.08006706,0.2009063,0.123596415,0.23676394,-0.0018425861,0.22280091,-0.12690601,0.120245874,-0.1332727,-0.19354281,-0.07752796,-0.025227748,0.0544883,-0.13239484,0.055160772,0.0505642,-0.15390319,-0.10530289,-0.018981917,-0.044021953,-0.027759746,-0.11045126,-0.0055849263,0.08285749,-0.056324244,-0.026121683,-0.0043759653,0.011011426,0.104184866,-0.09773074,-0.0030120476,-0.13510631,-0.0723371,0.191766,-0.21420725,-0.04862574,-0.07275477,0.06600409,-0.0830355,0.13389018,0.11592418,0.12132458,-0.1414288,0.07853492,-0.030670919,-0.07062204,-0.035418756,-0.093183175,-0.13864724,-0.029027665,0.14165746,-0.15991133,0.15315135,-0.011769101,0.10322255,-0.063397646,0.04126747,-0.013631065,-0.2201609,0.1191077,-0.12403858,-0.10675366,0.039054472,-0.047228448,0.08439416,0.15811042,0.038055163,-0.018519606,-0.015533973,0.037222095,0.12415782,0.12395099,-0.20806986,0.23913068,0.2658527,0.108759694,0.15553312,0.0820497,-0.03008107,-0.050464597,0.06636951,-0.095947735,-0.0015666524,-0.1354409,0.034347843,-0.041862752,-0.07596465,-0.07323011,-0.081779145,0.08919775,-0.12851095,0.0127429515,-0.2265451,0.13349023,-0.037180994,0.03785831,0.23974973,0.0078281555
Furnace~Strider,0.17316556,-0.26248038,0.17595138,-0.08859693,0.04297828,0.06718078,0.03175781,0.10674818,0.05452817,-0.0717398,-0.0676803,-0.07429444,-0.023848556,-0.020784775,0.09056398,0.007938387,-0.007668887,0.13997394,-0.09900425,-0.08353061,-0.07617341,-0.18658613,0.056488827,0.14504884,0.016295083,-0.12985095,-0.09437015,0.037563115,0.2461569,-0.053991683,-0.12450635,0.2010786,0.036139134,0.07543006,-0.14571075,0.14216746,0.02613228,0.08731712,0.02652143,0.22294681,0.09550538,-0.11533911,0.23443602,0.009433768,-0.07429902,0.22102591,-0.13978314,-0.0644986,0.10449577,-0.1062658,-0.14308152,0.082956575,0.15461163,-0.039216623,-0.030496387,0.07414589,0.15863852,-0.068252936,-0.034544006,-0.046115763,-0.27312526,-0.057726745,0.14051908,0.17985995,-0.13332692,-0.038222898,0.0808036,0.0040303953,-0.07202581,-0.08417411,-0.01944924,-0.004057708,0.19477317,0.10877618,-0.028464895,0.014691976,0.14546108,0.006569381,-0.01688284,-0.07860078,-0.031413246,-0.20003904,-0.1117867,-0.18339819,0.0017693978,0.20785734,0.29754862,0.17277285,0.07225688,-0.16430232,-0.038651183,0.058825873,0.036301285,-0.08743866,0.0026067824,0.047196627,-0.0994057,-0.38541144,-0.040807925,0.19805811,-0.030030305,0.20914297,0.04618577,-0.13499603,0.08654505,-0.00819071,-0.25838283,-0.2684982,-0.32352236,0.046200946,0.20885104,0.012984365,0.21949817,0.035880152,-0.03912729,0.06521383,0.0869562,-0.021648394,-0.030908868,0.040237457,-0.0129246,0.1814338,0.19657238,-0.018354647,-0.03240692,0.27632064,-0.01698794,-0.16068742,-0.080208145,-0.2043305,-0.034948222,0.056113612,0.01056767,-0.008098997,0.012047744,0.11673397,-0.02333302,0.021232873,0.050626356,-0.04880226,-0.27484077,0.031175759,0.15677875,-0.014769709,-0.17204128,-0.047073092,0.12883961,-0.25546086,0.08891902,-0.0033973455,0.08712027,0.11280615,-0.079225466,0.025831513,-0.13695711,0.020616703,0.037158508,0.12299732,-0.08553617,0.14254268,-0.0073278877,0.28132066,0.026833907,0.14228103,-0.09073407,0.15255012,-0.04258742,-0.15117623,-0.1321254,-0.039800465,0.019188445,-0.16171442,0.10600669,0.050163504,-0.057498287,-0.08781804,0.008758838,-0.106391996,-0.052078743,-0.016216753,-0.05856177,0.035405133,-0.12691638,-0.109405816,-0.053075053,-0.012055353,0.07894844,-0.17463933,0.04115013,-0.19855286,-0.17419013,0.24143796,-0.20357765,0.007869316,-0.0051487265,0.08013087,-0.1683697,0.082197644,0.0999807,0.11015099,-0.15970954,0.034429584,-0.057575196,-0.079088904,-0.026728306,-0.09975999,-0.100390874,0.027011653,0.058023237,-0.017467251,0.24413589,-0.06233959,0.0839142,-0.10545589,0.026874306,0.015163885,-0.23182425,0.060561597,-0.23639147,-0.0863849,0.084028795,-0.10667748,-0.09028793,0.22054477,0.102270454,0.035022236,-0.13259406,0.13542311,0.12880121,0.16327244,-0.22233729,0.21839282,0.23199937,0.105362296,0.12203517,0.12561096,0.045185138,-0.039892826,-0.073995605,-0.16689081,-0.016166098,-0.070210174,0.0532077,-0.046611402,-0.15038595,-0.04236357,-0.07734408,0.13771315,-0.09953113,-0.039781667,-0.17640752,0.052293126,-0.09491493,-0.024804676,0.20498593,-0.05862447
Planar~Disruption,-0.08491605,-0.23020278,0.015324204,-0.121401265,0.042532504,0.025118008,0.031761017,0.0832847,-0.0400053,0.00374413,0.023543471,-0.051586304,-0.068467654,0.08611481,0.060434043,-0.013162244,0.0069951885,0.045528047,-0.14979078,0.023526378,-0.012255399,-0.085067324,-0.0741833,0.10132953,-0.087819405,0.019005165,0.08316198,0.002482019,0.1918147,-0.052385572,-0.123972856,0.14005569,-0.087207034,0.010214605,-0.12403308,-0.019389967,0.078508824,0.14855438,0.004545224,0.11868629,0.016303234,0.095958516,0.23991898,0.19089025,-0.08217667,0.048324537,-0.10436235,0.01658947,0.06935154,0.06285608,-0.17646316,0.06426843,0.02818541,0.21007988,0.14721742,-0.1790019,-0.049099877,-0.010533604,-0.06471642,0.029921398,0.085344106,0.016440513,-0.113028586,0.18084149,-0.060706154,-0.025699878,0.07628052,0.043352526,0.048471693,-0.079374015,0.08409621,-0.13965473,0.023712328,-0.0213578,-0.087167256,0.06544226,-0.08643085,-0.113472015,-0.05538399,0.11614846,-0.09232277,-0.0280305,0.0062611154,-0.11993257,0.06685676,0.085189395,0.08621247,-0.01595093,-0.17329781,-0.014575161,0.09338828,-0.072584145,-0.016840918,0.017916385,-0.02030022,0.0062340037,-0.10066125,-0.24273558,0.021585051,0.018844938,0.012112389,0.116851375,0.06991708,0.024163265,0.055578064,-0.0069175162,-0.15611772,-0.09376779,0.022615658,-0.056679532,0.06941381,-0.03108091,-0.035718594,0.09987519,-0.06435575,-0.05905761,0.033439953,-0.09576757,0.025106363,0.017391348,-0.08158133,-0.17076473,0.04710602,0.047587432,-0.137552,0.1883585,-0.037344966,-0.04466318,-0.114754274,-0.0502633,0.030681351,-0.024618374,0.04927796,0.030554567,0.20481886,-0.019685816,-0.19379379,0.033007786,0.06663609,-0.080939874,-0.065055415,0.087914236,0.05999742,0.13397783,0.019615114,0.007548174,-0.13753583,-0.104644164,0.011060168,-0.17768525,0.023843627,-0.09965617,-0.04314068,0.01640456,-0.11669905,-0.12557147,0.04924438,-0.020599851,-0.11279521,0.10995003,0.06113295,0.19281578,0.07598317,0.18249677,-0.12838516,0.032938633,-0.13568957,-0.025959767,0.030330572,0.17086752,0.031635396,0.005503299,-0.0031575721,0.001901894,0.069732234,0.0043174606,-0.06920036,-0.0845278,0.04392999,0.17951114,-0.09728067,0.09249772,-0.10894714,-0.05981801,-0.113373585,0.005377538,-0.015481683,-0.047805283,-0.024754645,-0.05647292,0.23863736,0.13302487,0.041537415,-0.06403856,-0.03135501,-0.056931105,0.063250385,0.05906525,0.0848544,0.01495877,0.06251293,-0.042766094,-0.10408122,0.09157143,0.059510764,0.02581667,0.07266088,0.009517851,-0.0043657273,-0.051923156,-0.039513655,0.005135882,-0.022974294,0.12058387,0.021701533,-0.17826284,-0.1359724,0.22798233,0.004659255,-0.15516667,0.09134109,-0.10480891,-0.006321474,-0.067629725,-0.027188875,-0.22251138,-0.021980604,-0.012191797,0.11187115,0.18641175,0.0070265178,0.021821577,0.17441052,0.10225255,0.049852427,0.027449723,0.17677169,-0.060067903,-0.08913748,0.08815883,0.05828968,-0.04205336,0.07742099,0.05043535,-0.17955795,-0.122572854,-0.023470733,0.109470606,-0.10379426,0.02570626,-0.021064026,0.10033526,-0.053610966,0.10456086,0.11096405,0.029580066
Lattice-Blade~Mantis,0.0045707365,-0.144609,-0.013456201,-0.044908315,0.043333326,-0.08761371,0.12098239,0.0630143,0.16896251,-0.01815239,0.1560708,0.04687825,-0.13450737,0.04384637,0.057459917,-0.0301234,-0.058194123,-0.17976683,-0.29074618,0.012681338,-0.099786215,-0.17957701,0.035818525,-0.03750551,0.015688093,-0.0670772,-0.12476495,0.21342997,0.19520085,0.10099764,-0.06893879,0.07969618,0.16495363,-0.09358733,-0.037121974,0.14800005,-0.0035843567,-0.112512045,-0.032256022,0.14106792,0.24261793,-0.014284434,0.1315274,0.072984874,0.006268534,0.013742588,0.028313544,-0.17845875,-0.123544306,-0.06845911,-0.19827503,0.085559264,-0.01251965,-0.014539261,0.10609508,0.19819601,0.05483989,-0.017860817,-0.03272109,0.026900914,-0.14346652,-0.06125562,0.21516207,-0.16010162,-0.052726526,-0.079722054,0.09188445,0.06416148,0.040646978,0.07578559,0.06953196,-0.22269744,0.13535534,0.14239064,0.13044263,-0.13203081,0.12981863,0.021980822,0.06599064,-0.038640585,-0.09791399,-0.15518786,0.014051299,-0.20570342,0.113868766,0.13310522,0.13581885,0.18325914,0.022333683,-0.09622095,-0.047613073,-0.04148108,-0.21689314,-0.021446139,-0.21918918,0.11889923,-0.0022445288,-0.29003325,0.003056397,0.12627205,0.033730518,0.3173632,0.122102655,-0.045430273,-0.00023228636,-0.021989513,-0.18969686,-0.16594177,-0.22318034,0.14596751,0.19292234,-0.053639807,0.28307092,0.08051586,-0.1270094,-0.07039353,0.13432191,0.08367678,0.083289035,0.054151744,-0.032100677,-0.0060550584,0.23674084,-0.015292892,-0.12889141,0.10364615,0.008221566,0.020097848,-0.107804425,-0.14978111,0.014827684,0.1927848,-0.00060452963,-0.042767152,0.021625968,0.06228221,0.02793166,-0.025564289,0.09550169,-0.11946237,-0.13540626,0.091435455,0.18855247,0.13753416,-0.23739083,-0.01897587,0.22032258,-0.18201713,0.17701198,-0.016344752,0.037163623,0.19817293,-0.20420682,-0.026518827,0.002918352,-0.10330938,-0.11218327,0.09715892,-0.0075303,0.14336185,-0.010467058,0.14404978,-0.024385603,0.1376515,-0.094059266,0.23667283,-0.032323055,-0.22117093,-0.0864044,-0.0763018,0.0498116,-0.05314499,0.084432185,-0.07588511,0.020598931,-0.055038746,0.055841006,0.016179625,-0.0138889,-0.012724674,-0.03104442,-0.031732596,-0.172909,-0.03332864,-0.1707022,-0.10168306,0.02514202,-0.12484706,0.053627104,-0.20014407,-0.048256047,0.423981,-0.23481262,-0.03938848,0.110140435,0.004156472,-0.23078014,0.09245017,-0.024149168,0.113402225,-0.11119002,0.081676625,-0.0015129311,-0.11965374,-0.051705584,-0.11975305,-0.053776167,0.020367071,0.081238076,0.053138666,0.2209821,-0.101742774,0.041607585,-0.08596572,0.033328954,0.049668424,-0.2128311,0.29704115,-0.17757265,0.030351631,-0.09138454,-0.164567,-0.0052336776,-0.0037718269,0.09163936,-0.07268561,-0.011001427,0.2059973,0.027139144,0.11118403,-0.18588229,0.1082242,0.10141899,0.15562952,-0.01623542,0.0694018,-0.0011553235,-0.010889519,-0.019635892,-0.14490445,-0.103033595,-0.1007854,0.0035628742,0.047780745,0.12439474,-0.03909421,-0.02639452,0.18431048,-0.066074476,-0.11021164,-0.093791105,0.041716844,0.06867263,0.1317852,0.16714074,0.045767035
Terramorphic~Expanse,0.063661195,-0.08386381,0.07336018,-0.16572632,-0.0031967366,0.040412452,-0.016518394,0.04798155,0.087555274,0.032474183,-0.016714897,0.1225778,-0.015941992,-0.06766966,0.02557485,-0.052395083,-0.01589823,-0.10755024,-0.010898184,-0.033241685,-0.030044166,-0.12370661,0.056976642,0.020511009,-0.02011712,-0.041294243,-0.028816564,0.07535704,0.19828494,0.038157,-0.17367843,0.0125888735,-0.052390568,0.036848158,-0.05947304,0.11659905,-0.025541749,0.041510105,-0.10854403,0.13028407,0.060797397,-0.032479405,0.033330157,0.054497626,-0.060233254,0.077990994,-0.004121893,0.038621355,0.019244537,-0.10041735,-0.007279909,0.053098686,0.11744711,0.08355355,0.09576233,0.0782503,0.021688916,-0.05094788,-0.030268645,0.098854885,-0.023082571,-0.01796199,0.055803902,-0.0556635,-0.058236018,-0.025656916,0.050324537,0.11521268,-0.09278515,-0.048847117,-0.039229512,0.008846428,-0.041991465,0.03804179,-0.10647845,0.023302684,-0.021068888,0.07645107,-0.011767859,-0.06589718,-0.16765982,-0.054722555,0.09772866,-0.10439637,0.051594608,0.17774896,0.14376348,0.08087793,-0.15206328,-0.113600425,0.028005231,-0.12978819,-0.0072467714,-0.032872554,-0.18805513,0.011712454,0.078043796,-0.13726743,0.16228983,0.13021778,0.041655093,0.174293,0.014825268,0.03025811,0.09179837,-0.011518183,-0.114755355,-0.2538247,-0.02300082,-0.011900506,0.10566867,-0.043449197,0.059501965,-0.043112826,-0.10510746,-0.171316,-0.0033792076,0.0037378299,-0.0887691,0.09593688,0.010052458,-0.03789964,0.08620233,-0.025568984,-0.07068852,-0.017401028,-0.046086654,0.028532974,-0.12597133,0.04873492,-0.13110544,0.062889256,0.065125085,0.14890759,0.0599296,-0.010260441,-0.12554811,0.05605519,0.061851207,0.029278388,-0.02841335,-0.010152944,0.09207276,-0.025918229,-0.13734086,-0.039375417,0.039784927,-0.11710492,0.06343267,-0.06565522,-0.014107764,0.10620412,0.038144954,0.049335986,-0.028871035,0.011121567,-0.09038743,0.14754058,-0.041133657,0.09714273,-0.09112513,0.14693883,0.12102339,0.026365241,-0.15702936,0.007628263,-0.029746417,0.0071308687,0.020297172,-0.08437632,-0.016109271,-0.124181814,0.06443333,-0.048975814,0.010040327,0.039414562,0.00888968,-0.08365142,0.022583844,0.100424685,-0.05486725,0.042819988,-0.041389994,-0.16526975,0.07034341,-0.042176735,-0.07148992,0.0023491355,-0.0609598,-0.13181366,0.011462229,0.09046897,-0.034279287,-0.1525058,0.065960996,0.073996514,-0.10587173,0.07254896,-0.03662387,0.049027085,0.010097188,0.03499383,-0.0021767442,0.040358182,0.060299855,-0.07411202,-0.014722558,0.057847273,-0.0042452957,0.10978385,0.059404016,-0.022389498,-0.05101874,-0.097341605,0.020155195,-0.15517165,-0.055715356,0.20178874,0.06163303,-0.056853496,0.015599986,-0.07928522,-0.09410458,-0.019092888,0.0033470178,0.002226785,-0.15017019,-0.04114143,0.10529535,0.108876325,0.021973798,-0.06674519,0.12590796,0.036909595,-0.016469503,0.064197876,0.17424068,-0.07180316,0.029116886,0.018631091,0.08471485,-0.014802026,0.009915323,0.15244472,0.094712526,-0.08573435,0.0005167328,0.16931386,0.013918073,-0.006352556,-0.033320513,0.026078312,0.02482391,0.019249419,0.03162196,0.10906608
Ruthless~Predation,-0.0626278,-0.1368694,-0.04828317,-0.055689696,0.02264276,-0.04793983,0.077620365,-0.02521772,0.17375022,-0.028525122,0.14088173,0.058208033,-0.060918316,0.11772243,0.07156154,-0.08168424,-0.04501255,-0.19931719,-0.178901,-0.024094604,-0.038711905,-0.15433086,0.095975466,-0.06383304,0.032579936,-0.042448923,-0.013102585,0.16294374,0.16389848,0.058272846,-0.08780936,0.16294399,0.06002507,-0.054491263,0.009258994,0.1102894,-0.028247062,-0.09006066,-0.060839307,0.03577083,0.124244235,-0.0051020198,0.1339526,0.06533167,0.018977797,0.018011356,0.062028065,-0.01550817,-0.096129335,-0.027355853,-0.21531038,0.031194482,-0.045091767,0.074998625,0.103698544,0.22783332,0.1067483,-0.051068805,0.02286093,-0.00316204,-0.02899103,-0.009626917,0.097141586,-0.17846927,-0.040529273,-0.16922937,0.08144531,-0.046507217,0.1153361,0.030631693,0.09327828,-0.13794842,-0.034737907,0.09152148,0.0039045047,-0.14793819,0.03031409,-0.082833685,0.035697535,0.026457261,-0.08849486,-0.10119335,-0.0797523,-0.077844895,0.031339522,0.12600964,0.11662984,0.096542895,0.08550136,-0.14842863,-0.0648668,-0.1224076,-0.16252637,0.03722144,-0.12649512,0.10537367,0.062435966,-0.33862758,0.07031616,0.06934715,-0.04654503,0.31397104,0.11119484,-0.044808578,-0.00919483,0.019385962,-0.20078374,-0.114879705,-0.11372335,0.13183603,0.17408507,-0.03099977,0.22096744,0.08961431,-0.07802798,-0.098500565,0.10398354,0.09139901,0.06329955,0.069077194,-0.036098845,0.012348219,0.20148191,-0.106675945,-0.12235083,0.04941808,0.038798515,0.029067809,-0.08365558,-0.065391526,0.05922835,0.15647016,-0.06629619,0.0053480854,0.017059853,0.14975005,0.005636393,-0.0059764995,0.103621356,-0.16248183,-0.049261764,-0.0061335377,0.09210517,0.13149896,-0.2334599,-0.028818568,0.12635708,-0.19324552,0.19733994,-0.119831845,0.0737172,0.2187095,-0.20959212,-0.00024048133,0.0025528553,-0.024785131,-0.03479107,0.044654533,-0.02585994,0.11443621,0.0021380156,0.13307916,-0.051012237,0.09040966,-0.05654751,0.25220028,0.010657601,-0.101789705,0.03539642,-0.11284756,-0.033236798,-0.04148276,0.025426215,0.04499328,0.036036164,-0.10970682,0.035330277,-0.013234152,-0.0039684316,-0.00040560175,-0.010973045,0.009415809,-0.14977182,-0.060736872,-0.18033114,-0.13221411,0.039836105,-0.07732465,0.020228088,-0.11443498,0.04181773,0.3123604,-0.1683656,-0.07910379,0.16889183,0.032980893,-0.18004349,0.13805929,-0.0010434502,0.051724076,-0.16548526,0.082948044,0.0043832413,-0.10734745,-0.09627534,-0.11742586,0.02252962,0.073163405,0.111778215,-0.016419979,0.21067767,-0.081722066,0.002948378,-0.029402066,0.06139636,-0.04709121,-0.15642896,0.2254477,-0.14695469,0.00301938,-0.11535842,-0.1662818,-0.038032096,-0.06188288,0.07471423,-0.016645553,-0.08819489,0.21077771,0.020394325,0.15267299,-0.119036384,-0.018331805,0.10067141,0.14861725,0.019041823,0.03085824,-0.08460474,-0.009509114,-0.059466507,-0.13069199,-0.022259142,-0.060296085,-0.0011550942,0.102659404,0.006970237,-0.06431957,-0.02833162,0.18339519,0.01616105,-0.017856013,-0.038060576,0.016785158,0.057881854,0.10669293,0.14679533,0.05258031
Duelist~of~Deep~Faith,-0.118040934,-0.2874243,-0.044876784,0.016407467,0.07222373,0.03255452,0.09351918,-0.02982985,-0.022280984,0.007816986,-0.0064295367,-0.0021181866,-0.019132683,0.19725505,0.101394035,0.012675603,0.010234954,0.07112747,-0.13437428,0.057702,-0.021602102,-0.112999514,-0.03981817,0.14595307,0.07141509,-0.0027207402,-0.07039002,0.058825076,0.29639712,-0.058238607,-0.12306692,0.16587028,0.064329654,-0.017628165,-0.12633258,-0.08596952,0.029566439,0.030270388,0.058952305,0.05958953,-0.023692546,0.0907528,0.29086322,0.11666416,-0.019978737,0.007029066,-0.041510846,0.035700526,0.0930962,0.085479625,-0.077034,0.18926334,-0.04225075,0.1903998,0.1598388,-0.18345848,0.060451977,0.012989472,-0.10188541,0.051488448,0.041110992,-0.022959245,-0.114073314,0.26336896,-0.050330024,-0.010558391,0.15523952,0.04014395,-0.07147153,-0.16201684,0.0327908,-0.14274764,-0.029309412,0.06566337,-0.07941113,0.10101081,-0.07928026,-0.12418936,-0.005663561,0.023780033,-0.08333963,-0.04417562,0.0025267554,-0.15347742,0.063311346,0.08564535,0.18198662,0.009990433,-0.1408186,-0.0013540125,-0.015077134,-0.14554639,-0.090579964,-0.031014323,-0.060277794,0.055191863,-0.050227914,-0.19181451,0.05533565,-0.02151513,0.029314457,0.1285795,0.07913599,0.0024046525,0.08887322,-0.028575597,-0.1737279,0.054280136,-0.10804301,-0.042109054,0.072624154,-0.04512493,-0.09725156,0.067897156,-0.099944875,-0.10291744,0.08119764,-0.17119583,0.037865903,-0.09011527,-0.005704062,-0.2236865,0.20063406,0.018720608,-0.26385355,0.14678034,-0.043328777,-0.122315906,-0.114787854,-0.012392876,0.067511134,-0.017532434,0.13739035,0.029402226,0.20305493,-0.011119475,-0.24591337,0.058934156,0.034690153,-0.051603664,-0.04056003,0.13448198,0.03259864,0.1808229,0.021151084,0.04236129,-0.12837794,0.00058532297,0.103374414,-0.20186287,0.044693902,-0.06896705,-0.13100216,0.035626087,-0.097478986,-0.20063426,-0.04034005,-0.035711005,-0.1911803,0.004302436,0.07976513,0.13805906,0.15552858,0.23437959,-0.038277104,0.0069249864,-0.12155103,-0.07466371,0.027446734,0.09196963,-0.00024749787,0.0287962,-0.046870895,0.020604286,0.11464847,0.086529866,-0.09898682,0.045689877,0.035144888,0.12169606,-0.049446706,0.10457889,-0.07625747,-0.061653506,-0.13154006,0.044839587,0.018597469,-0.14059964,-0.029580021,-0.09005509,0.28403226,0.1794829,0.016624903,-0.06982809,-0.14457051,0.027571779,0.08941348,0.20288429,0.013506896,0.13012077,0.036590397,0.10276574,-0.062549986,0.008300677,0.04190238,0.1428296,-0.028379409,-0.028878389,-0.022213427,-0.049677532,-0.04487716,-0.03759069,0.0025758212,0.1469607,-0.033487335,-0.083248526,-0.14407688,0.2903572,0.12716445,-0.17399973,-0.02792496,-0.1351929,0.06603812,-0.032689705,0.012132798,-0.3083067,0.11375246,0.0045128195,0.090332694,0.18756786,0.03376337,-0.018120993,0.04288893,0.026255162,-0.009023031,0.09065859,0.10169564,-0.12120699,0.015629385,0.010702837,0.0037663835,-0.04198154,0.008837508,-0.12040566,-0.11912434,-0.038946133,-0.021420062,0.03426658,-0.090346105,-0.0072403154,-0.023694983,0.15769538,-0.05407827,0.16777855,0.0932815,0.0020163727
Crawling~Chorus,-0.14316715,-0.3088914,-0.015037763,0.01747729,0.034547005,0.041029617,0.0642514,0.0045012734,-0.044744693,0.0011784404,0.018843837,-0.032089278,0.0031003617,0.173934,0.1042126,-0.024033248,-0.08833901,0.04866497,-0.098162964,0.058949444,-0.012766271,-0.12562348,-0.047726016,0.25805497,0.008186083,0.00066937093,-0.030205375,0.06473215,0.2770523,-0.039985023,-0.10855158,0.1652658,0.06758392,-0.017483212,-0.11273197,0.0077568856,0.017116426,0.031748693,0.07658356,0.06478717,-0.04579817,0.11314456,0.28326738,0.10263552,-0.012166359,-0.019281093,0.037634432,0.081467725,0.07230528,0.040947907,-0.064371586,0.18351686,-0.09608698,0.1846632,0.14435114,-0.175598,-0.028814329,0.012531587,-0.082709394,0.056263164,0.021943798,-0.0037111286,-0.04059754,0.19394153,-0.10724009,-0.049820073,0.18223979,0.032013077,0.02340691,-0.16927962,0.08833637,-0.10266887,-0.09342986,0.041479215,-0.06858503,0.094730034,-0.16798854,-0.113859996,-0.04135588,0.07181811,-0.14698054,-0.103915684,-0.0011277661,-0.107982785,0.05385106,0.11870942,0.2107195,-0.06814451,-0.06938812,-0.018804403,0.027123185,-0.13446842,-0.13616902,-0.030807583,-0.06698617,0.05217811,-0.091155596,-0.20175731,0.034145948,-0.08172247,0.0454505,0.048728608,0.018411735,0.020968642,0.024618894,-0.020918902,-0.17793219,0.038811415,-0.13822064,-0.009680398,0.12105547,-0.17314006,-0.052254744,0.038750455,-0.033562005,-0.11504541,-0.020420227,-0.20113838,0.0028393199,-0.0066679404,0.013802698,-0.2715664,0.19729401,0.029497774,-0.32936016,0.13924342,-0.09976533,-0.059543934,-0.07576536,-0.022582661,0.12017446,0.026928015,0.016197184,0.036228325,0.25257036,-0.07946723,-0.2668736,0.078818575,0.082297884,-0.09198149,-0.07328402,0.15593117,0.013097839,0.22964077,0.05190055,0.017578436,-0.12538683,0.023886831,0.069478616,-0.18383364,0.030714812,-0.08549178,-0.16387907,0.045457892,-0.038683977,-0.1482143,-0.05281563,-0.0762434,-0.13885604,0.056631077,0.09892466,0.15003544,0.06911754,0.27580887,-0.008492334,0.033759385,-0.103789836,-0.090245545,0.0066247573,0.043569274,0.056019727,0.013937348,-0.058378432,0.00077297655,0.060495313,0.09204962,-0.077126004,0.09241328,0.062066555,0.106543586,-0.12477444,0.192192,-0.112427115,-0.014797262,-0.16886622,0.03483767,-0.007193566,-0.10267698,0.016065637,-0.05398288,0.21779945,0.15448903,0.06800174,-0.093033716,-0.06136998,-0.07211326,0.051854607,0.119098336,0.07905966,0.1776443,0.03701692,0.1517597,-0.006790769,0.15337539,0.047576554,0.15888697,0.007624916,-0.044535514,-0.015697027,-0.0714297,-0.0017940135,0.029266361,-0.01901551,0.14642376,-0.071871586,-0.1303041,-0.12818779,0.23434004,0.062057547,-0.13505742,-0.013900671,-0.16815357,0.06660773,-0.0774104,-0.026137846,-0.33233768,0.12973583,0.03563559,0.0057268813,0.06910012,0.009970989,-0.01677779,0.046099056,0.07973881,0.03195243,0.115195684,0.020248719,-0.085634746,0.03505527,-0.0077492553,0.03378013,-0.047885768,-0.012605461,-0.12401099,-0.08209906,-0.123750776,-0.07314374,0.110803366,-0.0801517,0.04059597,-0.014317295,0.08575515,-0.067840524,0.08036954,0.11763613,0.012427145
Rustvine~Cultivator,-0.08888653,-0.18153302,0.015519122,-0.17442515,0.0050231344,-0.07551408,0.10251471,0.07929575,0.13688466,-0.031387318,0.2574979,0.02220334,-0.012848142,0.08122478,0.07418366,0.036444813,-0.0010582177,-0.19793954,-0.12999362,-0.120187655,-0.060016952,-0.25435668,0.07617038,0.012612245,-0.0063021714,-0.15706831,-0.082964785,0.1755558,0.13910533,0.091444746,-0.032772556,0.07217255,0.14942744,0.015835186,-0.03149234,0.13590138,-0.06230834,-0.075039074,0.012901356,0.065525085,0.18818045,0.08972712,0.08537307,0.11378651,-0.0077872556,-0.0045267357,0.044963315,-0.026420465,-0.09388339,0.018104551,-0.17447174,0.08853669,0.024037864,-0.01932634,0.10333412,0.20691921,-0.0031482975,0.026589321,-0.012547959,0.019189768,-0.2034324,0.058034107,0.09558576,-0.22627284,-0.1331275,-0.09836331,0.06318586,0.053752005,0.029492855,0.029564148,0.0020792035,-0.23514248,0.05567902,0.13412407,0.047435988,-0.11848103,0.06903001,-0.036464673,0.038444914,0.0050113257,-0.12097527,-0.1034618,-0.06385872,-0.12650684,0.069854915,0.074253194,0.13934313,0.15393329,0.02638984,-0.2006078,-0.13078506,-0.14487267,-0.20396179,-0.028307155,-0.1404817,0.20327292,-0.037627712,-0.30467293,0.028162548,0.064255625,-0.048320647,0.41074845,0.06465024,-0.06621884,0.054853782,0.08404224,-0.16326495,-0.2041358,-0.21137506,0.101869665,0.18309228,-0.06364738,0.2929143,-0.0017016785,-0.07240147,-0.14570951,0.123481385,0.05068369,0.13261916,0.087869845,-0.051602405,0.09741964,0.17783748,-0.07254449,-0.12586299,0.05464371,-0.0868566,0.13059396,-0.08597074,-0.123858154,-0.030122247,0.21599478,-0.013803307,0.0337716,0.07035591,0.08267332,0.07928583,-0.0018956938,0.044575583,-0.1211324,-0.06969932,-0.0013306185,0.13586259,0.15268365,-0.30032456,0.013660803,0.16827524,-0.1279686,0.14091192,-0.033254877,0.02733618,0.25630462,-0.15499619,0.00946886,-0.0021807458,-0.04307269,-0.033139944,0.13725263,0.0057131103,0.160804,-0.01639397,0.13937815,-0.009199318,0.0483283,-0.10966126,0.27210042,0.010594562,-0.12658189,-0.083756745,-0.123349644,0.039896328,-0.046386383,0.043056253,-0.047470205,0.038313944,0.016083168,0.14373098,0.09560255,-0.027012132,-0.0019109071,0.0033990163,-0.03707441,-0.18236594,-0.15445961,-0.16193877,-0.10860676,0.0066782646,-0.12493884,-0.04581136,-0.23164992,-0.08332858,0.4375504,-0.19390316,-0.009603325,0.06894831,0.0572313,-0.23593846,0.09706144,-0.015961332,0.10956909,-0.14746377,0.00948337,-0.03789453,-0.15695268,-0.005738635,-0.115722984,-0.06935563,0.06739852,0.106009535,0.015290623,0.14030391,-0.12731138,0.075015135,-0.1694466,-0.0007576104,0.08272394,-0.25070596,0.3319849,-0.10972367,0.0004527249,-0.10130763,-0.21403539,0.021821782,-0.0052650236,0.061878894,-0.07511755,-0.026725661,0.20593928,-0.035959262,0.04662718,-0.10156317,0.0290782,0.15315945,0.17695238,-0.019041687,0.11393683,-0.03226723,0.037867546,-0.020339968,-0.17358524,-0.050480526,-0.080061525,0.04000902,0.028456662,-0.036053877,-0.0101255765,-0.07931006,0.12108131,-0.029891977,-0.08987206,-0.056694426,-0.0047124084,0.022288362,-0.025334235,0.102493815,0.029261399
Predation~Steward,-0.00093661266,-0.13827412,0.043925162,-0.13916847,0.015104561,-0.0017899622,0.12510587,0.012179631,0.14425379,-0.021377362,0.21837291,-0.048239186,-0.056428686,0.07849277,0.089356884,-0.06022031,0.009953134,-0.21975398,-0.1558238,-0.095249884,-0.10639881,-0.26789954,0.053177755,-0.013499335,0.0210682,-0.14120753,-0.10298574,0.1907874,0.2862011,0.04055831,-0.117692605,0.1208603,0.18246134,-0.028593477,-0.06332335,0.16043337,-0.03541053,-0.076150134,-0.016078468,0.069504745,0.16906568,0.10273136,0.12763622,0.07150886,0.05535424,-0.006347413,-0.008139566,-0.0046358677,-0.0389813,-0.05416545,-0.16160807,0.06909507,-0.02220406,0.018395135,0.056202136,0.22311041,0.07540291,0.05126028,-0.039707493,0.027155548,-0.16679248,0.0022552682,0.16240907,-0.17013665,-0.01197088,-0.1062808,0.12316787,0.016863033,0.071960345,0.048785273,-0.019520814,-0.18720557,0.06358979,0.11101937,0.056643512,-0.1032782,0.1578661,-0.044899218,0.053814143,-0.055041485,-0.061166003,-0.08617576,-0.04286157,-0.18603115,0.017400734,0.14303842,0.12877424,0.16932203,0.04284908,-0.15291783,-0.03128472,-0.09418516,-0.1899219,-0.03133318,-0.17437078,0.15683177,0.05092364,-0.31300944,0.019858204,0.11204087,0.053142995,0.42846572,0.08032827,-0.04931165,0.12174736,0.008958204,-0.138249,-0.101828724,-0.17120625,0.18437895,0.15715072,-0.017882572,0.28038174,0.06127382,-0.15225205,-0.1034058,0.13257381,0.09032496,0.06338163,0.026038263,-0.004482366,0.07036033,0.27268046,-0.06541075,-0.1353908,0.055818174,-0.02596829,-0.016329244,-0.092482805,-0.14934155,0.07100028,0.13321163,-0.02228623,-0.043944687,0.031365126,0.11431599,0.087236285,0.08973207,0.084836684,-0.11554866,-0.14392178,-0.0021858984,0.09844115,0.2196087,-0.251849,0.008324259,0.23258309,-0.17964037,0.1817131,0.0010893338,0.10199734,0.3243185,-0.20630018,-0.04331647,-0.0228207,-0.07958399,-0.08512615,0.11323973,-0.030435236,0.112758376,-0.052757975,0.12604445,-0.05600486,0.13495745,-0.054924436,0.30055594,-0.02678226,-0.15935692,-0.0591919,-0.12893827,-0.029014213,-0.07031253,0.05036456,0.0029293895,0.005270353,-0.03584673,0.12855186,-0.011423948,-0.05773051,-0.0053770985,-0.0088503435,-0.0551465,-0.18209371,-0.10546055,-0.15441824,-0.117358685,0.10060979,-0.09142998,0.05141882,-0.18379214,-0.10067836,0.5120679,-0.28416422,0.0100385435,0.0887804,0.0847289,-0.23390423,0.11168259,-0.036785815,0.021790233,-0.20392603,0.030809484,-0.06783697,-0.09191469,-0.04948627,-0.12847519,-0.053504754,0.050134882,0.091027975,-0.011415556,0.1965575,-0.113806024,0.058161702,-0.16902977,-0.009534941,0.06498698,-0.20370905,0.2663807,-0.17565094,0.04845992,-0.08395423,-0.18547086,-0.00048615364,0.026824579,0.08057971,-0.009674763,-0.04038354,0.19278017,-0.041458763,0.17202847,-0.11368694,0.033851866,0.13336077,0.15521254,-0.0042376732,0.04463349,-0.0904554,0.01609404,-0.04130339,-0.16437148,-0.10486851,-0.10303641,-0.021331374,-0.0046753446,0.07842458,0.004675236,-0.04986899,0.14574248,-0.036330804,-0.07000598,-0.076212235,0.029768936,0.025499301,-0.0055262595,0.100410685,0.08672985
Mandible~Justiciar,0.017798662,-0.2703697,0.14334925,-0.05769695,0.07903897,0.15704714,0.016442906,0.03446202,-0.10366392,0.10941234,0.055957023,0.021666007,-0.1440718,-0.0021019669,-0.037067354,-0.06897278,0.06432843,0.16642119,-0.1826525,0.02208523,-0.03210756,-0.07148817,-0.0837249,0.114805155,-0.1328113,0.0119251525,-0.018427001,-0.034879707,0.19388287,-0.041136194,-0.0868608,0.027809279,-0.06538446,0.1052601,-0.0818509,-0.05936545,0.122037254,0.10945767,-0.016904704,0.13545237,0.08908551,0.09662956,0.30101025,0.15404038,-0.14008833,0.0030486756,-0.25027564,0.15414388,0.19149771,0.11836688,-0.10867356,0.0865241,0.026997214,0.22182897,0.14326748,-0.18919432,-0.06149998,-0.03730084,-0.14500639,0.08285745,0.08073356,-0.09198552,-0.077765204,0.2868028,-0.13022539,0.09337224,0.09399284,0.033783916,0.01849265,-0.054111145,0.06892611,-0.2006572,0.118298054,-0.07787626,-0.07268251,0.15382709,-0.13137242,-0.21346149,-0.059039854,0.014538227,-0.02793964,0.00575432,0.03814229,-0.2307646,0.07683576,0.08539109,0.093728215,-0.031439416,-0.19422652,0.020960933,0.119088866,-0.030201979,0.0908823,0.010250341,-0.052506026,0.07269637,-0.1441515,-0.16974409,-0.05329989,0.13366921,-0.08379235,0.15371223,0.13917337,-0.022476964,-0.02731981,0.05748954,-0.047121797,-0.11677362,-0.063488,-0.14982651,0.05309534,-0.11423493,-0.037139516,0.1762248,-0.08520813,0.027498515,0.019056354,-0.090993494,0.08437832,-0.05856333,-0.1692454,-0.11843386,0.07600474,0.18539147,-0.23848142,0.23419885,-0.15891555,-0.030175714,-0.24772066,-0.077901505,0.049519602,-0.07208609,-0.001519606,0.019682845,0.27776712,-0.06483539,-0.19364561,0.029154228,0.047443092,-0.03585001,-0.13427606,0.020342508,0.07556518,0.09454656,0.06549895,0.07851957,-0.0707268,-0.14185752,-0.05444228,-0.22375698,0.008089099,-0.21440035,0.06026463,-0.056745384,-0.22865336,-0.09480693,-0.0003009441,0.033021733,-0.12707901,0.09334297,0.06404478,0.18288143,0.10807638,0.21742906,-0.21980903,-3.514385e-05,-0.12204396,-0.009429122,-0.106649324,0.2595311,0.060237788,-0.012726263,0.055812906,-0.026900128,-0.012117666,0.055838447,-0.043684475,-0.09975332,0.06927152,0.14414096,-0.08416409,0.09789675,-0.053952985,-0.09200547,-0.06694018,-0.046618678,0.044569246,-0.088673286,0.14717056,-0.063104115,0.23173915,0.12671101,0.050833322,-0.00936035,0.013071899,0.08170616,0.15699151,0.038393278,0.08930054,0.023926642,0.19474801,-0.05677447,-0.1776593,0.10441308,0.081604965,-0.018095886,-0.020114359,-0.11175234,0.008895154,-0.15673803,-0.1089473,0.13020219,-0.022058679,0.14566615,-0.065652125,-0.22471982,-0.13005263,0.22539887,-0.08196812,-0.10068866,0.11945969,-0.10586884,0.044583168,-0.0113693755,0.023175502,-0.2595473,-0.01580138,-0.038883496,0.17047521,0.1769052,-0.0335172,0.0041310797,0.23220092,0.06933998,0.050022107,0.07534016,0.25816095,-0.138054,0.042537235,0.15384944,0.057483587,-0.09843449,0.13859929,-0.039591365,-0.08527651,-0.12965068,0.02436928,0.012099409,-0.3096292,0.10089991,-0.0901795,0.13337106,-0.034129318,0.01663267,0.22393611,0.13427417
Dune~Mover,-0.019834323,-0.06990603,0.103347585,-0.08089237,-0.08289435,0.062541306,0.021062693,0.04783671,-0.023158712,-0.09744692,0.03946906,0.08053089,0.05285884,0.0438402,-0.0025307678,-0.09485013,-0.007160087,-0.06338759,-0.0068881763,-0.05357311,0.046664726,-0.18047059,0.0113592865,0.069386065,0.0044093095,-0.043001138,-0.013290401,0.12540334,0.28308514,0.04656949,-0.13419902,0.02661278,-0.062079404,0.022112085,0.021316426,0.058816608,-0.098041214,0.06808326,-0.07280169,0.012501742,0.011063249,0.07032319,0.026610885,0.057474673,-0.028343845,0.03105623,0.00055855577,0.08825014,0.07531376,-0.04587796,-0.08951123,0.1267379,0.07447234,0.21175678,0.12541117,0.09807864,-0.062025156,-0.013808948,-0.00352005,0.1582516,-0.06173469,0.03573187,-0.0331512,-0.035685077,-0.065337904,-0.09716876,0.07910206,0.07942566,-0.0127147455,-0.08559212,0.041541666,-0.06501065,-0.20699199,-0.008220298,-0.07995925,0.048944004,0.054689698,-0.0017874459,-0.115275525,0.013214322,-0.1789041,-0.08674671,0.06665957,-0.039731834,0.06391979,0.1627811,0.13585249,0.020227306,-0.103320464,-0.03562733,0.057841104,-0.085343726,-0.05577489,0.062818624,-0.109403074,-0.0017581499,0.018759469,-0.12806141,0.12437972,0.113626055,0.014722548,0.064458705,0.016376551,0.08489575,0.074764304,-0.022206023,-0.08057418,-0.13224506,-0.096894786,0.0026173128,0.15221597,-0.115566745,0.0049640355,-0.0190261,-0.08744295,-0.19258754,0.013273368,0.02128523,-0.003579346,0.013132101,0.024868846,-0.10173652,-0.005860071,0.004135601,-0.18243718,-0.045706093,-0.034501508,-0.119816974,-0.037610084,0.028494354,-0.058174428,0.0298456,0.13112797,0.16051021,0.06725051,-0.028435208,-0.09658869,0.047722414,0.027839271,-0.027248794,-0.028283088,0.013302485,0.10617049,0.056557465,-0.055819713,0.0054237833,-0.0770572,-0.101784185,0.027236117,-0.12839967,0.017034007,0.045382556,-0.0130592,0.051680017,-0.05423879,0.03144799,-0.15091322,0.058985163,-0.04311811,0.02539604,-0.05147492,0.15323094,0.07218153,0.0004679076,-0.13312143,-0.0063354736,-0.062580384,0.030156316,0.025748143,-0.0052489513,0.0004023063,-0.016447274,0.0046635657,-0.043991312,-0.02437677,0.06616709,0.052357983,-0.038376804,0.08430201,0.076139614,-0.050581224,0.118179396,0.017161585,-0.10293604,0.022909988,0.003730441,0.0040871827,0.030349892,-0.019693261,-0.16394998,0.06104072,0.07320393,0.043437395,-0.0418387,0.030271906,-0.012362958,-0.099157766,-0.00061074266,-0.04826209,0.07891864,-0.04523537,0.04832149,-0.03342834,0.05598708,0.027091114,-0.04128528,-0.05014809,0.049848754,-0.010964472,0.063937105,0.07006248,-0.025787858,-0.041417442,-0.02545366,-0.06452691,-0.1140233,-0.065092444,0.13822924,0.028222004,-0.055478472,0.03027607,-0.07738518,-0.10262573,-0.0014897076,0.12895936,-0.103344716,-0.09057964,-0.030436156,-0.015910842,0.14308804,0.061024196,-0.05311402,0.17153381,-0.02895098,-0.09957068,0.09633786,0.12082472,-0.11315218,0.03874341,0.05570723,0.013048098,-0.026037795,0.0933174,0.018872809,0.031408977,-0.06696222,0.0036684673,0.24539477,-0.011124063,0.035649277,-0.024699874,0.023387272,0.08870645,-0.0570379,-0.051398594,-0.004022531
Incisor~Glider,-0.098233126,-0.258352,0.040634777,0.02013508,0.053816494,0.07170385,0.13663453,0.066001415,-0.02530014,0.047603223,0.0044770604,-0.059713624,0.045481626,0.14273264,0.06764758,-0.051166516,-0.008772132,0.0821048,-0.1136942,0.0051611904,0.02845836,-0.09280462,-0.13229299,0.18605945,-0.010702152,0.0182773,0.06577405,0.011705765,0.22081275,-0.0698011,-0.11667134,0.16365694,-0.023670256,-0.07627537,-0.027401015,-0.026142538,0.06562123,0.14788012,0.014861806,0.111811414,0.0057999203,0.15068996,0.29043278,0.11103049,-0.046529185,-0.03554412,-0.121437624,0.15671292,0.15251651,0.03157061,-0.10643384,0.18463579,-0.02544062,0.20758046,0.11951826,-0.15732253,-0.049673777,0.09938604,-0.05963335,0.10242132,0.070157446,0.016435333,-0.08484908,0.21309337,-0.050052818,-0.07114751,0.123412706,0.030841798,0.09199477,-0.09541486,0.10486952,-0.07573768,0.00041098133,-0.07885061,-0.062303573,0.054074593,-0.06675585,-0.06510666,-0.08764442,0.05353928,-0.13672511,-0.11096321,-0.027257875,-0.14664778,0.09237714,0.08325335,0.10155301,0.07296115,-0.09486594,0.004294916,0.082326084,-0.07397983,-0.039206933,-0.023533989,0.04602284,0.076355875,-0.0867572,-0.16701415,-0.103540115,0.020083746,0.095774196,0.09786661,0.020652635,0.125649,-0.020453129,-0.009642066,-0.06525432,0.019652434,-0.03974599,-0.09393366,0.15898758,-0.08376691,-0.023800615,0.10226047,-0.022941183,-0.15066856,-0.032847557,-0.18284185,-0.0047919173,-0.008801679,-0.07067538,-0.23986456,0.12953064,0.028986197,-0.2982387,0.1819754,-0.16157511,-0.1040259,-0.057441253,-0.053315815,0.09340003,-0.010049957,-0.017917076,0.03849616,0.18213129,-0.09172546,-0.19195555,0.03737973,0.05354359,-0.07531369,-0.09247803,0.10876066,0.009540157,0.21554132,0.031520598,0.060207754,-0.1547395,-0.07556195,0.029930575,-0.21506532,0.10591555,-0.19909315,-0.10707755,-0.01363903,-0.07597366,-0.092151664,0.06449119,-0.09014978,-0.093991786,0.021581048,0.16392846,0.19289494,0.018366141,0.21874891,-0.08059228,0.041637424,-0.1379811,-0.03292818,-0.07585705,0.17829707,0.092743434,0.011874675,-0.04471709,-0.003942354,0.0482203,0.043568123,-0.056293923,0.01873451,0.094642654,0.11340095,-0.10918529,0.16298527,-0.11749293,-0.0038693252,-0.16571756,-0.034703933,0.020897314,-0.05351052,0.082841836,-0.056002423,0.21136661,0.10620371,0.15806898,-0.06701489,-0.118723825,-0.0058137095,0.0767679,0.033935152,0.07049562,0.09520174,0.068052575,-0.0019008983,-0.054047216,0.17324726,0.10664947,0.024113053,0.02827875,0.02013118,-0.04801552,-0.054849464,0.0029709002,0.04633434,-0.055646636,0.1483421,-0.035534546,-0.12830286,-0.12911619,0.23803498,-0.046926085,-0.083753996,0.036340717,-0.099132575,-0.011243488,-0.04880437,0.056876376,-0.2873659,0.057492945,0.0003898471,0.044493437,0.17450036,0.046604306,-0.010868311,0.1071126,0.084882945,0.017671267,0.17241478,0.19042203,-0.064981855,-0.04895471,0.028768025,0.036194004,-0.03829776,0.02614043,-0.11999606,-0.043471802,-0.18558167,0.0047513456,0.12791353,-0.07076835,0.08332777,0.030645987,0.08209833,-0.014338873,0.06288031,0.13169467,0.034581207
Basilica~Shepherd,-0.043972477,-0.29131308,0.017746694,0.020318707,0.017031755,-0.012340178,0.06779251,0.059792664,-0.07926095,-0.08272008,-0.027296873,-0.018689075,-0.055196714,0.17266141,0.045862634,-0.08056943,-0.06683373,0.07104595,-0.14389768,-0.009628872,-0.041244946,-0.046587475,0.0026150031,0.18934314,-0.032957017,0.075633526,-0.00047213354,0.024309766,0.18193111,-0.04641125,-0.14956631,0.16991894,-0.061237074,0.03867109,-0.098002106,0.029327797,0.081288874,0.093368694,0.004913336,0.12208317,-0.052505463,0.07343677,0.3290851,0.08283458,-0.026909713,-0.012019341,-0.11646938,0.07011384,0.1034604,0.02907914,-0.03525389,0.1585995,-0.0106726065,0.1803336,0.11798976,-0.23063892,0.07585986,0.03019892,-0.029554822,0.12981208,-0.0077196406,-0.034066092,-0.026803225,0.20089766,-0.051657274,0.0034359056,0.1817764,0.025864009,0.049441468,-0.11380619,0.16985592,-0.119341426,0.03346996,-0.013958955,-0.08183481,0.003552785,-0.1188291,-0.10931243,0.010151942,0.12088481,-0.045477346,-0.06352504,-0.023552863,-0.16610992,0.06988312,0.13624664,0.18916714,-0.054694504,-0.09688547,-0.0023264522,0.11579671,-0.09157608,-0.042577066,0.01250192,0.03989612,0.0642938,-0.08362953,-0.21777469,-0.05947774,0.027602261,-0.012269373,0.11508402,0.03568921,0.047466964,-0.0072521414,0.03646316,-0.14542396,0.039774783,-0.10584182,-0.07490405,0.068479724,-0.13028026,-0.08266089,0.056869574,-0.030106138,-0.056081045,0.04059086,-0.14944047,0.10835768,-0.057653744,-0.11719248,-0.18355848,0.1610971,0.07118677,-0.21566243,0.18397884,-0.14168137,-0.023184558,-0.11725045,-0.016158462,0.110727526,-0.044008147,-0.004255355,0.047660068,0.2066838,-0.088577814,-0.18279038,0.03503975,0.048653185,-0.009674524,-0.08395433,0.14003205,0.078071706,0.15205547,0.053541593,0.033893723,-0.093925074,-0.07523521,-0.01167605,-0.26591974,0.10910765,-0.12121751,-0.09952441,0.019268852,-0.120622896,-0.0543875,0.0696751,-0.056268577,-0.090691194,0.092455424,0.08611035,0.123931825,0.051546473,0.28007457,-0.10017158,0.062641874,-0.13918714,-0.08288003,-0.031325936,0.15441804,-0.0027391834,0.0066289925,0.019809235,0.036404073,0.0647277,-3.876273e-05,-0.020479405,-0.018925155,0.0019115983,0.149653,-0.09292266,0.1323202,-0.17852205,-0.03064647,-0.15729326,-0.023579212,0.046149626,-0.087792225,0.053571418,-0.092744224,0.23665035,0.16778924,0.090541914,-0.053170476,-0.07311837,-0.042827375,0.079442054,0.053167775,0.115777425,0.16733238,0.085221864,0.050558824,-0.050138857,0.10919845,0.038780913,0.059867315,0.06156748,0.04155611,-0.05551953,-0.047854375,-0.05030447,-0.0057017514,-0.077742964,0.09421147,0.034607098,-0.13317493,-0.11741607,0.23269813,0.025298178,-0.16487725,0.08404035,-0.14242008,0.012680304,-0.047384102,0.026645742,-0.2854815,0.080782056,-0.00724232,0.09783166,0.18836838,-0.00020582521,-0.014097866,0.09462092,0.07502423,0.102371775,0.13805413,0.1647723,-0.050222933,0.0019236205,0.04050487,0.070560925,0.0013715231,0.07589728,-0.0518841,-0.11079822,-0.16950372,-0.0043227123,0.09524992,-0.11219091,0.09757796,-0.025106344,0.069146186,-0.12656179,0.067913346,0.14353676,0.061016772
Flensing~Raptor,-0.06099315,-0.22658941,-0.053517472,0.058848433,0.06387311,-0.0073804595,0.11418896,0.065265745,-0.060266312,-0.026200676,0.066696994,-0.014553342,-0.1076672,0.15975018,0.07584603,-0.04687796,-0.054878302,-0.023782033,-0.1237251,0.10496645,-0.021448825,-0.098398864,-0.060038157,0.20437945,0.04837836,0.031083288,-0.0158903,0.0063479664,0.32128713,-0.03418498,-0.13434987,0.14485364,-0.00025825147,-0.07747321,-0.119492665,-0.009019867,0.071029045,0.022955155,0.029355245,0.051520593,0.0032301731,0.09056545,0.32266244,0.1010581,-0.04638487,0.076129,0.016115785,0.007813865,0.04958214,0.037994448,-0.046338912,0.170847,-0.05422931,0.15167588,0.10330408,-0.20991579,0.04693516,0.0118252095,0.044945303,0.045303203,0.08063228,-0.034895524,-0.046943832,0.22902328,-0.010626792,-0.056616746,0.09890523,0.045682523,-0.022201752,-0.18391843,0.096146196,-0.07512317,-0.027924174,0.10034327,-0.009203433,0.04076191,-0.16668569,-0.06084287,-0.043514445,0.025835492,-0.09825622,-0.05712796,-0.0030774774,-0.11729821,0.07802204,0.09757516,0.1722914,-0.096114226,-0.06513784,-0.017458977,-0.0010812039,-0.08478683,-0.1316649,-0.04123142,-0.04340555,0.14626269,0.0013410939,-0.17261925,0.054980133,-0.055717155,0.07906927,0.13518651,0.0408022,0.023748076,0.10721817,-0.024933388,-0.1990709,-0.010703511,-0.11742196,-0.018899882,0.098740965,-0.11270796,-0.024327818,0.031083327,-0.005034039,-0.09973998,0.13399637,-0.24295929,0.021252755,0.009071081,-0.048513208,-0.16529311,0.20580937,-0.02136263,-0.3028574,0.095000856,-0.06682417,-0.10148383,0.013964686,-0.030849071,0.12416458,-0.01801062,0.08178786,0.02646759,0.21943024,-0.06979255,-0.28794396,0.043394938,0.07609329,-0.08811099,0.017071072,0.14669082,0.04689935,0.156291,0.028725622,0.048481345,-0.097295314,0.02086674,0.09239341,-0.20205313,-0.021470284,-0.12156419,-0.15327287,0.055333998,-0.07986944,-0.20893209,-0.02602227,-0.11358923,-0.14827074,0.06700403,0.1011157,0.1902008,0.1529917,0.23837887,-0.003116174,0.0083695855,-0.10872149,-0.08763652,0.028628508,0.008414224,0.045724455,0.047314327,-0.07886373,0.025769878,0.1496129,0.063284144,-0.08850262,0.025128715,0.07364452,0.118463375,-0.06106751,0.13872325,-0.10523043,-0.029850043,-0.20592953,-0.00020987347,0.009673128,-0.09020768,-0.001188435,-0.1000718,0.22467273,0.14472625,0.038263552,-0.14009766,-0.14258178,-0.07194479,-0.0046103173,0.13796046,0.084826306,0.16981712,0.06310071,0.059027433,-0.058887657,0.08557858,-0.003716098,0.07900478,0.05427696,0.04480831,0.015511253,-0.017854372,-0.023572681,0.02900953,-0.058734976,0.11747339,-0.090997234,-0.11578617,-0.11312784,0.2336586,0.14652596,-0.16486444,-0.05380851,-0.18571745,0.0960534,-0.09876733,-0.02903253,-0.30441266,0.14337409,0.04542745,0.029613245,0.14499062,0.049831945,-0.03938675,-0.022033485,0.12255592,0.011359019,0.16599914,0.004645951,-0.058956716,-0.06135918,-0.018446513,-0.052847046,-0.008124069,-0.028895143,-0.078683205,-0.08966953,0.0017476551,-0.0710449,0.100162394,-0.047330115,0.030948926,0.051296126,0.122944266,-0.042522795,0.18123958,0.08100936,0.00866819
Indoctrination~Attendant,-0.07435374,-0.22878791,0.001521839,-0.037252612,0.08922221,0.023184232,0.022571223,0.042297,-0.04239041,-0.058812987,-0.06615665,-0.018163325,0.00087135617,0.17169915,0.061756056,-0.029442715,-0.033342652,0.074518174,-0.1579544,0.035736207,-0.039860222,-0.08766506,-0.05847442,0.2064197,-0.06014859,0.01753794,-0.009995517,0.06801792,0.20881557,-0.007613264,-0.15331207,0.13986468,-0.035062436,0.017636947,-0.10318077,0.005801277,0.072481245,0.097848244,0.058743797,0.14183128,0.04063632,0.0987712,0.32589677,0.16380587,-0.065305464,0.0063838647,-0.009457378,-0.030521302,0.11345216,0.055748787,-0.08782479,0.0925113,0.051245596,0.13112684,0.13445438,-0.19260007,-0.028608723,-0.046126753,-0.038763158,0.1260537,0.046913378,0.038355995,-0.063345276,0.18068166,-0.07042297,0.02396258,0.13871132,0.1033677,0.017445145,-0.10496693,0.10851465,-0.16553533,0.0454281,0.0066881217,-0.09318892,-0.0033085623,-0.14480041,-0.10525267,-0.008791784,0.115632564,-0.08329321,-0.12417735,0.014980061,-0.16444491,0.07198505,0.14918117,0.14698797,-0.027586179,-0.065494835,0.045458797,0.122082986,-0.026812587,-0.08592332,-0.031986997,-0.11823228,0.018473342,-0.09479543,-0.1753471,-0.0017805066,0.06607454,0.09751982,0.105104774,0.050392948,0.006504733,0.044661608,-0.027888319,-0.21862285,-0.059129212,-0.036436625,-0.027338443,0.012885415,-0.08034692,-0.009178553,0.10039353,-0.036626898,-0.1524327,0.02131147,-0.19012421,0.0076672924,-0.077394865,-0.13361949,-0.24055994,0.16212516,0.0284127,-0.26127216,0.1679607,-0.09745052,-0.03608625,-0.07644099,-0.06325895,0.08285461,0.015546009,0.070516594,0.02813477,0.16950662,-0.06665908,-0.2067819,-0.012846553,0.07609304,-0.043140493,-0.123626135,0.1793702,0.07485864,0.18139793,0.07618604,-0.009582225,-0.12650931,-0.059719067,0.037555646,-0.15833062,0.039501,-0.12459411,-0.095247895,0.031711806,-0.1001079,-0.12619397,-0.006635268,-0.06224687,-0.10901192,0.09501795,0.05120864,0.11648639,0.10320453,0.21269952,-0.12401286,0.034266908,-0.14184481,-0.11768358,0.0030872147,0.08482187,0.08742585,-0.005895773,-0.058580343,-0.0084660845,0.035590496,-0.04785821,-0.023657287,0.0068177697,-0.0014861275,0.12426413,-0.08901483,0.1402387,-0.1418348,-0.0014708778,-0.13009907,-0.010014054,-0.04570509,-0.074932985,0.053491887,-0.06525433,0.18456946,0.14802219,0.06665564,-0.048891768,-0.120674334,-0.112497725,0.032672245,0.03065635,0.13599429,0.16233957,0.05852973,0.048187643,0.019513289,0.10511786,0.063691586,0.11682766,0.01237734,-0.015881946,-0.0066493037,-0.052325122,-0.07559346,0.02814122,-0.0074727004,0.15963154,0.018691316,-0.15684599,-0.0851513,0.22004,0.026555967,-0.17559126,0.041980434,-0.13333638,0.0014927486,-0.087241165,-0.02175245,-0.30790597,0.11876883,0.022471415,0.07750403,0.10107455,-0.036293864,0.060721952,0.15113118,0.065329455,0.102629416,0.061307732,0.09912608,-0.12100351,-0.03211549,0.08692329,0.02991226,-0.065032,0.069513455,-0.07545835,-0.09676414,-0.116617374,0.033078175,0.07507269,-0.08124281,0.007133737,-0.031164555,0.1333178,-0.025124446,0.059518255,0.08875578,0.07714186
Anoint~with~Affliction,0.026146365,-0.009496214,0.016776405,-0.043297734,-0.013893407,-0.043097068,0.027676199,0.019257823,-0.010935721,-0.039324053,0.1798411,0.20134483,-0.08669727,-0.02186738,-0.03553559,-0.016761405,0.016794004,-0.12655498,-0.019878533,0.014499981,0.016127104,-0.10466686,-0.040864922,-0.08581798,0.026010443,-0.080825195,0.03153856,-0.020563686,0.26419088,0.0005701046,-0.06352632,0.05410173,0.09499209,-0.039400943,-0.039823547,0.07705172,0.030211112,0.009318169,0.05890523,0.014176001,-0.022616236,0.06700318,0.06847382,0.049395893,0.019084657,-0.0133893415,-0.0486338,0.064650945,0.023423022,-0.056357607,-0.08552842,0.10268959,-0.028818041,0.12007626,0.16954489,0.03520785,0.14705548,0.08441001,0.07418769,-0.024726683,0.20186935,-0.0029646212,-0.057315383,0.018360259,-0.15098016,0.022150224,0.03232127,0.1032579,-0.008581435,-0.19616763,-0.039349493,0.022824824,-0.07278185,0.107412666,0.010165647,0.021053389,-0.02511126,0.032617513,-0.09444532,0.049039505,-0.05381478,-0.0349531,-0.0632161,-0.07415173,0.024774898,0.14961013,0.07409496,-0.025713418,-0.07019221,-0.1491612,-0.005599531,-0.12319595,0.048647072,-0.08551031,-0.12585886,0.03279166,0.024121389,-0.15091765,0.33471867,-0.036056697,-0.20991495,-0.07995722,-0.04454268,0.052945588,0.08558861,-0.03069517,-0.15300088,-0.101780474,-0.0723313,0.023302527,0.15369166,-0.068193406,0.1470834,-0.08767469,-0.11837114,-0.16522425,-0.00035078297,-0.021919692,-0.01935288,-0.014907435,-0.0075796554,-0.10764237,0.023353033,-0.10098711,-0.1963993,0.013462151,0.0324508,-0.036950327,-0.028455354,-0.0035088926,0.0329578,0.029370064,-0.014156457,0.09293304,-0.05438761,0.062049728,-0.13126883,0.07609123,0.06697815,-0.010489104,0.044635355,0.10608983,-0.053185243,0.039055597,-0.20812573,-0.10224482,0.11453465,-0.0993277,0.112069696,-0.106095955,0.07024524,0.07725294,-0.15649351,0.074103035,0.0009630038,-0.01665503,0.021502959,-0.009314978,-0.0658427,0.07534242,-0.01553938,0.16022861,-0.024874112,-0.07686663,0.016860392,0.03254805,0.010580096,-0.00645554,0.05253859,-0.08135456,0.0069507407,0.09854069,-0.03222421,0.10767818,0.11443301,-0.008275042,0.0348304,-0.0026122942,0.005931975,0.090354845,0.029348806,0.12442921,-0.0074995346,-0.040040527,0.026435416,0.06854391,0.038583722,0.06715153,-0.016165584,0.048951212,0.046726063,-0.012702313,0.034396067,-0.0044118757,-0.016814906,-0.03540591,-0.0008497481,0.07814754,0.01819765,0.23821548,-0.21742478,-0.059340034,0.027155597,-0.14843793,-0.12723981,-0.118783645,-0.05131317,0.033056304,0.03806277,0.12116838,-0.012777588,0.048408035,-0.21498564,0.005111464,-0.11314977,-0.034225218,-0.06736662,0.22920446,0.1091211,-0.071311176,-0.034076165,-0.21983643,0.04415599,-0.15181363,0.07484854,-0.0073440038,-0.066458985,-0.041845,-0.133708,0.112103075,0.05627131,-0.051514868,0.13099481,-0.043696176,-0.043357536,-0.04234073,-0.031199064,-0.026743518,0.059569642,0.09783627,-0.013497695,-0.06040883,0.12469327,0.027861489,0.06386483,-0.05378421,-0.06330682,0.027151223,0.11920983,-0.014858087,0.060268298,0.05598304,0.088622406,0.059386365,-0.012174832,0.10422885
Blazing~Crescendo,0.061519302,-0.2109584,0.15819031,-0.008484187,0.07029266,0.07360919,0.04786379,0.120607935,0.13179865,-0.089850806,-0.032674015,-0.04547352,0.04939764,-0.10001671,0.15264563,-0.025262192,0.04940149,0.11578439,-0.18881828,0.018976757,-0.026779233,-0.24577102,-0.011305117,0.07952805,0.035451088,0.018191554,-0.08529797,0.056126628,0.19634765,-0.069371134,-0.06112897,0.2079048,0.009282389,0.08671648,-0.14712119,0.08984385,0.026658341,0.056180052,0.062069062,0.15437004,0.08281486,-0.21753149,0.19486327,0.011141023,-0.124846414,0.22153148,-0.10788171,-0.047447134,0.10378413,0.0315418,-0.12819651,0.11663842,0.18363424,0.030642468,-0.04037476,0.10772034,0.11725119,-0.14018749,-0.03997199,-0.13517426,-0.15405329,-0.11276844,-0.008147372,0.17933878,-0.18796897,0.011027006,0.062218368,0.0030667472,-0.09301843,-0.012437887,-0.028294496,-0.04452012,0.23884755,0.11743782,-0.03388332,0.06943889,0.1459649,0.017033016,-0.084350884,-0.081777014,-0.08311892,-0.099700056,-0.05319524,-0.19669896,-0.0503223,0.15791313,0.17523947,0.13744634,-0.013033639,-0.15897906,0.058372904,0.07667395,0.0093269255,-0.059331447,-0.078879945,0.031336542,-0.15646105,-0.33185434,0.036411874,0.1640666,-0.070234716,0.1990507,0.0300027,-0.17990123,0.049144812,0.041106842,-0.30018148,-0.27628255,-0.25998825,0.030297983,0.17667566,-0.05714832,0.19219016,0.17443652,-0.07743132,0.1345911,0.12418431,-0.02234144,-0.06149243,0.10416322,-0.031673964,0.16565013,0.28788525,0.046186686,0.033433426,0.3657965,0.046993673,-0.14818203,-0.084856175,-0.12666304,0.06254709,0.09978865,-0.018162766,0.0289963,0.047111217,0.122127496,-0.009013574,0.117561065,-0.027910752,-0.092955746,-0.29799098,-0.021911263,0.077068865,-0.069072,-0.18346806,-0.0685235,0.038470007,-0.29672286,0.096820176,-0.12765634,-0.08509173,0.07152041,-0.06731519,0.028722594,-0.12599324,-0.051263556,0.110771164,0.11943681,-0.092778094,0.12228613,-0.010166324,0.29117665,0.12432582,0.25975344,-0.19274105,0.06494255,-0.08458908,-0.046296187,-0.11205087,-0.018395785,-0.021557251,-0.062407702,0.087450325,0.05289784,-0.04953205,-0.07426809,-0.040548466,-0.16637482,0.013315869,-0.017176077,-0.061618254,0.17427826,-0.041421495,-0.08950212,-0.036706302,0.01586937,0.05865738,-0.09649417,0.043694694,-0.06677176,-0.027470775,0.20804416,-0.18845768,-0.059728295,6.0019516e-05,0.07293121,-0.051535904,0.1476364,0.16999158,0.035595987,-0.10090195,0.07244818,0.00060714415,-0.0269752,-0.06696684,-0.06830794,-0.16594613,-0.06700459,0.08858337,-0.15083024,0.22292335,-0.04096218,0.033653837,-0.010140392,-0.07151018,-0.10014918,-0.2338429,0.10985531,-0.18572146,-0.1426613,0.06272375,-0.029045723,-0.017265307,0.1705643,-0.059452653,-0.008056998,-0.054738507,0.076146305,0.1644631,0.1445553,-0.2286731,0.16510583,0.17832014,0.098575674,0.11752395,0.0661289,0.06385888,-0.045829467,-0.03834559,-0.16816233,-0.018565208,-0.10446037,0.10698796,-0.0574427,-0.20007816,-0.09762402,-0.104793444,0.09483308,-0.16631131,0.052195337,-0.24494454,0.10779021,-0.1300517,0.060826328,0.2486843,-0.029259376
Oil-Gorger~Troll,0.090276554,-0.09204768,0.11603285,-0.074868955,0.074470185,0.02809594,0.03615836,0.023365047,0.18392545,0.05926345,0.22317894,-0.00075127615,-0.15143308,0.04322713,0.07557049,-0.038712967,-0.124747194,-0.1498543,-0.12703636,-0.028952502,-0.048448663,-0.12003619,0.13407882,-0.13720983,0.05178075,-0.09775635,-0.13155243,0.14052302,0.0850912,-0.01031338,-0.06692931,0.06895221,0.15139577,-0.03462823,-0.12470934,0.16568574,0.06584016,-0.06733024,0.020328071,0.18446349,0.19028352,0.06303935,0.14571111,-0.014298113,0.016260462,0.010908274,0.0342106,-0.034235418,-0.049775843,-0.110234536,-0.17167133,0.07073787,-0.034863215,-0.011071651,0.094979376,0.1964084,0.097441435,0.027226904,-0.009399398,0.058102787,-0.21114042,-0.033591222,0.2863064,-0.1619821,-0.056261174,-0.054732703,0.093029484,0.110529,0.124209896,-0.008178541,0.005482121,-0.1886859,0.09833978,0.18626224,0.03018471,-0.19055878,0.25010055,-0.01019652,0.08664227,-0.09351023,-0.09065421,-0.12881719,-0.15333685,-0.15359627,-0.0042434977,0.11780404,0.16544768,0.2225259,0.0032417385,-0.18115596,-0.07670283,-0.15199709,-0.16870257,-0.06492482,-0.22307183,0.23106706,-0.018278208,-0.37053,-0.025279632,0.19448861,-0.05682359,0.3862273,0.022329014,-0.080508724,0.014882617,-0.013621273,-0.11603291,-0.24831004,-0.18741982,-0.03002778,0.17696002,-0.031601235,0.29048577,-0.0013913903,-0.07826065,-0.011298436,0.123172425,0.1278625,0.037466884,0.1158523,-0.013313747,0.08558214,0.24044669,-0.02378577,-0.004536409,0.0893005,-0.12884031,-0.0016990762,-0.20137422,-0.18100512,-0.065146364,0.18720424,-0.10667304,-0.064228915,0.035903934,0.0964137,0.069674455,-0.05828356,0.06963832,-0.113852985,-0.16447017,0.074918196,0.18283883,0.11700446,-0.3161231,-0.02059208,0.28346375,-0.22387394,0.14883819,-0.014896548,0.10800994,0.24082057,-0.19428419,0.01920785,-0.080680706,0.055971995,-0.04658578,0.18933076,-0.06436028,0.23682062,-0.10523544,0.13126485,-0.07357653,0.077772476,-0.08490659,0.333159,0.10372431,-0.20131488,-0.0851474,-0.1443524,0.034473862,-0.13413848,0.15147223,-0.07558602,-0.017810099,0.015667368,0.13226247,-0.041746296,-0.104019694,0.05234135,-0.035898395,-0.044749945,-0.25357598,-0.1418277,-0.22079553,-0.13026156,0.027152728,-0.11858387,0.114028856,-0.24015354,-0.18587829,0.4752402,-0.1608891,-0.037976805,0.06924169,0.013982035,-0.29048803,-0.011673162,-0.09385411,0.116920575,-0.117982596,-0.00038018505,-0.037450094,-0.15212923,-0.05011517,-0.18464641,0.04007128,0.10747252,0.10251525,0.030356385,0.23264202,-0.042242944,0.06534677,-0.20664956,-0.030561967,0.055495888,-0.11946955,0.26471218,-0.17309657,0.09134324,-0.014371351,-0.18150851,-0.037272412,0.0071455436,0.055189233,-0.019689728,-0.0029356517,0.13304795,-0.043298244,0.11905078,-0.2802137,0.031002017,0.17083739,0.15998739,-0.08045754,0.042829808,-0.013855518,0.07716748,-0.018457077,-0.1300903,0.043165874,0.015375966,-0.055149335,0.11622433,0.12680458,-0.023491945,-0.13614994,0.15336919,-0.133325,-0.10665058,-0.1457677,0.06710748,-0.040012915,0.08086621,0.14809473,0.100288026
The~Autonomous~Furnace,0.11391973,-0.13631272,0.056787986,-0.013090731,-0.01458435,0.06919955,-0.075420305,0.056776915,0.16699761,-0.03430453,-0.08852469,-0.0054327757,0.08877403,-0.06471611,0.072228014,0.068591446,0.03450751,0.10160729,-0.040205203,-0.05144652,-0.14530955,-0.2696279,0.026661856,0.14594674,0.03804591,-0.061718095,0.006292163,0.07129684,0.22411203,-0.07937035,-0.11489529,0.21624164,-0.07157333,0.06271057,-0.15732756,0.11778147,0.07159787,0.014994875,-0.09396593,0.14502297,0.11798583,-0.10834415,0.1781738,0.06384981,-0.079478845,0.24077252,-0.0558102,0.028351542,0.068407424,0.031738665,-0.027090997,0.09831285,0.1984614,-0.02283108,0.04713598,0.05005937,0.0630046,-0.06598247,-0.08784398,-0.11768981,-0.16376628,0.0015077034,0.0018877335,0.15998448,-0.08553711,0.0152050555,0.14756912,-0.065652795,-0.11380897,0.0361715,-0.06532093,0.0067019314,0.16379279,0.1444581,-0.01681968,0.048659444,0.07696938,-0.063576594,-0.09225741,-0.02868601,-0.08767817,-0.028895006,-0.010603366,-0.24199972,-0.04125849,0.18627575,0.18571924,0.20064391,-0.118833706,-0.13196804,0.018899303,0.004311313,-0.002940946,-0.02625062,-0.04730355,0.10495624,-0.09405483,-0.32468298,0.021687787,0.17120172,-0.0809233,0.23428977,0.071657054,-0.09215174,0.08621106,0.086434685,-0.28445518,-0.36197975,-0.17657015,-0.03527506,0.07139331,0.051398482,0.14539522,0.14339142,-0.06781247,0.021089347,0.10628522,-0.037913807,-0.116226315,0.087204315,-0.021262737,0.1154666,0.1256103,-0.014386751,0.05745549,0.24142396,-0.051149625,-0.1504608,-0.12368814,-0.13352135,-0.081273474,0.047504168,0.09110144,0.040918976,-0.008602549,0.15630247,-0.027905297,0.123929,-0.06848957,-0.052462842,-0.25083172,0.056595914,0.17397426,-0.088721246,-0.17558244,-0.06259851,0.10596139,-0.29125693,0.0862554,-0.05190592,-0.03986727,0.07843551,-0.11029145,0.028686559,-0.10241183,-0.03419584,0.04473255,0.11380635,-0.04880105,0.03574391,0.018243691,0.33425274,0.044468295,0.15067443,-0.12447352,0.074697055,-0.14796369,-0.0711977,-0.12894166,0.0007771256,-0.046206124,-0.07557741,0.15311511,0.02671118,-0.025519388,0.030129666,-0.03808888,-0.09232448,-0.03832101,-0.047716524,0.01888223,0.01661059,-0.049241576,-0.18966605,0.033143975,0.07709503,0.13869165,-0.1550655,0.11033925,-0.13297369,-0.06959426,0.105551146,-0.23079525,-0.084728524,0.11309613,0.07705528,-0.12936077,0.13677055,0.15051867,0.026961878,-0.11244274,0.07345728,-0.09881646,-0.07531423,-0.102059044,-0.07850738,-0.07823087,-0.017456735,0.058467347,-0.05633859,0.23093764,0.044678133,0.060217597,-0.049261164,0.0007891946,-0.05875247,-0.2247462,0.047906373,-0.14284085,-0.072619095,0.03971515,0.040246706,-0.057896905,0.15407234,0.0144081805,0.108904794,-0.13453522,0.03810192,0.1400063,0.12461512,-0.1963685,0.109847575,0.22713971,0.11567657,-0.040337168,0.014869041,0.051121086,-0.029492555,-0.002187383,-0.09177257,0.002132955,-0.21008863,-0.031203194,-0.07130598,-0.10448812,-0.05575568,-0.10639734,0.024492053,-0.12305664,-0.030240368,-0.090062395,0.083828524,-0.06805823,0.10839622,0.26285598,0.07786078
Free~from~Flesh,0.13393839,-0.18997693,0.26504487,-0.08621496,0.010744472,0.06062756,0.03487419,0.14911562,0.041941315,-0.034082536,0.017946048,-0.16836241,0.10815552,-0.09668189,0.12262298,0.04467085,0.023402173,0.10096528,-0.111332,-0.01079439,-0.07020675,-0.1811563,0.019196616,0.03014551,-0.0039865705,-0.014452423,-0.073688164,0.05406741,0.2780944,-0.07128994,-0.083323486,0.14762609,0.051723134,0.11497393,-0.16280971,0.067520656,0.0670547,0.17381498,0.040600862,0.18567587,0.09632836,-0.1667526,0.17999065,0.0442751,-0.1318557,0.2543595,-0.08098152,-0.080437504,0.047605243,0.0007507125,-0.16538988,0.08023947,0.16918212,0.0012602318,-0.0109563,0.13653642,0.01623987,-0.06384804,-0.05803814,-0.109219715,-0.2366837,-0.06477027,0.13995679,0.06122728,-0.12081487,-0.030794626,0.08155393,0.035342395,-0.0007625546,-0.018495457,-0.021933675,-0.04334921,0.22182141,0.120577656,0.007969979,-0.03205584,0.25634122,-0.040270437,-0.09142328,-0.081745334,-0.118938774,-0.09374828,-0.06269648,-0.24468659,-0.056481317,0.11215232,0.19226074,0.20196955,0.07373443,-0.1567208,-0.005146501,0.09080298,0.0069037387,-0.060563944,-0.03504649,0.001835022,-0.14446694,-0.3210652,-0.027095987,0.115681656,-0.019125575,0.22982101,0.0015911314,-0.12800008,0.089826524,0.0007645233,-0.2963857,-0.34303853,-0.28835282,0.052198913,0.23880933,0.036689807,0.30929565,0.18522513,-0.025037456,0.030730786,0.107509315,0.007719504,-0.14559294,0.089751035,0.024982775,0.18029667,0.2424064,0.0049163233,0.040542,0.3070203,0.031845566,-0.09480762,-0.09326857,-0.22062525,0.013733925,0.08246814,0.020348893,-0.08616464,-0.024724778,0.12712434,0.016990002,0.0839474,0.026509795,-0.06917424,-0.2902432,-0.0022115845,0.18020052,-0.056894433,-0.25338024,-0.064826995,0.115492724,-0.33905724,0.14927508,0.03966165,-0.029665463,0.06837684,-0.14529644,0.019935297,-0.031221807,-0.04125957,0.091440625,0.17227176,-0.08786906,0.18402891,0.013873644,0.26044837,0.000734338,0.2255678,-0.048692197,0.17866491,-0.03975911,-0.11308263,-0.08728385,-0.04411349,0.05513708,-0.16051586,0.1672863,0.05626598,-0.034289163,-0.11429072,0.007741298,-0.06920606,-0.009776158,-0.00027813297,-0.10317384,0.118953615,-0.14534783,-0.16764261,-0.02423117,0.04301619,0.09552431,-0.07237759,0.16068138,-0.06697647,-0.113901004,0.34012017,-0.20501177,-0.035768796,0.0094353305,0.08042332,-0.16109471,0.12174212,0.16140479,0.051498067,-0.1907194,0.08329811,-0.058718994,-0.09513946,-0.07110594,-0.087006085,-0.07950792,0.06750498,0.13856332,-0.07968206,0.3270116,-0.01948601,0.13664922,-0.08983504,-0.039151948,0.013956454,-0.2869494,0.095200844,-0.2375236,-0.102543905,0.07263442,-0.08675085,-0.054581765,0.12756027,0.071058124,-0.009748409,-0.18945988,0.18109256,0.102140486,0.12495838,-0.20982194,0.1384139,0.16553009,0.1031477,0.12482173,0.024076428,-0.021488225,-0.0020431504,-0.06422087,-0.14404346,0.0065288893,-0.13619879,0.09228575,0.017795747,-0.131017,-0.08645495,-0.15353657,0.14346868,-0.0934425,0.00064921204,-0.2495897,0.014327349,-0.15387726,0.046799675,0.3068503,-0.07832588
Charge~of~the~Mites,-0.10347752,-0.29391637,0.0007078784,0.013678405,-0.007016031,0.04130743,0.050007924,0.02485834,-0.09260948,-0.027608117,0.013811497,-0.040980205,0.03491896,0.14289096,0.06946247,-0.011442028,-0.0772,0.1098943,-0.104137875,-0.0011638601,0.012993544,-0.080837175,-0.04411731,0.16481158,-0.061164897,0.0912018,0.110998094,0.07140033,0.15332131,-0.13268907,-0.11987257,0.14443928,-0.040661186,-0.029992206,-0.088377304,-0.09916557,0.04128317,0.15650119,-0.02122602,0.07308615,0.003393158,0.17881663,0.3068585,0.1286742,-0.11413401,0.00063061464,-0.07616627,0.08701317,0.09661352,0.009386355,-0.111291185,0.1302422,-0.058868773,0.21996376,0.1514649,-0.15126237,-0.059236217,0.06972669,-0.03439184,0.05971063,0.11521782,0.025160521,-0.05877836,0.13433017,-0.016160099,-0.042803634,0.09967183,-0.0029681742,0.045642212,-0.1353598,0.10861026,-0.1282393,0.020927574,-0.024946302,-0.07093776,0.057307802,-0.086998336,-0.08227816,-0.0116972495,0.09720876,-0.08920298,-0.08291828,-0.005391373,-0.15984394,0.073344916,0.13608733,0.18180943,-0.019436432,-0.08852454,-0.009900649,0.057114907,-0.047374792,-0.05330504,-0.011071069,0.063652165,0.040526304,-0.10438392,-0.1950837,-0.083488084,-0.0097739035,0.055378314,0.061415177,0.026560988,0.120130286,0.015900504,0.017834961,-0.14563312,-0.037407663,-0.041331805,-0.030287169,0.104383186,-0.08694574,-0.024805149,0.107049026,-0.03178206,-0.08760394,0.006698928,-0.15757096,0.014413814,-0.0060077407,-0.11823872,-0.19972585,0.14968932,0.07809116,-0.20339273,0.20271811,-0.111265756,-0.07771944,-0.091523886,-0.07711775,0.0969625,0.026051689,-0.0508901,0.050419454,0.11581125,-0.050397918,-0.2221075,0.023599414,0.010374432,-0.050204422,-0.046771247,0.098884635,0.08184286,0.17504199,0.058927532,0.027359052,-0.2125587,-0.025375498,0.0030201697,-0.22759712,0.09364368,-0.15649672,-0.05760704,0.021010678,-0.06714128,-0.09545424,0.07884623,-0.045882758,-0.073811956,0.1308322,0.10045994,0.20941418,0.06366438,0.17338085,-0.070193455,0.04160177,-0.14303055,-0.014818648,-0.026705254,0.17971104,0.063857175,0.044976488,-0.037298676,0.017438503,0.08728803,0.034943122,-0.05409404,0.016947696,0.091177754,0.14358087,-0.16408442,0.15396507,-0.17120537,-0.05204532,-0.106519885,-0.0030980203,0.02876921,-0.038668633,0.116091065,-0.032285817,0.2511198,0.08446746,0.12048955,-0.066407755,-0.054754,-0.07841409,0.062193397,0.023529844,0.087506525,0.040313624,0.045763627,0.08177351,-0.045120046,0.1268456,0.027189245,0.07247178,0.062848054,0.060616255,-0.019584028,-0.070050746,0.039979752,0.10551998,-0.07940183,0.17051853,-0.104778714,-0.14963613,-0.08703154,0.25609905,-0.017649412,-0.068469696,0.06251194,-0.083570704,0.05283403,-0.098294064,0.0014757429,-0.24543071,0.03778847,-0.0062389383,0.03181477,0.15162054,0.020242225,0.02426531,0.062087838,0.14667313,0.018281307,0.19702044,0.17219555,-0.082898766,-0.05237742,0.034374714,0.05803988,0.002845188,0.0696205,-0.04893021,-0.091911,-0.18495943,-0.046361767,0.13191122,-0.06531451,0.1329509,0.016009435,0.06737924,-0.07895213,0.06405181,0.17862289,0.025725627
